/*
 * Copyright (c) 2018 Sergey Lavrushkin
 *
 * This file is part of FFmpeg.
 *
 * FFmpeg is free software; you can redistribute it and/or
 * modify it under the terms of the GNU Lesser General Public
 * License as published by the Free Software Foundation; either
 * version 2.1 of the License, or (at your option) any later version.
 *
 * FFmpeg is distributed in the hope that it will be useful,
 * but WITHOUT ANY WARRANTY; without even the implied warranty of
 * MERCHANTABILITY or FITNESS FOR A PARTICULAR PURPOSE.  See the GNU
 * Lesser General Public License for more details.
 *
 * You should have received a copy of the GNU Lesser General Public
 * License along with FFmpeg; if not, write to the Free Software
 * Foundation, Inc., 51 Franklin Street, Fifth Floor, Boston, MA 02110-1301 USA
 */

/**
 * @file
 * This file contains CNN weights for SRCNN model (https://arxiv.org/abs/1501.00092),
 * auto generated by scripts provided in the repository: https://github.com/HighVoltageRocknRoll/sr.git.
 */

#ifndef AVFILTER_DNN_SRCNN_H
#define AVFILTER_DNN_SRCNN_H

static const float srcnn_conv1_kernel[] = {
    -0.7263989f,     0.10602153f,     0.5026704f,      -0.14831094f,
    0.37574732f,     -0.48292008f,    0.23944865f,     0.47783348f,
    -0.31678325f,    0.54115134f,     -0.12013878f,    -0.2609722f,
    0.15616964f,     1.1431208f,      -0.48957616f,    -0.2451917f,
    0.1284056f,      -0.021970319f,   1.0423138f,      -1.5206486f,
    -1.6353005f,     0.4495059f,      1.20728f,        -0.47862163f,
    -0.17744678f,    -0.6134415f,     0.20609367f,     1.3394631f,
    -1.722065f,      -0.4467302f,     0.23103382f,     0.42106146f,
    -0.12702082f,    0.77740306f,     -0.69918704f,    0.48986763f,
    0.5589177f,      -0.30944192f,    1.1438733f,      -0.65396136f,
    -0.70556897f,    0.44775712f,     1.2461696f,      -1.3872666f,
    0.2169952f,      -0.37848595f,    0.043647807f,    1.3152972f,
    -1.0774575f,     -1.1562293f,     0.35734457f,     1.0001631f,
    -1.1782744f,     0.06567217f,     -0.6173174f,     0.6298238f,
    1.4242675f,      -0.2069782f,     -0.33268732f,    -0.35322326f,
    0.10217269f,     0.47913307f,     0.26337254f,     -0.67979544f,
    0.12577783f,     0.52598596f,     -0.19630483f,    0.30299404f,
    -1.0643626f,     -0.24875754f,    0.81885606f,     0.015991075f,
    0.020289483f,    0.0686438f,      0.375957f,       -0.69463587f,
    0.2382723f,      0.22152439f,     -0.08397214f,    0.1924622f,
    -0.46541685f,    -0.38124445f,    -0.17821935f,    0.5965002f,
    -0.035983816f,   0.6008474f,      0.05921357f,     -0.77031547f,
    0.2330389f,      0.13337427f,     0.1549126f,      0.067306034f,
    -0.11510281f,    -1.1934607f,     -0.39514753f,    0.31912854f,
    0.11281575f,     0.20578581f,     -0.24752977f,    0.37552473f,
    0.18900225f,     0.5873591f,      0.10472243f,     -0.08534039f,
    0.16720428f,     0.09479876f,     0.2761193f,      -0.18016733f,
    0.42708036f,     -1.3561232f,     0.16277355f,     1.296158f,
    0.47224966f,     -0.9756136f,     0.01429936f,     0.78976095f,
    -0.37165934f,    -0.18987168f,    -2.768134f,      -0.75251764f,
    2.0366445f,      0.34599665f,     -1.4310564f,     -0.29698998f,
    0.7507228f,      -0.24187464f,    0.26860067f,     -1.29194f,
    -0.06718959f,    1.5185323f,      0.42319876f,     -0.3397131f,
    0.034438632f,    0.3394911f,      -0.4155706f,     0.2498848f,
    0.49432325f,     0.34672555f,     -0.043687735f,   -0.34755713f,
    0.12991475f,     0.59121245f,     -0.19544233f,    0.048664026f,
    -0.029653434f,   0.2838548f,      -0.025635261f,   -1.0817777f,
    -0.49922147f,    0.30909857f,     -0.18102932f,    0.13793421f,
    -0.047630433f,   0.08078894f,     -0.6182872f,     0.12631422f,
    0.23384316f,     0.9919446f,      -0.20500293f,    -0.47246227f,
    0.31138495f,     -0.035759382f,   0.46698722f,     -0.67741156f,
    -0.5294287f,     0.6026003f,      1.1834553f,      0.5267343f,
    -0.34330863f,    -0.018293776f,   0.4679054f,      0.17324278f,
    -0.03554532f,    0.5563575f,      1.4066254f,      1.2233248f,
    0.6956746f,      -0.104703404f,   -0.24316745f,    -0.10153877f,
    -0.0018137248f,  0.24293478f,     -0.04501183f,    -1.2523488f,
    -2.14991f,       -1.327261f,      -0.21102585f,    0.30200675f,
    -0.1650284f,     -0.52617776f,    0.5428086f,      0.023360383f,
    -0.98181826f,    -1.0008751f,     -0.44369724f,    0.27985632f,
    0.62786746f,     -0.18338394f,    -0.12290207f,    0.1446639f,
    0.30579162f,     0.84409934f,     1.2543039f,      1.2681394f,
    -0.06656643f,    -0.060104124f,   -0.24642299f,    -0.15825404f,
    -0.12671064f,    -0.3518346f,     -0.52905124f,    -0.46248388f,
    -0.33800587f,    -0.54408455f,    -0.25075534f,    -0.10540969f,
    0.13493654f,     0.35161543f,     -0.035940636f,   -0.08201337f,
    -0.5706626f,     -0.37743926f,    0.019457942f,    0.80704933f,
    0.32105067f,     0.037670434f,    -0.3106436f,     0.17928012f,
    0.20210204f,     0.4273411f,      0.5027316f,      -0.07298674f,
    -0.09220003f,    -0.5484188f,     -0.16819112f,    0.20233753f,
    -0.029914672f,   -0.21038392f,    0.03170107f,     0.022139158f,
    -0.15891029f,    -0.11592263f,    0.2576922f,      0.0072771427f,
    -0.066282056f,   -0.07872525f,    0.5865559f,      0.23848821f,
    0.25726625f,     -0.093935065f,   -0.068290584f,   0.036047217f,
    -0.14091331f,    0.34567562f,     -0.07219853f,    -1.1261845f,
    -1.3960425f,     -0.76837903f,    0.23771587f,     0.29315057f,
    -0.19119522f,    0.19012818f,     -0.073937364f,   0.044728864f,
    0.5776024f,      0.9897966f,      0.53273576f,     -0.15098274f,
    -0.03573044f,    0.20435207f,     0.2714278f,      -0.8547263f,
    -0.30613494f,    1.3886656f,      1.9011419f,      0.9593827f,
    -0.73553854f,    -0.45517915f,    0.025867065f,    0.101844996f,
    0.09645809f,     0.123161055f,    -0.9174892f,     -1.2275983f,
    -0.56873393f,    0.14470425f,     0.18598866f,     0.23721717f,
    -0.19604f,       0.29935414f,     1.0313185f,      -1.770268f,
    -2.649679f,      -0.7733933f,     0.99738145f,     0.23972774f,
    -0.34836933f,    -0.22536243f,    -0.36191761f,    0.18033181f,
    1.698728f,       2.1854334f,      1.1074656f,      -0.11460473f,
    -0.31702203f,    -0.11365917f,    0.5040004f,      -0.17280416f,
    -0.824993f,      -0.35835874f,    0.09919185f,     -0.41119656f,
    -0.7426417f,     0.026628582f,    0.36534435f,     -0.2935296f,
    0.30641884f,     0.4454501f,      -0.23734173f,    -0.55541134f,
    -0.07737103f,    0.5374771f,      0.029738871f,    -0.16415067f,
    0.27026442f,     -0.019386277f,   0.2257843f,      -0.2610451f,
    0.29025224f,     0.0323975f,      -0.24996525f,    -0.13371797f,
    0.1990057f,      -0.75456816f,    -0.07928557f,    0.4718667f,
    -0.58301795f,    -0.6289958f,     0.043499757f,    0.47926098f,
    0.24356067f,     -0.36129156f,    0.5835884f,      -0.13532665f,
    0.38269094f,     0.7183827f,      0.067397475f,    -0.42604956f,
    0.53801775f,     -0.012071161f,   -0.15065268f,    1.6623957f,
    -1.0779876f,     -1.5176026f,     1.1759787f,      0.492117f,
    -1.0571814f,     0.10549368f,     -0.11476211f,    -0.08055503f,
    2.2380643f,      -1.2825518f,     -2.964976f,      0.33482534f,
    1.092729f,       -0.83073944f,    0.055731095f,    0.16512655f,
    0.2279519f,      1.0676982f,      -0.63224566f,    -0.87255496f,
    -0.00030620184f, 0.61401004f,     -0.6779533f,     0.20687394f,
    0.11530533f,     -0.09796175f,    -0.17359062f,    -0.09167872f,
    0.5978565f,      0.44643846f,     0.5141848f,      -0.37242907f,
    0.5970414f,      -0.11124167f,    -0.111565225f,   -0.14684688f,
    -0.047505114f,   0.18187033f,     -0.30229607f,    -0.4489613f,
    -0.54386234f,    0.25364923f,     -0.098850206f,   -0.086713634f,
    0.25193915f,     -0.11882926f,    0.13730775f,     -0.21007928f,
    0.45700842f,     -0.088474065f,   0.13851145f,     -0.11291132f,
    0.061275546f,    -0.066255376f,   -0.015100992f,   0.08680404f,
    0.12645586f,     0.33221236f,     0.20174214f,     -0.252648f,
    -0.48872f,       0.31734344f,     0.023180632f,    0.14285406f,
    -0.32391074f,    0.2471229f,      -0.19922902f,    -0.7711557f,
    0.28097668f,     0.8963695f,      -0.3713026f,     0.03506874f,
    -0.29458657f,    0.29833743f,     0.021619521f,    0.10475948f,
    -0.02917348f,    0.69391185f,     0.13044725f,     -0.49359274f,
    0.023207946f,    -0.22082663f,    1.2119422f,      -0.9989304f,
    -0.43711343f,    1.5081764f,      0.013644039f,    -1.6462599f,
    1.0773262f,      -0.21466662f,    -0.4566561f,     1.3435651f,
    -1.41988f,       -0.6456881f,     2.3546782f,      -0.30025634f,
    -2.620215f,      1.7275296f,      -0.20222616f,    -0.50596696f,
    1.2236485f,      -0.8864262f,     -0.41477537f,    0.829931f,
    0.49423417f,     -1.0973096f,     0.42582485f,     0.22452296f,
    -0.14031331f,    0.32969078f,     -0.28245318f,    -0.020392092f,
    -0.08865982f,    0.16707866f,     0.38051793f,     -0.035839517f,
    0.2306986f,      -0.14719579f,    -0.19459364f,    0.11216528f,
    0.2777106f,      -0.56038356f,    -0.15703991f,    0.10614974f,
    -0.20249663f,    -0.0694758f,     0.048343804f,    0.088438004f,
    0.090558946f,    0.13783233f,     0.2307014f,      0.0009698182f,
    -0.13366666f,    0.22858207f,     -0.14880876f,    -0.35845554f,
    0.1338682f,      0.22097413f,     0.32187966f,     -0.05034136f,
    -0.07330734f,    -0.13549939f,    -0.089406766f,   0.24041393f,
    0.33922225f,     0.03014337f,     -0.37875935f,    -0.6540036f,
    0.26888f,        0.41949442f,     0.13917583f,     0.12236933f,
    0.027446935f,    -0.08716239f,    -0.040734176f,   -0.3944786f,
    -0.07939863f,    0.055101413f,    -0.40847212f,    -0.21136412f,
    -0.16155608f,    0.3146967f,      -0.5971032f,     0.20469202f,
    0.8797909f,      1.1722349f,      0.34738892f,     -0.37396973f,
    0.13547257f,     0.2883454f,      0.02557723f,     -0.07777084f,
    0.53552854f,     -1.0067828f,     -0.93197465f,    -0.301378f,
    -0.17159878f,    0.1680074f,      0.027190955f,    -0.43096787f,
    0.4392596f,      0.6575586f,      -1.5560985f,     -0.6291224f,
    0.30029467f,     0.33370602f,     -0.277416f,      0.107902214f,
    -0.042087123f,   -0.52617055f,    0.18367536f,     0.7542734f,
    2.027691f,       0.984213f,       -0.1663963f,     -0.59241384f,
    -0.00882523f,    0.63580036f,     -0.3984743f,     -0.2506722f,
    0.1626365f,      0.81098735f,     -0.06939555f,    -0.6184459f,
    0.21373886f,     0.3340931f,      -0.27492195f,    0.2230297f,
    0.42537546f,     -0.89950776f,    -1.3422889f,     -0.5399033f,
    0.51746935f,     0.11387378f,     -0.24686225f,    0.02206294f,
    0.37388873f,     -0.39221865f,    -1.5361317f,     -1.3335013f,
    -0.7182086f,     0.17168027f,     0.72005093f,     0.13720219f,
    0.4366388f,      -0.085392706f,   0.1293127f,      0.7402921f,
    1.7634785f,      0.34508327f,     -1.1746907f,     -0.7007663f,
    0.14875877f,     0.032796208f,    -0.025421033f,   0.32587984f,
    0.73615205f,     1.1345043f,      0.5788003f,      -0.45788294f,
    -0.60399574f,    0.12313714f,     -0.18048021f,    0.44865513f,
    0.8296121f,      -1.1711287f,     -1.744529f,      -0.36602977f,
    0.98342174f,     -0.114971936f,   0.02738897f,     -0.4427554f,
    0.2831007f,      0.8598983f,      -0.15194453f,    -0.9136412f,
    0.6787078f,      0.44700852f,     -0.53786695f,    -0.017307825f,
    0.18260056f,     -0.6485845f,     0.34299588f,     0.9489026f,
    0.94465286f,     0.49455532f,     -0.35203394f,    -0.45152044f,
    0.11621425f,     0.11447259f,     0.040673617f,    -0.71276504f,
    -0.73925704f,    -1.100894f,      -0.97932f,       -0.172931f,
    0.726209f,       0.17484011f,     0.32822183f,     0.51445514f,
    0.17485477f,     0.16612771f,     -0.11933684f,    -0.039564066f,
    0.5764389f,      0.59743696f,     0.074268654f,    -0.3919722f,
    0.23575598f,     -0.22772102f,    0.016834449f,    0.37495023f,
    0.20427136f,     -0.5615501f,     -0.3002306f,     -0.24319829f,
    0.016914783f,    0.007927076f,    -0.10381716f,    0.054156844f,
    -0.08905566f,    0.19208689f,     -0.21241345f,    0.11541119f,
    -0.027493877f,   -0.26355416f,    0.5591375f,      -0.20755993f,
    -0.37642932f,    0.5311379f,      0.47656754f,     -0.5954351f,
    0.011943212f,    0.09183289f,     -0.03677413f,    0.16958217f,
    -0.02078214f,    -0.18908505f,    -0.4617806f,     0.078835174f,
    -0.07257673f,    0.0771782f,      0.16639948f,     0.47881326f,
    -1.364898f,      0.31772718f,     1.5545816f,      -0.83652f,
    -0.93394774f,    1.5725405f,      -0.6652524f,     -0.15141797f,
    0.91672754f,     -2.0863702f,     0.78238636f,     2.3251228f,
    -1.2362984f,     -1.8946857f,     2.5515373f,      -0.8630663f,
    -0.0466625f,     0.41515315f,     -1.2272172f,     0.26329744f,
    1.2443293f,      -0.88989544f,    -0.8293886f,     1.3633447f,
    -0.684231f,      -0.14873628f,    -0.04644238f,    0.30573758f,
    -0.068075225f,   -0.14957273f,    -0.20632695f,    0.19734752f,
    -0.054233257f,   -0.065973274f,   0.29581094f,     -0.21473368f,
    0.36871183f,     -0.08626782f,    -0.42372608f,    0.39955935f,
    0.3903162f,      -0.5645909f,     0.1883746f,      -0.019107355f,
    0.022658974f,    0.009612116f,    -0.16355167f,    0.19896704f,
    -0.13607965f,    0.09246324f,     -0.09797903f,    0.048659373f,
    -0.037491314f,   -0.14240977f,    0.20413423f,     0.08013308f,
    -0.34478816f,    -0.5379457f,     -0.1879972f,     0.06449225f,
    0.20439695f,     -0.22875418f,    0.28015792f,     -0.4402247f,
    -0.10334257f,    0.99477077f,     1.2921251f,      0.30159664f,
    -0.3302597f,     -0.009246098f,   0.2289346f,      -0.00985004f,
    -0.0011079466f,  0.22817999f,     -0.34618375f,    -1.409124f,
    -0.52559733f,    0.07852194f,     -0.025938477f,   -0.18463936f,
    -0.5327232f,     0.9662563f,      0.77706736f,     -1.5702273f,
    -2.5716293f,     -0.9017005f,     1.0010576f,      0.39339042f,
    -0.29945448f,    -0.21575934f,    -0.48090336f,    -0.42497942f,
    0.61069816f,     0.73823947f,     0.40696618f,     -0.21580309f,
    -0.46710205f,    0.06616455f,     0.602241f,       -0.29521075f,
    -0.470355f,      1.9458065f,      2.443488f,       1.4839429f,
    -0.052761942f,   -0.3976784f,     0.68494105f,     -0.07563186f,
    0.24861592f,     -0.49241045f,    -0.8815515f,     -0.8532087f,
    -0.43924895f,    -0.40971693f,    -0.049054857f,   0.07599679f,
    -0.18183342f,    0.38677353f,     0.3204334f,      -0.0865483f,
    -0.39006183f,    -0.19469076f,    0.30097964f,     0.3177567f,
    -0.3091987f,     0.11990278f,     -0.43667668f,    -0.05127544f,
    0.2039718f,      0.5553467f,      0.2907104f,      -0.0910852f,
    -0.27651635f,    0.06633793f,     -0.11610153f,    -0.10718948f,
    -0.07430103f,    0.08979611f,     0.02598161f,     -0.10642334f,
    -0.093117245f,   -0.021283662f,   -0.0046935086f,  0.051439416f,
    0.16633305f,     -0.1166427f,     0.17743008f,     -0.022526765f,
    0.10478239f,     -0.13903795f,    0.19445625f,     -0.0588807f,
    -0.04630704f,    -0.06571279f,    -0.20475726f,    -0.2824264f,
    -0.21493006f,    -0.040839963f,   -0.2803055f,     -0.112532206f,
    -0.21883382f,    0.057782356f,    -0.13706921f,    -0.33366126f,
    -0.31095985f,    0.110574976f,    -0.08307843f,    -0.19681808f,
    0.1336516f,      0.038494658f,    -0.18258247f,    0.0003316764f,
    -0.26141733f,    0.3485119f,      0.3545282f,      0.2606433f,
    -0.41138816f,    0.16946845f,     -0.028205436f,   -0.13313891f,
    -0.078877494f,   0.21378776f,     0.07672383f,     0.25592306f,
    -0.020387953f,   -0.44255662f,    0.25025597f,     -0.12463363f,
    -0.27418944f,    0.2723045f,      -0.12058997f,    -0.37168705f,
    -0.44781202f,    -0.33156475f,    -0.35647348f,    0.17796832f,
    -0.12119717f,    -0.12833434f,    -0.10572009f,    0.07894141f,
    -0.4137011f,     -0.5315371f,     -0.17087053f,    -0.01732094f,
    0.06784408f,     -0.16414793f,    -0.0874874f,     0.19013783f,
    -0.18964772f,    -0.103452116f,   0.046060424f,    0.17549752f,
    -0.027187627f,   -0.0074856584f,  -0.12811483f,    -0.5017386f,
    0.020504307f,    0.37256476f,     0.4620954f,      -0.35890388f,
    -0.38583973f,    -0.23569678f,    0.28363082f,     0.054050233f,
    0.36850584f,     0.08528788f,     -0.38075712f,    -0.40704483f,
    -0.30872306f,    0.68601817f,     -0.45360413f,    -0.34648514f,
    -0.12929815f,    0.5816819f,      -0.6861207f,     0.10264717f,
    0.42558417f,     0.31414813f,     1.9223102f,      1.1935598f,
    -0.145911f,      0.13434172f,     0.39321974f,     -1.5645692f,
    1.0946943f,      1.0783141f,      -1.8093923f,     -2.5671768f,
    0.9076208f,      -0.23577802f,    0.051736858f,    0.3651396f,
    -2.2567074f,     1.5076435f,      1.2892408f,      -2.4163277f,
    -4.302613f,      0.18257363f,     -0.6784518f,     -0.011453142f,
    0.29107454f,     -1.2645804f,     1.2282435f,      1.267446f,
    -0.77700347f,    -0.29826313f,    0.98254025f,     -0.017620187f,
    0.5823298f,      0.26316735f,     -0.28811622f,    -0.22252186f,
    0.21989049f,     0.37484524f,     1.1437117f,      0.59011585f,
    -0.18849126f,    0.5026451f,      0.4115662f,      0.028699921f,
    -0.41734797f,    -0.5511076f,     -0.64370537f,    -0.2910468f,
    -0.7996264f,     -0.2695162f,     -0.49478745f,    -0.5803374f,
    0.2433155f,      0.2002157f,      0.44357777f,     -0.0015314774f,
    -0.14045519f,    0.2558532f,      0.38127804f,     -0.054795325f,
    -0.008761176f,   -0.060014077f,   -0.058624715f,   0.28308347f,
    -0.4158676f,     -0.29263753f,    -0.07421195f,    -0.34173045f,
    0.34393975f,     -0.02810749f,    -0.3745195f,     -0.41115463f,
    0.06697473f,     0.71030605f,     1.6023778f,      0.6241183f,
    -0.45142415f,    0.17611483f,     0.61277026f,     -0.1281581f,
    0.18669653f,     1.3203012f,      0.63291836f,     -0.26486424f,
    -0.9971664f,     0.20164996f,     -0.12514788f,    0.20720239f,
    -0.22733729f,    0.62221444f,     1.5338745f,      -0.28462204f,
    -1.9085015f,     -1.2539467f,     1.3149871f,      -0.4877235f,
    -0.7715078f,     0.4602598f,      -0.60407895f,    -0.37915072f,
    -0.98744285f,    -0.7662493f,     0.1635212f,      1.5674274f,
    -0.60574186f,    -0.63268894f,    0.802344f,       -0.3792746f,
    -1.6308274f,     -0.90369064f,    0.45438603f,     0.16395225f,
    0.42283246f,     -0.3474321f,     0.108107194f,    0.74220324f,
    0.44326776f,     0.6536655f,      1.000009f,       1.1428074f,
    -0.35299507f,    -0.5326825f,     0.38839117f,     -0.13484591f,
    -0.36238474f,    -0.20466816f,    0.3953623f,      -0.072583795f,
    -0.3237313f,     -0.4415874f,     -0.17510557f,    0.2483535f,
    0.2678793f,      -0.087043315f,   0.15836707f,     -0.37598613f,
    -0.7726355f,     0.31426254f,     0.72350067f,     0.10417363f,
    -0.2631995f,     -0.27390707f,    -0.048706546f,   -0.030659141f,
    0.04257622f,     0.0848124f,      -0.017434172f,   -0.016464088f,
    0.116972126f,    -0.37063533f,    0.26104128f,     0.17932026f,
    0.09795914f,     0.33524337f,     0.25707072f,     0.14574023f,
    -0.13222384f,    -0.03485083f,    0.26538774f,     0.14862078f,
    0.1175009f,      -0.85865754f,    -1.1811877f,     -1.1189443f,
    -0.92780644f,    -0.27033296f,    0.054572947f,    0.21112974f,
    0.07707597f,     -0.28455725f,    0.24221712f,     1.7395023f,
    1.7169355f,      0.81386805f,     -0.3292671f,     -0.11583813f,
    0.29572165f,     -0.0012033402f,  -0.9520428f,     -0.011014196f,
    1.787237f,       1.7317044f,      -0.1665825f,     -1.0005634f,
    -0.57345814f,    0.2505422f,      0.20701517f,     0.16124937f,
    -0.045182522f,   -0.977237f,      -2.0858264f,     -0.95755684f,
    0.3506613f,      0.581261f,       0.19954799f,     -0.34678653f,
    0.59705293f,     0.7633651f,      -1.8252743f,     -3.9196434f,
    -0.82759666f,    0.5536015f,      0.04849925f,     -0.24108513f,
    -0.14581756f,    -0.46617854f,    0.62104315f,     1.3523421f,
    0.9150451f,      0.78021723f,     0.32633576f,     -0.5460972f,
    -0.07023439f,    0.38234302f,     -0.21999863f,    -0.0026345744f,
    0.055541564f,    -0.1407696f,     0.15286206f,     0.07350683f,
    -0.16596128f,    0.26487464f,     -0.31483963f,    0.051472306f,
    0.021318592f,    0.486056f,       -0.029980445f,   -0.041679867f,
    0.18155912f,     -0.42389438f,    0.14871514f,     -0.091158725f,
    0.15446529f,     -0.7048496f,     0.18793853f,     -0.27869058f,
    0.14599817f,     0.44904974f,     -0.4783867f,     0.2851464f,
    0.66282743f,     1.1262128f,      0.18579327f,     0.106131785f,
    -0.4269549f,     -0.42090353f,    0.5244487f,      -0.1140213f,
    -0.25962725f,    0.34568086f,     -1.3763877f,     -0.7575704f,
    0.9401961f,      -0.17136244f,    -0.97663176f,    0.37636673f,
    0.36723736f,     -0.21912989f,    0.37792075f,     -4.432852f,
    -1.7336785f,     1.9023861f,      0.76001745f,     -1.1943338f,
    -0.034200884f,   0.69589114f,     -0.22867963f,    0.58057535f,
    -2.544601f,      -1.2574538f,     1.5270107f,      1.0875242f,
    -0.68215716f,    -0.12361789f,    0.55255437f,     -0.18832424f,
    0.19358018f,     1.5650506f,      0.1135708f,      0.12903032f,
    -0.56152385f,    -0.41649723f,    0.4379807f,      0.14676306f,
    -0.20347826f,    -0.23998499f,    0.9464959f,      -0.064334445f,
    -0.34815118f,    -0.97081876f,    -0.24599901f,    0.80202484f,
    -0.41733313f,    -0.17753777f,    -0.066142306f,   -0.49189797f,
    -0.5280882f,     0.6481209f,      0.3348268f,      0.14523208f,
    -0.0573525f,     -0.38940063f,    0.36692703f,     0.60240996f,
    -0.7419228f,     -0.16118796f,    0.37765265f,     0.10176314f,
    0.11754869f,     0.20386332f,     -0.005189723f,   0.039333653f,
    0.06963446f,     -0.15112811f,    0.3545718f,      -0.23739162f,
    0.3655701f,      -0.12185387f,    -0.34042388f,    -0.0153933875f,
    -0.10507936f,    0.17329618f,     -0.37473378f,    1.2153563f,
    -0.87435395f,    -0.8942561f,     -0.3097924f,     0.20924127f,
    0.029797226f,    -0.028386215f,   0.8380701f,      -2.3039842f,
    2.1947584f,      0.3150888f,      -0.9263763f,     0.077692784f,
    1.1285688f,      -0.33515403f,    0.18314521f,     1.3083323f,
    -5.1854157f,     0.97341514f,     0.39633334f,     -1.448108f,
    0.080542065f,    1.5064392f,      -0.6095829f,     -0.16437533f,
    0.70841956f,     -2.8110688f,     1.3728151f,      -0.026789228f,
    -1.259377f,      -0.150686f,      1.3421307f,      -0.6423433f,
    -0.07146092f,    0.33769f,        -0.44302037f,    1.1372259f,
    -0.49997455f,    -0.37248844f,    -0.2921227f,     -0.005458668f,
    -0.16433904f,    0.16107681f,     0.16797759f,     0.35100597f,
    0.7736264f,      -0.13006309f,    0.29038516f,     -0.04866323f,
    -0.079409085f,   0.12429973f,     0.27396888f,     0.28150555f,
    -0.60473835f,    -0.3731355f,     -0.19860554f,    0.21177393f,
    0.14363347f,     -0.0016606894f,  -0.22081167f,    -0.004786778f,
    0.13324861f,     -0.40141428f,    -0.12617497f,    0.91875464f,
    1.5149833f,      0.42718208f,     -0.22259684f,    -0.14593662f,
    0.16568059f,     -0.23349008f,    0.5606135f,      0.36170852f,
    -1.8944602f,     -2.947705f,      -1.0804473f,     0.41134012f,
    0.1824387f,      -0.33669895f,    0.1149114f,      -0.07229284f,
    0.26797667f,     0.024163233f,    -0.09306321f,    0.16135646f,
    0.42572087f,     -0.002451149f,   0.24485382f,     0.025976945f,
    -0.79919773f,    0.13551433f,     1.6164896f,      2.3922334f,
    1.1569179f,      -0.47966677f,    -0.6392704f,     -0.03065267f,
    0.13970129f,     0.14029911f,     -0.24173816f,    -0.41988826f,
    -0.5545941f,     -0.40046665f,    -0.056945074f,   0.23983066f,
    0.18168248f,     0.016245525f,    0.5567442f,      -0.1870129f,
    -1.26792f,       -1.606337f,      -0.9923551f,     0.17771208f,
    0.3317968f,      -0.08619001f,    -0.11894759f,    -0.28935245f,
    0.04216287f,     0.82853043f,     1.3123548f,      0.66033447f,
    -0.014316891f,   -0.2379205f,     -0.013054426f,   0.12826514f,
    -0.1783198f,     -0.11100454f,    0.6414751f,      0.7061411f,
    0.389403f,       -0.23163916f,    -0.075575694f,   -0.020842524f,
    -0.098864205f,   0.19995634f,     0.08746039f,     -0.48392424f,
    -0.81402904f,    -0.3165737f,     0.18186185f,     0.06515247f,
    0.029129846f,    0.058922604f,    0.17545322f,     0.35917255f,
    -0.08538684f,    -0.87310165f,    0.54700553f,     -0.07960414f,
    0.14901352f,     0.086323634f,    -0.07406173f,    -0.3193783f,
    -0.27308112f,    0.57789576f,     0.38642064f,     0.6006996f,
    -0.30606455f,    -0.017923068f,   -0.3177103f,     0.16270345f,
    -0.014260958f,   -0.34149745f,    1.2715179f,      0.11314235f,
    0.7620347f,      -0.5134097f,     -0.094439425f,   0.1065124f,
    -0.0054179872f,  -0.039299797f,   0.20585994f,     0.59006894f,
    -3.3220959f,     0.8590902f,      0.3984066f,      0.19773944f,
    0.060710136f,    -0.07257298f,    -0.3042507f,     1.1023382f,
    0.09079141f,     -5.6850176f,     0.5443661f,      1.0752833f,
    0.02910036f,     -0.17119059f,    0.1886383f,      -0.50406617f,
    0.35609454f,     0.94389856f,     -1.4328091f,     0.22843957f,
    0.2859455f,      0.02009988f,     0.29739857f,     0.26274008f,
    -0.49429744f,    -0.39767233f,    0.9021723f,      0.08212729f,
    0.5646875f,      -0.27436873f,    -0.29483563f,    0.11974228f,
    0.094891995f,    0.2166664f,      -0.2911637f,     0.41966626f,
    -0.10850198f,    0.61860657f,     -0.266568f,      -0.11520805f,
    -0.03060476f,    0.036581628f,    -0.08534502f,    -0.043468285f,
    0.21695837f,     -0.73011863f,    0.38625744f,     -0.21938226f,
    -0.07836896f,    0.26284716f,     -0.2794353f,     0.27891827f,
    0.13983603f,     0.015596949f,    0.27381316f,     0.086385444f,
    -0.24634674f,    0.24043822f,     -0.21437472f,    -0.40636763f,
    0.078831665f,    0.20407933f,     0.29565933f,     -0.40580532f,
    -0.848788f,      -0.39389637f,    0.66277355f,     0.1044606f,
    0.111340374f,    0.10838708f,     -0.6563262f,     -0.4701818f,
    0.61869746f,     0.73746854f,     0.49089503f,     -0.20266956f,
    0.24809632f,     -0.32975477f,    0.0010745536f,   -0.7072586f,
    -0.8971079f,     0.09084848f,     1.0240393f,      0.32479328f,
    -0.29282823f,    -0.028307006f,   0.36490712f,     0.8024735f,
    1.3266501f,      0.7774754f,      -0.2081631f,     -1.0199776f,
    -1.119603f,      0.017831089f,    -0.5023331f,     0.7569484f,
    0.6303948f,      0.73995245f,     0.46912822f,     -0.6877187f,
    -1.3464031f,     -1.0902647f,     0.45158154f,     -0.9862712f,
    0.020512244f,    -0.66386914f,    -1.370278f,      -0.4749527f,
    0.78014404f,     1.0687178f,      0.88385427f,     0.54284716f,
    0.53462034f,     -0.68301576f,    -0.062503375f,   -0.9119164f,
    -0.0827778f,     0.4827566f,      0.9451486f,      0.36760283f,
    -0.4401966f,     0.7049995f,      -0.008119658f,   0.6066774f,
    0.5869538f,      0.35578617f,     -0.4328987f,     -1.1740291f,
    -0.42796633f,    -0.13109623f,    -0.14071088f,    0.025584659f,
    -0.07234928f,    -0.15057151f,    0.054304346f,    0.3803144f,
    -0.11799746f,    -0.06615366f,    -0.12596983f,    0.07243099f,
    0.023324106f,    0.022875562f,    0.25131553f,     -0.36385956f,
    -0.81066036f,    0.18979238f,     0.14209537f,     -0.026499033f,
    0.053046145f,    -0.04387087f,    0.13278614f,     0.043536585f,
    0.3977061f,      0.29287827f,     0.4360496f,      0.32860106f,
    -0.2519253f,     0.048293065f,    -0.006844442f,   0.23510824f,
    -0.8592683f,     0.8399741f,      1.538171f,       0.30856428f,
    -0.41782337f,    0.2375725f,      -0.0065232343f,  0.016461084f,
    0.55295455f,     -1.3248469f,     0.36383027f,     1.1507711f,
    -0.05011758f,    -0.7474685f,     0.23910968f,     0.09088947f,
    -0.17224728f,    0.41287884f,     -0.4684572f,     -0.14534694f,
    -0.04247822f,    -0.29587308f,    -0.025863238f,   0.03406011f,
    -0.067971855f,   -0.0860782f,     -0.107981175f,   0.43968898f,
    0.16543953f,     -0.23777647f,    0.13980928f,     0.41637382f,
    -0.12246675f,    -0.03497668f,    0.18914403f,     -0.15972757f,
    -0.11005232f,    0.06885027f,     -0.10599011f,    0.12263184f,
    -0.16463909f,    -0.039635364f,   0.06467608f,     -0.049635075f,
    0.05212465f,     0.038928073f,    -0.08813512f,    0.029607616f,
    -0.006416175f,   -0.106870264f,   0.07688668f,     -0.008293147f,
    0.09697919f,     -0.34099638f,    -0.035038654f,   -0.08986567f,
    0.19382934f,     -0.20654665f,    -0.13544716f,    0.018439181f,
    -0.20404413f,    0.011616199f,    -0.07287023f,    0.06199083f,
    -0.30967316f,    0.080147505f,    -0.3038359f,     0.071002066f,
    0.077839606f,    0.09750217f,     -0.107608475f,   0.095567375f,
    -0.114457585f,   -0.10494942f,    -0.053671226f,   0.033719946f,
    0.14194861f,     0.05683921f,     -0.2692105f,     -0.20700836f,
    -0.08029302f,    0.19364065f,     -0.24773784f,    -0.1294059f,
    0.24711077f,     -0.0147133665f,  -0.013357854f,   -0.11762491f,
    -0.22120075f,    0.12007109f,     0.09849137f,     -0.20971188f,
    -0.11895654f,    -0.14631604f,    0.058361568f,    0.14935435f,
    -0.014044825f,   0.09146446f,     -0.06658322f,    -0.13053387f,
    -0.15529357f,    -0.14666712f,    -0.037016403f,   -0.022572093f,
    -0.02157542f,    -0.27731368f,    -0.07163015f,    -0.3588145f,
    -0.12108372f,    0.09105249f,     -0.046001982f,   -0.14844054f,
    -0.05573593f,    -0.38502952f,    0.12905227f,     0.05096327f,
    0.1448571f,      0.03493963f,     0.08299587f,     -0.010411354f,
    0.11760233f,     -0.11488555f,    -0.07701852f,    -0.10203625f,
    -0.044901192f,   -0.17330858f,    -0.014405305f,   -0.17760892f,
    -0.09878809f,    -0.22559936f,    0.016049672f,    0.09073501f,
    -0.0069591375f,  0.23266727f,     -0.101829425f,   -0.12372406f,
    0.097280875f,    0.14366879f,     0.4245174f,      -0.404746f,
    -0.36673996f,    0.29036295f,     -0.40389568f,    0.13849548f,
    0.014267787f,    -0.16903406f,    -0.26733628f,    0.12458435f,
    0.038181413f,    0.4361761f,      -0.29349756f,    0.03902688f,
    0.15107326f,     0.015580506f,    -0.37743953f,    -0.43262303f,
    -0.60608625f,    -0.072086f,      0.863623f,       -0.34742078f,
    0.36313957f,     0.17270711f,     -0.16729179f,    0.7727699f,
    1.0792527f,      -0.33287784f,    -0.47225952f,    -0.15429717f,
    -0.02921821f,    -0.012323067f,   0.2044537f,      -0.8417882f,
    0.6462718f,      1.8407063f,      0.7274877f,      -0.07793273f,
    -1.0491825f,     0.42672724f,     -0.4572917f,     0.33398005f,
    -1.3893836f,     -1.2902321f,     -0.4021112f,     0.93376327f,
    1.1972352f,      -0.58879876f,    0.3888468f,      -0.012654648f,
    0.3490967f,      0.26726633f,     -0.66835135f,    -1.9380261f,
    -0.7314588f,     0.92186254f,     0.11628258f,     -0.035102665f,
    -0.30967253f,    -0.23300189f,    1.3685063f,      1.3075811f,
    -1.216699f,      -1.8491023f,     -0.2046905f,     0.85306555f,
    -0.22227953f,    0.464003f,       -0.47625276f,    -0.22499606f,
    0.44713923f,     1.0681604f,      0.4905397f,      -0.66358554f,
    -0.07007814f,    0.040723372f,    0.16169989f,     -0.10285168f,
    -0.24575658f,    0.18749523f,     0.4808601f,      0.29402718f,
    0.27553114f,     -0.9375089f,     -0.08854506f,    0.08609916f,
    -0.13566774f,    0.3732146f,      -0.04177829f,    -0.85467476f,
    -0.83278257f,    0.15261064f,     0.04884921f,     0.54452854f,
    -0.18146214f,    -0.07386438f,    0.3840099f,      0.2917316f,
    0.09165598f,     0.24113941f,     0.095895685f,    0.42862344f,
    0.014559389f,    -0.3487818f,     0.32338935f,     -0.5806416f,
    -0.34346843f,    1.1098773f,      1.3993849f,      -0.9390954f,
    -0.9129311f,     0.035912663f,    0.33421242f,     0.9434797f,
    -1.7024009f,     -0.5504866f,     1.7125983f,      1.3423313f,
    -1.6003118f,     -1.6456162f,     -0.034874663f,   -0.115616955f,
    0.4076377f,      -0.66040206f,    0.10120939f,     1.1502534f,
    1.3418657f,      -0.6601598f,     -0.95676684f,    -0.049755175f,
    -0.1551315f,     0.012301797f,    0.52926004f,     0.032414153f,
    -0.40932316f,    0.08940202f,     0.23031539f,     0.012606332f,
    0.2386047f,      -0.056999143f,   -0.25576565f,    0.37418967f,
    0.23093663f,     -1.4477885f,     -0.88838655f,    0.67765003f,
    -0.0596636f,     0.16575584f,     0.24211676f,     -0.09519092f,
    -0.53025657f,    0.3606899f,      0.7270757f,      0.34259322f,
    0.4405314f,      -0.97847855f,    0.12623975f,     0.3278823f,
    -0.5453284f,     -0.40330312f,    0.3053559f,      1.0151666f,
    0.7832848f,      0.3119269f,      0.6924283f,      -0.29670522f,
    -0.37032408f,    0.5824797f,      1.3661944f,      -0.6408749f,
    -2.1484995f,     -2.483112f,      -0.6395955f,     -0.17893352f,
    -0.514637f,      -0.67727727f,    0.30596706f,     -0.17661501f,
    -1.195089f,      -0.7882484f,     0.05705322f,     0.54707587f,
    -0.09229887f,    0.102350526f,    0.40772396f,     -0.12941514f,
    -0.38494885f,    0.16482578f,     1.3107823f,      1.3189607f,
    1.1101221f,      -0.12964341f,    0.64321375f,     0.2570652f,
    -0.61159027f,    0.098879516f,    1.0526749f,      0.75946856f,
    -0.43419525f,    -0.27793342f,    -0.8135079f,     -0.11057228f,
    0.46547815f,     -0.40300056f,    0.30227965f,     0.6444377f,
    0.5856313f,      -0.4645073f,     -0.32001933f,    -0.26959503f,
    0.25244498f,     -0.20197739f,    0.022651728f,    -0.48183486f,
    -0.9660048f,     -0.17223102f,    0.26586044f,     0.45939535f,
    0.28299284f,     0.4698166f,      -0.017636634f,   0.4745591f,
    0.3650254f,      -0.24353965f,    0.23986807f,     0.23977055f,
    -0.032485146f,   -0.49649167f,    -0.49006945f,    -0.04544036f,
    -0.20618182f,    -0.042589486f,   0.09425272f,     0.36236048f,
    -0.2805074f,     -0.40824676f,    0.343336f,       0.22020003f,
    -0.23425934f,    -0.34480527f,    -0.22499959f,    0.19514035f,
    0.4371122f,      0.04278275f,     -0.2648801f,     -0.19525321f,
    0.109466426f,    -0.2534691f,     0.51103365f,     0.6838056f,
    0.3958721f,      0.008240685f,    0.31251022f,     0.51935476f,
    -0.3054205f,     -0.20524484f,    -0.07645037f,    -0.21390007f,
    -0.61436623f,    -1.1297984f,     -1.1682295f,     -0.90375286f,
    -0.010437566f,   0.37152338f,     0.108426414f,    0.5367018f,
    -0.5988744f,     0.06328489f,     1.5487014f,      2.3388252f,
    1.0383369f,      -0.5310449f,     -0.33284685f,    0.7748714f,
    0.5321331f,      -0.50808406f,    -0.08158584f,    0.7908463f,
    0.9388761f,      0.13027856f,     -0.7239079f,     -0.51263016f,
    -0.06482116f,    0.20517091f,     0.627273f,       0.5713057f,
    -1.4830372f,     -2.866625f,      -1.543388f,      0.45383334f,
    0.7814933f,      0.05284898f,     -0.12938102f,    -0.41117573f,
    0.38105497f,     -0.7166697f,     -2.0784311f,     -0.60621375f,
    0.53011733f,     -0.0071178884f,  -0.07928798f,    0.0035427392f,
    -0.5000741f,     0.393331f,       1.55168f,        1.7588042f,
    0.68189615f,     -0.029870586f,   -0.2340052f,     0.33067217f,
    -0.10880317f,    0.093429565f,    0.14460203f,     -0.37746474f,
    -0.586984f,      -0.33736587f,    0.03791845f,     -0.00096061314f,
    0.32077503f,     0.030322075f,    -0.08630991f,    -0.16757941f,
    -0.100074284f,   0.2696245f,      -0.2043225f,     -0.062280282f,
    -0.094748855f,   0.07818507f,     -0.23255311f,    0.20000334f,
    0.18081957f,     1.0946437f,      0.9246425f,      0.84689796f,
    0.015193819f,    0.07033239f,     -0.18001243f,    0.16331945f,
    0.35618043f,     -0.6310239f,     -1.919805f,      -2.4752355f,
    -1.4121554f,     -0.040159736f,   0.22062318f,     0.09000894f,
    0.17626815f,     -0.2735026f,     0.30195603f,     1.2055418f,
    1.3483212f,      0.63947326f,     0.010252754f,    0.07674322f,
    0.11679305f,     0.02579273f,     -0.88963044f,    -0.024478754f,
    1.2048084f,      1.6940628f,      0.9090514f,      -0.47958538f,
    -0.5784763f,     -0.10686724f,    -0.20435546f,    0.842679f,
    0.3005165f,      -0.980973f,      -1.400972f,      -0.3658196f,
    0.52377146f,     0.40389308f,     0.0403339f,      -0.0449104f,
    0.029123507f,    -0.043325413f,   -1.2256569f,     -1.8186703f,
    -1.1291649f,     -0.035572357f,   0.32988974f,     -0.26765847f,
    0.2315503f,      -0.47061267f,    0.2027107f,      1.1950321f,
    1.8933271f,      1.1441505f,      -0.1561174f,     -0.28680256f,
    0.20108517f,     -0.103038944f,   0.1054472f,      -0.0023450493f,
    -0.39909804f,    -0.49641332f,    -0.31066337f,    0.04363305f,
    0.010366618f,    -0.04250412f,    -0.07654227f,    0.1857783f,
    0.030114086f,    -0.4123759f,     -0.43080983f,    -0.3027093f,
    0.20985888f,     -0.16682875f,    0.08861849f,     0.070345074f,
    -0.15588808f,    -0.13142323f,    -0.10404756f,    0.12935093f,
    0.045089647f,    -0.07862625f,    0.16027565f,     -0.060886525f,
    0.020695932f,    -0.3662926f,     0.2270749f,      1.9339774f,
    2.4800296f,      0.9071441f,      -0.35639212f,    -0.2556848f,
    0.06072307f,     0.15592587f,     0.20859514f,     -0.4904016f,
    -1.7377031f,     -2.09184f,       -1.1285261f,     0.11119051f,
    0.052260686f,    0.09436275f,     0.04606414f,     0.47445548f,
    0.21052621f,     -0.8116969f,     -0.9191295f,     -0.22675963f,
    0.32892388f,     0.34678823f,     0.03256763f,     -0.26802704f,
    -0.6895878f,     0.22295414f,     1.1641065f,      1.6820102f,
    0.7842891f,      -0.15166287f,    -0.6010382f,     -0.2089284f,
    0.019349007f,    0.050320387f,    0.364908f,       0.53580403f,
    0.46316668f,     0.1410197f,      0.02561716f,     0.20023134f,
    0.17550685f,     0.16663067f,     0.1827362f,      -0.2933686f,
    -1.532103f,      -1.8443168f,     -0.8341317f,     0.025686888f,
    0.33273804f,     -0.23195876f,    -0.055781722f,   -0.054062307f,
    0.039970413f,    0.70836097f,     0.8396219f,      0.35932282f,
    0.07005218f,     -0.2364316f,     0.13329567f,     0.03367843f,
    -0.028485501f,   0.29875708f,     -0.54177463f,    -0.3069986f,
    -0.124292925f,   0.6094581f,      0.09171781f,     0.08158093f,
    0.34504044f,     -0.67696214f,    0.4644843f,      0.96426576f,
    0.96663076f,     0.29167953f,     -0.15540187f,    -1.0614965f,
    -0.44567713f,    -0.05340791f,    -0.50887966f,    0.099153034f,
    -0.47241434f,    -0.8847752f,     0.19076851f,     1.1329399f,
    0.36131686f,     0.15400238f,     -0.15282194f,    0.10919449f,
    0.24888493f,     -1.09756f,       -1.407785f,      0.23087314f,
    1.7381191f,      1.0377408f,      -0.3858583f,     -0.073043294f,
    -0.249685f,      1.218846f,       0.31331548f,     -0.8006997f,
    -1.4757936f,     -0.16556641f,    1.0039542f,      -0.19842452f,
    0.17847486f,     -0.72230834f,    0.33689874f,     1.0525f,
    -0.026122946f,   -2.1032836f,     -1.2138658f,     1.3202443f,
    0.2110736f,      0.2229915f,      -0.40486872f,    -0.31015706f,
    0.11557609f,     0.68526345f,     -0.34446424f,    -0.28993425f,
    0.66167283f,     0.048379622f,    0.16199727f,     0.36471236f,
    -0.4758974f,     -0.2939325f,     0.5500058f,      0.6852828f,
    0.39304522f,     -0.688586f,      -0.570744f,      -0.19579896f,
    0.2068906f,      0.19595575f,     0.13925387f,     -0.18750782f,
    -0.8036763f,     -0.13069785f,    -0.06120329f,    0.69556683f,
    0.06716697f,     -0.2443058f,     0.0058709783f,   0.89710224f,
    1.1183963f,      0.72135377f,     -0.30184084f,    -0.24534628f,
    0.15184675f,     -0.0720851f,     0.40537667f,     -0.14999855f,
    -1.5893087f,     -2.2280054f,     -0.8883565f,     0.16548616f,
    0.42365134f,     -0.18885262f,    -0.07987369f,    0.23918755f,
    0.2136482f,      0.14680366f,     -0.22649953f,    0.109917335f,
    0.1158463f,      0.24979042f,     -0.047029745f,   0.1299278f,
    -0.85769314f,    0.059779473f,    1.729251f,       2.1977434f,
    1.1647061f,      -0.46767688f,    -0.8413201f,     0.2192974f,
    -0.12676992f,    0.35009873f,     0.038044762f,    -0.42849073f,
    -1.0033653f,     0.0197684f,      0.28909352f,     -0.062755436f,
    0.10855311f,     0.02031899f,     0.35920915f,     0.083615966f,
    -1.5890944f,     -2.1623676f,     -0.91922724f,    0.40428662f,
    0.66017497f,     -0.28507084f,    0.03766488f,     -0.36055726f,
    -0.13433035f,    0.983641f,       1.0924581f,      0.3307614f,
    -0.6858508f,     -0.008283939f,   -0.005654144f,   0.17077595f,
    -0.11114074f,    -0.13928708f,    0.7995793f,      1.0425704f,
    0.6272012f,      -0.18663098f,    -0.12923312f,    0.07807503f,
    -0.16511162f,    0.25095525f,     -0.057136353f,   -0.41115516f,
    -0.9432739f,     -0.10933088f,    0.16726005f,     0.02696227f,
    -0.015617497f,   -0.011920755f,   0.28243315f,     0.07470017f,
    -0.5640212f,     -0.47737262f,    -0.29647517f,    0.16519931f,
    0.19630106f,     -0.092546344f,   0.13653958f,     -0.4235947f,
    -0.18265322f,    0.4866237f,      0.7020904f,      -0.11778419f,
    -0.27445102f,    -0.101996556f,   0.19964243f,     -0.20703879f,
    -0.11410872f,    0.43009788f,     0.9223613f,      1.3122016f,
    0.915461f,       0.14067464f,     -0.38713872f,    -0.14321f,
    0.032504126f,    0.4308928f,      -0.10711274f,    -1.7316725f,
    -1.9301704f,     -1.3276633f,     0.34326336f,     0.5180685f,
    -0.04011734f,    -0.037756898f,   0.22758825f,     -0.3717092f,
    -0.61491615f,    -0.2846405f,     -0.26253292f,    -0.23420028f,
    0.10221686f,     -0.14403033f,    0.0903796f,      -0.45970365f,
    -0.011643346f,   1.9629779f,      2.6706595f,      1.1012425f,
    -0.50385463f,    -0.29347378f,    0.33159894f,     0.022180175f,
    -0.037338883f,   0.24449377f,     0.20369124f,     -0.09164032f,
    -0.056868907f,   0.19958301f,     -0.1909444f,     0.043235656f,
    -0.20860337f,    0.38956907f,     0.17670716f,     -2.0808237f,
    -2.6816075f,     -0.86158794f,    0.5660236f,      0.41565803f,
    -0.33594415f,    0.11926675f,     -0.2202313f,     -0.13536961f,
    0.9325446f,      1.6199723f,      0.2581069f,      -0.23125133f,
    -0.23849808f,    0.16714993f,     0.07957664f,     -0.16418293f,
    0.08664409f,     0.23539428f,     -0.16562766f,    -0.114771985f,
    0.031760387f,    -0.08405865f,    0.07051253f,     -0.14264007f,
    -0.019500822f,   0.24428803f,     -0.05457746f,    -0.17970757f,
    0.4180861f,      0.1374812f,      -0.26664925f,    0.09636021f,
    -0.29385337f,    0.5420302f,      -0.037790228f,   -0.34349513f,
    -0.5703251f,     0.7192906f,      0.30743024f,     -0.1771777f,
    0.035131495f,    0.4203072f,      0.097091444f,    -1.3593291f,
    1.2427504f,      0.61271286f,     -0.7302104f,     -0.55946803f,
    0.8452887f,      -0.30644128f,    0.2638271f,      -0.22068848f,
    -1.5942856f,     1.9673378f,      1.2953259f,      -1.9161285f,
    -1.4110829f,     1.73662f,        -0.4323911f,     0.25202212f,
    0.18231964f,     -1.0135719f,     1.4252459f,      0.68165725f,
    -0.8367534f,     -0.74594295f,    1.2044876f,      -0.41438887f,
    -0.12358277f,    0.26946148f,     -0.2418382f,     -0.35620746f,
    -0.57708246f,    0.62587625f,     0.030699344f,    0.015964882f,
    -0.062916875f,   -0.23512927f,    0.23399122f,     0.19481824f,
    -0.16332638f,    -0.290434f,      0.6688726f,      0.024342649f,
    -0.5589328f,     0.28414056f,     0.22393058f,     -0.35207886f,
    0.18394768f,     0.21816163f,     -0.06431179f,    -0.14832404f,
    0.017447053f,    0.04598027f,     0.026956312f,    0.041730877f,
    0.039933633f,    -0.50918853f,    -0.7438785f,     0.21531837f,
    0.7088441f,      -0.08182013f,    0.23576145f,     -0.31970596f,
    -0.17509902f,    0.31275505f,     0.42194143f,     0.8071613f,
    0.12641135f,     -0.78072715f,    -0.55031115f,    0.24848929f,
    0.021542745f,    -0.65180504f,    0.06293346f,     0.27277514f,
    0.38766775f,     -0.5991073f,     -0.60627115f,    0.08892793f,
    -0.30429247f,    0.067130476f,    0.23761597f,     0.58641946f,
    -0.76387817f,    -0.7358535f,     -0.3559599f,     1.0874544f,
    1.2082758f,      -0.42329997f,    0.22506252f,     0.401729f,
    -0.1496398f,     -1.1329498f,     0.24079105f,     1.473893f,
    1.6451653f,      0.4516611f,      -0.9031022f,     -0.0288818f,
    0.17835711f,     -0.2152839f,     -0.7926184f,     1.1062366f,
    1.660201f,       1.0000654f,      -0.13056393f,    -0.6631129f,
    0.32314152f,     0.071060844f,    -0.24501765f,    -0.58308405f,
    -0.044324525f,   -0.5728388f,     -0.19983102f,    0.083018415f,
    0.3511131f,      -0.16563584f,    -0.3230129f,     0.7564742f,
    0.24648167f,     -0.46119407f,    -0.91570544f,    -0.5888255f,
    -0.058673587f,   0.09208716f,     -0.45509452f,    -0.116493486f,
    -0.03819498f,    0.062082257f,    0.1637131f,      0.4902791f,
    0.50058407f,     -0.24418952f,    0.04864018f,     0.28552023f,
    -0.055235807f,   0.29640564f,     0.026321957f,    -0.23190424f,
    -0.19199395f,    -0.23274006f,    0.11194296f,     0.25251308f,
    -0.09490759f,    0.014517708f,    -0.3570436f,     -0.3144166f,
    0.042113747f,    0.11174689f,     -0.079290934f,   -0.22745892f,
    -0.150004f,      -0.018378548f,   0.14213936f,     -0.0056234784f,
    0.40390226f,     0.9600061f,      1.195491f,       0.6655462f,
    0.15959464f,     -0.22675082f,    0.30251753f,     -0.20206982f,
    0.08200932f,     -0.18781897f,    -1.404712f,      -1.7091895f,
    -0.79813164f,    0.16691971f,     0.010185466f,    -0.25981262f,
    0.21472877f,     0.13526158f,     0.15373811f,     0.82142884f,
    0.67783946f,     0.06470469f,     0.14438942f,     0.26547682f,
    0.14357181f,     0.28848106f,     -1.0520397f,     -0.30376825f,
    1.3024131f,      2.206156f,       0.47734544f,     -0.7938399f,
    -0.31198937f,    0.106900446f,    0.14884381f,     0.3534431f,
    0.47307795f,     -0.69915575f,    -0.4772736f,     0.1346313f,
    0.2629155f,      0.117389016f,    0.17675163f,     -0.76875705f,
    0.6201054f,      0.5152811f,      -2.1341224f,     -3.43258f,
    -0.48352078f,    0.8153195f,      -0.2847414f,     -0.437713f,
    0.33525515f,     -0.44885933f,    -0.17048982f,    0.9983563f,
    1.3677348f,      0.28660658f,     -0.20584314f,    -0.10328692f,
    0.25187472f,     0.023140319f,    -0.21555378f,    0.23600021f,
    0.23353188f,     0.20736799f,     0.22447932f,     0.10138243f,
    -0.12711868f,    -0.002274813f,   0.0067293295f,   0.5677279f,
    -0.30118015f,    -1.4074197f,     -1.8082676f,     -1.0367777f,
    -0.050515644f,   0.48614037f,     -0.0103837745f,  -0.02163516f,
    -0.63286036f,    0.18403615f,     2.052907f,       2.8548694f,
    1.5408812f,      -0.095031776f,   -0.6367532f,     0.04195501f,
    0.02117666f,     -0.11817306f,    -0.11251524f,    -0.19926372f,
    -0.38492742f,    -0.31656563f,    -0.13497451f,    -0.13508509f,
    0.14418584f,     0.0453603f,      0.7046611f,      0.19338329f,
    -1.7067899f,     -2.3824124f,     -1.0954825f,     0.5970677f,
    0.68074733f,     -0.22228076f,    -0.037687585f,   -0.3767517f,
    -0.19731368f,    0.5347551f,      0.97786444f,     0.408052f,
    -0.3306685f,     -0.27719107f,    0.12796846f,     -0.028838467f,
    -0.1871579f,     0.1723315f,      1.3547659f,      1.725638f,
    0.8935506f,      -0.22570188f,    -0.27821535f,    -0.04898012f,
    0.0986882f,      0.1412966f,      -0.1757813f,     -1.0918994f,
    -1.6626449f,     -0.8586301f,     0.29884368f,     0.20570242f,
    0.050664645f,    -0.07965405f,    0.05734739f,     0.07551002f,
    0.22127861f,     0.38393602f,     0.26206046f,     -0.08576234f,
    -0.014407377f,   -0.026912617f,   0.4343402f,      -1.0044982f,
    0.54276484f,     -0.20403202f,    0.5463665f,      -0.24241234f,
    0.6586188f,      -0.34375402f,    -0.17182408f,    -0.023095787f,
    -0.23546442f,    0.73444986f,     -1.1347429f,     0.2905496f,
    -0.8119897f,     0.4126576f,      -0.21732031f,    0.32266563f,
    0.31367922f,     0.3427734f,      1.1663505f,      -0.76161635f,
    1.0644687f,      -0.67360944f,    0.8726118f,      -0.49181294f,
    -0.1939585f,     0.6499446f,      -2.2206368f,     -0.25442156f,
    -0.08292631f,    1.537073f,       -1.7320954f,     0.8983958f,
    -0.33218205f,    0.009372047f,    0.9557508f,      -2.5606987f,
    -0.40082744f,    0.47832507f,     1.7678437f,      -1.58564f,
    1.1685414f,      -0.027947119f,   0.093308486f,    0.28847376f,
    -1.2237539f,     0.05132934f,     -0.5613956f,     1.5860351f,
    -1.2965937f,     0.8968055f,      -0.2803826f,     -0.21696204f,
    0.2696562f,      0.77539074f,     1.2581663f,      -1.2217251f,
    0.416933f,       -0.4319794f,     0.6740673f,      -0.73008454f,
    0.051480427f,    -0.30115083f,    -0.37060237f,    0.6004604f,
    -0.952078f,      0.31215525f,     -0.30816305f,    0.37190098f,
    -0.5296692f,     0.16490711f,     0.47824705f,     -0.7426949f,
    0.3758649f,      -0.2949134f,     0.5811513f,      -0.53521603f,
    0.6882094f,      -0.035432003f,   -0.0077791796f,  -0.34357443f,
    -0.03242425f,    -0.24872118f,    0.15725768f,     -0.0085567f,
    -0.16526219f,    -0.42636567f,    -0.2899122f,     -0.097251266f,
    0.30713195f,     0.16300763f,     0.23514153f,     0.019550031f,
    0.3781648f,      0.8469038f,      0.7078306f,      0.19286913f,
    -0.073788136f,   0.56715876f,     0.20334853f,     -0.043200575f,
    -0.4464133f,     -0.30631217f,    -0.22813691f,    0.21130449f,
    0.37790063f,     -0.023170069f,   -0.0069790827f,  -0.9073039f,
    -0.3356389f,     -0.2771668f,     -2.1340992f,     -2.0157351f,
    -0.7270741f,     0.07935665f,     0.12984885f,     0.2528709f,
    -0.15300316f,    -0.28438425f,    -1.3021182f,     -4.510745f,
    -1.1202315f,     0.7549701f,      0.13700423f,     -0.20815215f,
    0.12353003f,     -0.08353559f,    -1.20399f,       -1.9692172f,
    -3.4787252f,     0.06718014f,     0.22859779f,     -0.09787326f,
    -0.17269963f,    -0.015286691f,   0.37706f,        -0.44709846f,
    -0.5460599f,     -0.75705236f,    0.11284253f,     -0.13646051f,
    -0.22671655f,    -0.19911699f,    0.07714235f,     0.6362145f,
    0.529127f,       0.5390306f,      0.69515914f,     0.24336122f,
    -0.38755924f,    0.04092595f,     0.2225256f,      -0.76774365f,
    0.169893f,       0.062217835f,    0.06152671f,     -0.21488479f,
    0.40190244f,     0.14708115f,     0.17937538f,     -0.074155785f,
    -0.17443529f,    0.9589137f,      0.7738081f,      0.7185207f,
    0.040154636f,    -0.4339886f,     -0.7968731f,     -0.80491155f,
    0.075938545f,    -0.38356888f,    -0.733778f,      -2.2474577f,
    -1.8487109f,     -0.18124169f,    1.7719609f,      1.8128192f,
    0.46772096f,     0.80227923f,     0.073339544f,    0.12943065f,
    0.53281415f,     0.6104121f,      -0.08963496f,    -0.6161412f,
    -0.3746146f,     0.3500785f,      -0.4416832f,     0.08204405f,
    0.15064521f,     1.5840952f,      1.6539769f,      0.010718928f,
    -1.7495998f,     -1.3340284f,     0.24557309f,     -0.45844752f,
    0.15134262f,     -0.35265377f,    -0.41358945f,    -0.30709884f,
    -0.029815989f,   0.09095697f,     0.23166442f,     0.15651366f,
    0.041893803f,    0.20515856f,     0.18705983f,     -0.70986307f,
    -1.0081756f,     0.16777222f,     1.1403677f,      0.5811516f,
    -0.642339f,      0.09844696f,     0.26190075f,     0.44865125f,
    0.5608567f,      0.34100854f,     -0.15120022f,    -0.37327975f,
    -0.08618057f,    -0.35658348f,    -0.14130554f,    -0.494509f,
    -0.56276304f,    -0.15305026f,    -0.0024298853f,  -0.012374215f,
    -0.039419074f,   0.12629618f,     0.4767482f,      0.14047831f,
    0.1751759f,      0.20263977f,     0.14271954f,     -0.09214002f,
    0.076620206f,    0.14028725f,     -0.2204681f,     -0.28813863f,
    0.09747103f,     -0.061796796f,   -0.0587416f,     0.40534052f,
    -0.42311373f,    -0.6106228f,     -0.11595839f,    0.021658557f,
    0.005923235f,    -0.037788864f,   0.3766221f,      -0.5279102f,
    -0.32149008f,    0.5195302f,      1.6226165f,      0.7968921f,
    -0.20569998f,    -0.55685353f,    0.4813045f,      0.007555211f,
    -0.18388171f,    0.4647799f,      -0.31312668f,    -0.4692427f,
    0.21312137f,     0.3783445f,      -0.46691263f,    -0.009192031f,
    -0.26931602f,    0.6552698f,      0.73928505f,     -1.2295268f,
    -3.1575325f,     -1.1768342f,     0.9093343f,      0.46705592f,
    -0.15540726f,    0.046926335f,    -0.71043366f,    -0.08410743f,
    0.4157278f,      1.0669552f,      0.32780206f,     -0.39294392f,
    -0.5623879f,     0.10581706f,     0.61976624f,     -0.6343664f,
    -0.52963245f,    1.3030386f,      2.2986138f,      1.1072878f,
    -0.49088436f,    -0.6350569f,     0.54896855f,     -0.11347216f,
    0.14197683f,     -0.32541767f,    -0.60743845f,    -0.54464144f,
    -0.3843166f,     -0.27684176f,    0.035304226f,    -0.2582336f,
    -0.42337838f,    0.5532729f,      0.74566555f,     0.07811699f,
    -0.44187626f,    0.121911906f,    0.7414525f,      0.36642727f,
    -0.07886454f,    0.3026117f,      -0.3875212f,     -0.3257593f,
    -0.0060360064f,  0.10034867f,     -0.047642127f,   -0.30437887f,
    -0.33828136f,    0.19205476f,     0.28000444f,     -0.087884165f,
    -0.43489558f,    -0.08964156f,    0.07126427f,     -0.050944842f,
    0.032097016f,    -0.09070804f,    0.33514467f,     -0.47362015f,
    -0.2665819f,     0.95408994f,     0.9812086f,      -0.08530599f,
    0.21471912f,     0.14073794f,     -0.63763934f,    -0.26891774f,
    -0.12846197f,    0.4114798f,      0.6549925f,      -1.2464242f,
    -5.147794f,      -0.63345075f,    1.550766f,       0.29981297f,
    -0.09728645f,    0.33350813f,     -0.40055597f,    -0.49622464f,
    -0.59038275f,    -0.36633223f,    -0.13385414f,    -0.35658157f,
    -0.50141066f,    -0.038337518f,   0.18795371f,     -0.6005928f,
    -0.1608941f,     1.5975411f,      2.2760043f,      1.0549287f,
    -0.5146592f,     -0.77241004f,    0.6645639f,      0.17674556f,
    0.21417506f,     0.08557635f,     0.12148576f,     0.4288589f,
    0.42421666f,     0.1258491f,      0.13708988f,     -0.04812192f,
    -0.14595518f,    0.061706375f,    -0.41128272f,    -1.58551f,
    -2.3440032f,     -1.3000717f,     -0.108511336f,   0.30416825f,
    -0.4500439f,     -0.050473377f,   0.15314968f,     0.46396428f,
    1.1324748f,      1.2708688f,      0.7973482f,      0.30926245f,
    -0.06359591f,    0.07166887f,     -0.05448782f,    -0.035690177f,
    -0.25427127f,    -0.25378847f,    -0.22879814f,    -0.3358214f,
    -0.2172894f,     0.14514588f,     -0.0771856f,     0.15103917f,
    0.061122566f,    0.18535447f,     0.22479942f,     0.3306295f,
    0.23231979f,     -0.1556525f,     0.022896511f,    -0.15174274f,
    0.17497596f,     -0.03523206f,    0.32727483f,     -0.18591076f,
    0.68707067f,     0.7880276f,      -0.052957892f,   0.68729955f,
    -0.0664991f,     -0.27894276f,    -0.23627079f,    -0.22229771f,
    -1.70052f,       -0.31854066f,    -0.36827537f,    -1.6384404f,
    0.36992517f,     -0.21911933f,    -0.6074827f,     0.8326549f,
    0.86744314f,     -1.2532806f,     0.36748433f,     -1.0685385f,
    -1.9476169f,     1.4183651f,      0.07606009f,     -0.66694945f,
    1.5453697f,      1.0123867f,      -3.6812115f,     -2.8988595f,
    -5.469994f,      -3.778362f,      1.1697067f,      -0.23374099f,
    -0.678826f,      1.2310855f,      0.47499037f,     -1.4220481f,
    0.42199716f,     -1.875801f,      -2.5248265f,     0.48438212f,
    -0.6753772f,     -0.1561975f,     0.20753565f,     0.75673604f,
    0.8586389f,      1.3340749f,      0.805891f,       0.4639456f,
    1.0768996f,      0.018964084f,    0.37046325f,     -0.29573986f,
    -0.030857183f,   0.60580724f,     0.19919693f,     0.5583525f,
    0.56480616f,     0.6601031f,      0.084156424f,    0.39264247f,
    -0.44190872f,    -0.4013446f,     -0.49266633f,    -0.60272217f,
    -0.6414471f,     -0.36323264f,    -0.58580303f,    0.07312656f,
    -0.15918787f,    -0.16854113f,    0.7703797f,      -0.078200184f,
    -1.3005521f,     -1.0741009f,     0.4164532f,      0.5205733f,
    -0.3266378f,     -0.28284574f,    0.16218796f,     0.8807542f,
    -1.3263929f,     -2.9692283f,     -1.5897408f,     0.9028224f,
    0.761093f,       -0.65904385f,    0.26169956f,     -0.3154113f,
    -0.24218448f,    0.39603403f,     0.7364272f,      -0.027391337f,
    -0.30751297f,    -0.27639833f,    -0.08986651f,    0.74577606f,
    -0.5644634f,     -0.10725074f,    1.4858356f,      2.449414f,
    1.2416607f,      -0.49776304f,    -0.61086714f,    0.9374577f,
    -0.3178587f,     -0.0592829f,     -0.28991887f,    -1.145528f,
    -1.3142843f,     -0.42897406f,    -0.11032144f,    -0.45400816f,
    -0.216359f,      0.13110915f,     0.35908064f,     0.58279973f,
    0.15627573f,     -0.36207193f,    0.49660718f,     0.92112464f,
    0.2286894f,      0.29582933f,     0.014495589f,    -0.47306627f,
    -0.11500515f,    0.5466014f,      0.6583387f,      0.40574744f,
    -0.41852632f,    -0.45542568f,    0.05635222f,     0.1943919f,
    0.033253044f,    -0.14990331f,    -0.37917027f,    -0.45332536f,
    -0.16878207f,    0.056445953f,    0.012346473f,    -0.12071806f,
    -0.12507741f,    0.14276367f,     0.27122888f,     -0.019941937f,
    -0.2863407f,     0.22842146f,     0.018263092f,    0.12684493f,
    0.064298496f,    -0.4779377f,     0.68526495f,     0.035142787f,
    -0.42992952f,    -0.3805158f,     -0.4938274f,     0.37444872f,
    0.032727655f,    0.044396196f,    0.4080162f,      -0.3997854f,
    -0.74077815f,    0.45702574f,     1.2917991f,      0.80264354f,
    0.039342005f,    -0.017966315f,   -0.24033797f,    0.67190695f,
    -0.96486956f,    0.52110165f,     0.86656815f,     -1.1905453f,
    -1.1822333f,     -0.25874254f,    -0.14397797f,    0.031869967f,
    -0.36962023f,    -0.0110662645f,  0.93036664f,     -0.4684961f,
    -0.84953964f,    0.2497564f,      1.1351163f,      -0.19999072f,
    0.17642839f,     -0.6194415f,     1.1310108f,      -0.1347051f,
    -2.3799512f,     -0.5072975f,     1.534733f,       1.319938f,
    -0.71458304f,    0.26680768f,     -0.45102096f,    1.3373884f,
    -0.26922357f,    -1.5641278f,     -0.19555037f,    1.0531523f,
    0.6481465f,      -0.5402179f,     0.46999958f,     -0.23394132f,
    0.013289417f,    0.010563412f,    0.5441034f,      0.21038483f,
    -0.47473073f,    -0.6427989f,     -0.2530679f,     0.04165875f,
    0.112109095f,    -0.39245304f,    0.087154865f,    0.20859411f,
    0.3570682f,      -0.08431119f,    0.31271112f,     0.29558742f,
    -0.14009687f,    -0.034489635f,   0.24451838f,     -0.033203807f,
    -0.16279665f,    -0.26502997f,    -0.0490546f,     0.30628082f,
    -0.18827197f,    -0.013936639f,   -0.20087051f,    -0.2682671f,
    -0.06598701f,    -0.22401229f,    -0.18383208f,    -0.17389399f,
    -0.21713625f,    -0.21723102f,    -0.2965797f,     -0.45445177f,
    0.093401365f,    -0.19535536f,    -0.5843763f,     -0.40090826f,
    0.3077975f,      -0.2025537f,     -0.6301199f,     -0.11052223f,
    -0.17047365f,    -0.2587013f,     -0.47096878f,    -0.12648994f,
    -0.3018568f,     -0.3301031f,     -0.02319836f,    -0.29166412f,
    -0.15065068f,    0.0018707513f,   -0.5622658f,     -0.9037954f,
    1.2369845f,      -0.34660047f,    -1.3033607f,     0.4832756f,
    0.23321863f,     -0.4699059f,     0.3230796f,      -0.8279788f,
    -1.3368694f,     1.8968666f,      0.0001878179f,   -2.227323f,
    0.6921711f,      0.7946874f,      -0.6252519f,     0.051733956f,
    -0.6392978f,     -0.7462568f,     0.9677981f,      0.082880504f,
    -1.6963192f,     0.6821684f,      0.30468133f,     -0.3452168f,
    -0.23840703f,    -0.12164665f,    -0.37903568f,    -0.098978564f,
    -0.21209265f,    -0.2280006f,     -0.015867176f,   -0.29538763f,
    0.06176316f,     -0.2200132f,     -0.07716453f,    -0.0880816f,
    -0.5356491f,     -0.32921442f,    0.36959383f,     -0.3523927f,
    -0.6264339f,     0.0809286f,      0.03226383f,     -0.2517824f,
    -0.2337796f,     -0.04962742f,    -0.3045814f,     -0.22335006f,
    -0.35999227f,    -0.17228761f,    -0.33119905f,    0.019268787f,
    -0.020155849f,   0.02836373f,     -0.055439115f,   0.08650187f,
    -0.13150407f,    0.123119f,       -0.066353835f,   0.011387537f,
    0.025839137f,    -0.31660432f,    0.3372467f,      0.36205512f,
    -0.7681283f,     0.15680149f,     0.5294116f,      -0.41278613f,
    0.067147315f,    0.02743562f,     0.010707953f,    -0.011101716f,
    0.075550355f,    -0.21815476f,    0.06963917f,     0.14626391f,
    -0.14237277f,    0.05434974f,     -0.30205703f,    1.0909561f,
    -1.3568583f,     -0.14337371f,    1.4316376f,      -0.12855065f,
    -1.4822257f,     1.1985631f,      -0.31853858f,    -0.29798058f,
    1.6405236f,      -2.024302f,      -0.43557087f,    2.0109365f,
    0.08180822f,     -2.314037f,      1.5757958f,      -0.23386921f,
    -0.21595673f,    0.8489148f,      -1.0883049f,     -0.1077859f,
    1.1726443f,      0.13882072f,     -1.6185908f,     1.2445163f,
    -0.279113f,      -0.027209453f,   0.10580327f,     -0.12337556f,
    0.15229218f,     -0.29779887f,    0.010253295f,    0.268162f,
    -0.19428977f,    0.012181578f,    0.035163883f,    -0.32873118f,
    0.37975562f,     0.31374782f,     -0.6752378f,     0.13795602f,
    0.48381075f,     -0.38745058f,    0.07291387f,     0.022105793f,
    0.009872166f,    -0.036319286f,   -0.03962878f,    0.09256816f,
    -0.13657846f,    0.12613599f,     -0.0741776f,     0.024645375f,
    0.27062812f,     -0.09808947f,    -0.17508693f,    0.42672408f,
    -0.4250215f,     -0.38098586f,    0.72067595f,     0.47503686f,
    -0.46035165f,    0.6461471f,      -0.018557537f,   0.037145227f,
    -0.16474159f,    -0.39567953f,    0.37161997f,     -0.17477596f,
    -0.37060192f,    0.25154504f,     0.45030388f,     -0.5705056f,
    -1.1480093f,     -0.34684193f,    0.3715769f,      1.4705564f,
    0.13763677f,     -1.7139176f,     0.41790244f,     0.3780558f,
    -0.8535228f,     -0.91816145f,    0.54918444f,     0.4273558f,
    0.98646796f,     0.251198f,       -1.6634315f,     0.7354058f,
    -0.18923777f,    -0.8251822f,     -0.046533793f,   1.1475934f,
    -0.15621759f,    -0.7125413f,     -0.36098668f,    0.113718554f,
    0.47957847f,     -0.753644f,      0.3647388f,      0.7937509f,
    1.185394f,       -0.25536996f,    -1.2346758f,     -0.5670441f,
    1.1126227f,      -0.033193137f,   -0.49320322f,    0.9213235f,
    0.59515953f,     0.0007071167f,   -0.33690143f,    -0.445177f,
    -0.30855954f,    1.2334405f,      -0.5321128f,     -0.10360508f,
    0.3950554f,      -0.20721696f,    -0.95704365f,    -0.55708206f,
    0.5134146f,      0.16093764f,     0.95739204f,     -0.72878575f,
    -0.08762875f,    0.2767029f,      -0.1421028f,     0.31437933f,
    0.45228153f,     -0.102617696f,   -0.66642165f,    0.43778867f,
    -0.2898047f,     0.4616513f,      -0.3203051f,     0.22652258f,
    -0.024910728f,   0.043714214f,    0.8461278f,      -0.10894351f,
    -0.23063847f,    0.19583502f,     -0.65372205f,    -0.12155252f,
    0.036157597f,    -0.45384127f,    -1.0860353f,     -0.024730805f,
    -0.6779996f,     0.055005524f,    -0.04196952f,    0.15500928f,
    0.63553464f,     0.60043895f,     0.18561383f,     -0.022338308f,
    0.98371094f,     -0.3841333f,     0.7372305f,      0.061315972f,
    -0.38516244f,    0.10689603f,     -0.34047422f,    -0.42433625f,
    0.09062921f,     0.67805916f,     -1.4093274f,     0.50021124f,
    0.08393288f,     0.11389234f,     -0.11270538f,    -0.09759655f,
    0.004747983f,    0.8408113f,      0.88471687f,     -2.2764506f,
    0.40926418f,     0.34306794f,     0.10851261f,     -0.042269133f,
    -0.18385649f,    -0.08309577f,    -0.044109564f,   0.6460854f,
    -0.8843921f,     0.75324357f,     -0.00683252f,    0.01474516f,
    -0.28499037f,    0.116564445f,    -0.907051f,      -1.4436578f,
    -0.0007940487f,  -0.3333817f,     0.20525897f,     -0.44500783f,
    -0.027559059f,   0.02835887f,     0.7231729f,      0.3250087f,
    -0.15450832f,    0.23833376f,     -0.42504892f,    -0.09137982f,
    -0.24902482f,    0.3705617f,      -0.40588215f,    0.09231867f,
    0.23383166f,     0.32851502f,     1.0896224f,      -0.4438108f,
    0.04014537f,     0.6098454f,      0.18492751f,     -0.006468214f,
    0.26962784f,     -0.10444196f,    -1.2566245f,     0.19680367f,
    0.07100973f,     0.5176858f,      0.13256072f,     -0.13476044f,
    -0.3395213f,     -0.14180684f,    0.790187f,       0.6068408f,
    1.0765541f,      -0.6795097f,     -0.098202005f,   -0.3901461f,
    0.454692f,       0.02287706f,     -0.5403849f,     0.65410936f,
    0.47844368f,     0.21142237f,     -0.8779577f,     0.50120157f,
    0.28392383f,     -0.2488552f,     0.5686411f,      -0.14827602f,
    -0.032744113f,   -2.0689986f,     -0.17113277f,    0.12354206f,
    0.9351224f,      -0.52760464f,    -1.019096f,      0.68471307f,
    0.25807145f,     -0.6521149f,     -4.898715f,      0.032162588f,
    1.0663022f,      0.88058287f,     -0.95368934f,    0.07598964f,
    0.5392234f,      -0.117524795f,   0.20279117f,     -1.8288659f,
    0.37708825f,     -0.02379056f,    0.2011849f,      0.051123343f,
    0.19693431f,     -0.12422562f,    -0.09185832f,    1.1807146f,
    0.84554815f,     0.9383226f,      -0.6436822f,     -0.07792946f,
    0.32034814f,     0.067985535f,    -0.17799689f,    -0.24005279f,
    0.9682169f,      -0.24907495f,    0.6772698f,      -0.2973665f,
    -0.04407784f,    -0.14104873f,    0.22185884f,     -0.19034831f,
    -0.1298301f,     -0.048723273f,   -1.3977176f,     0.04436648f,
    -0.03117589f,    0.43343395f,     0.045952182f,    -0.33968318f,
    0.23122819f,     0.102977715f,    -0.30780256f,    0.022598678f,
    0.33583495f,     0.34589547f,     -0.4371678f,     -0.28149194f,
    0.16727194f,     0.17452137f,     -0.03248706f,    0.05413046f,
    0.4586257f,      0.26031965f,     -0.5169216f,     -0.12919244f,
    0.2082573f,      -0.32525966f,    -0.24096623f,    -0.03751039f,
    0.4652414f,      -0.21713018f,    -0.52713645f,    -0.16187169f,
    0.40500328f,     0.6437298f,      -0.416009f,      0.43755868f,
    0.40709716f,     0.07692237f,     -1.0079361f,     -0.542932f,
    0.027107147f,    0.21648233f,     -0.18717884f,    0.26695448f,
    0.10543611f,     -0.82845634f,    -0.47879833f,    0.09946348f,
    1.1218452f,      0.6990355f,      -0.35630727f,    -0.3148892f,
    0.4685212f,      -0.5940553f,     -1.4863993f,     -0.2504105f,
    0.9502339f,      1.5288731f,      0.3684639f,      -0.20116355f,
    0.3317726f,      0.047797173f,    -0.37466478f,    0.2127822f,
    0.9960886f,      0.9674262f,      -0.5295996f,     -0.7314769f,
    -0.5338293f,     -0.06533251f,    -0.2273983f,     0.34195533f,
    1.4379077f,      1.4816556f,      -0.05733158f,    -1.1454154f,
    -1.271332f,      -0.23552883f,    -0.5623973f,     0.14390676f,
    -0.0121032735f,  -0.16694848f,    -1.2285329f,     -1.0771313f,
    0.09011169f,     0.3755957f,      1.0330817f,      0.463518f,
    0.090109125f,    -0.11854192f,    -0.09723813f,    0.07731228f,
    -0.14271685f,    0.08148848f,     -0.20126002f,    0.11637897f,
    -0.11703756f,    -0.3048896f,     0.10954141f,     -0.024888784f,
    -0.105364054f,   -0.02761661f,    0.019068826f,    -0.06761504f,
    -0.17344208f,    0.11999605f,     -0.0942873f,     0.25514165f,
    -0.15886056f,    -0.225244f,      -0.054741427f,   -0.052942574f,
    0.048377223f,    -0.08832536f,    -0.18730852f,    -0.117012665f,
    0.20780681f,     -0.6197745f,     0.16852906f,     0.24610792f,
    -0.45878035f,    -0.10818783f,    0.236319f,       -0.1955456f,
    0.060324866f,    -0.08252083f,    -0.5570101f,     0.4065456f,
    0.25795034f,     -0.405216f,      -0.60928893f,    0.7076916f,
    -0.39134565f,    0.059546515f,    0.0615092f,      -0.8375101f,
    0.31128213f,     0.329157f,       -0.68330705f,    -0.5174274f,
    0.46354744f,     -0.17269842f,    -0.22382659f,    0.25792426f,
    -0.29166797f,    0.16043274f,     -0.16909114f,    0.002962157f,
    -0.1727797f,     0.10520071f,     -0.283394f,      -0.017718647f,
    0.020372309f,    -0.219598f,      -0.071962304f,   -0.060969204f,
    0.014007497f,    -0.061672788f,   0.09926823f,     -0.14315195f,
    -0.09820405f,    0.027955703f,    -0.1542408f,     0.091715515f,
    -0.11338939f,    -0.10512642f,    -0.05146807f,    -0.1383992f,
    0.03843755f,     0.002146766f,    0.49999967f,     -0.04480782f,
    -0.2083323f,     0.49115345f,     0.23993093f,     0.20039241f,
    0.14326072f,     -0.22064064f,    -0.21919063f,    -0.64259577f,
    -0.74151665f,    -0.65304685f,    -0.5042008f,     -0.7967671f,
    -0.0054418524f,  -0.41383225f,    0.07349104f,     0.48790258f,
    0.018817531f,    1.1113691f,      1.5325965f,      0.16451102f,
    -0.1076189f,     0.51422185f,     -0.36777982f,    0.35785264f,
    0.1110122f,      -0.5543453f,     0.747049f,       -0.31905568f,
    -0.49684173f,    0.7814361f,      0.9232485f,      -1.1384617f,
    0.34408522f,     -0.34827757f,    -0.44789445f,    0.9704199f,
    -3.4525084f,     -1.6919262f,     1.3237824f,      1.823854f,
    -1.8450904f,     0.41790235f,     0.06689843f,     -0.20424716f,
    0.9460959f,      -2.0897925f,     -1.2312226f,     0.85875654f,
    1.2540673f,      -1.624673f,      0.3197268f,      0.36334696f,
    -0.4097771f,     0.769581f,       1.1952908f,      0.098762974f,
    0.008677557f,    0.5583276f,      -0.7806791f,     0.5164961f,
    -0.11179386f,    -0.62805855f,    -0.529479f,      0.48534906f,
    -0.01110896f,    -0.7193473f,     -0.22425061f,    0.0017761672f,
    0.23670395f,     0.092018f,       0.46308312f,     -0.011374991f,
    -0.3008867f,     0.0019022186f,   -0.018685658f,   0.5754954f,
    0.15049815f,     -0.40301484f,    -0.3068303f,     0.43395284f,
    -0.08301209f,    -0.5127035f,     0.34787956f,     0.11819963f,
    0.2913188f,      0.14851838f,     -0.16979103f,    0.22143276f,
    -0.056036893f,   -0.22933199f,    -0.42488f,       0.07736137f,
    -0.6713465f,     -0.20869307f,    -0.28366905f,    0.47905228f,
    -0.021621197f,   0.03583192f,     0.21592022f,     0.98661935f,
    0.7036815f,      -0.36107418f,    -0.36037445f,    -0.19563723f,
    0.22864175f,     0.32200164f,     -0.30434838f,    0.19029903f,
    0.20052433f,     0.60385305f,     0.529105f,       0.70637554f,
    -0.35618964f,    0.2968251f,      -0.46757257f,    0.22135554f,
    0.0011846801f,   -2.0043626f,     -1.281879f,      0.13518995f,
    1.3666319f,      -0.89930576f,    0.040722277f,    -0.26989692f,
    0.5300347f,      0.9866459f,      -1.7390305f,     -1.9173099f,
    -0.47991073f,    1.6331869f,      -0.2515137f,     0.051580235f,
    -0.21382609f,    -0.4804867f,     -0.007367932f,   0.07149944f,
    -0.41053617f,    -0.53793263f,    0.84340316f,     -0.3851412f,
    -0.029787011f,   0.60804665f,     -0.2853096f,     -0.3211265f,
    0.6588464f,      0.46871454f,     -0.27960965f,    0.32056376f,
    -0.1262108f,     0.05959055f,     -0.23658101f,    0.006216661f,
    0.37805593f,     -0.19832318f,    0.11200791f,     -0.2737522f,
    0.41041216f,     -0.3332886f,     0.12957333f,     -0.044980455f,
    0.022303114f,    -0.061559852f,   -0.12355282f,    -0.30175266f,
    0.055531733f,    0.046838645f,    -0.016658979f,   0.024345927f,
    -0.015294435f,   0.24927384f,     -0.28294045f,    0.06818643f,
    0.13302426f,     0.019491829f,    -0.15919366f,    0.0385616f,
    -0.007955167f,   0.18595594f,     -0.099055484f,   -0.017950451f,
    0.41225925f,     0.8428481f,      0.48282266f,     -0.15303442f,
    -0.06499333f,    0.13341054f,     0.008768082f,    -0.1513824f,
    0.15511727f,     0.05006671f,     0.25565732f,     0.6089676f,
    0.2428205f,      0.022412386f,    -0.108857796f,   0.028883891f,
    -0.08980993f,    0.040992837f,    0.07395465f,     -0.04575554f,
    0.44560522f,     0.30642223f,     -0.08466005f,    0.07677892f,
    0.072212756f,    -0.23155016f,    0.16990985f,     0.14156975f,
    -0.11992022f,    0.1749854f,      0.29043555f,     -0.1538887f,
    -0.14039029f,    0.029321942f,    0.15447384f,     -0.33065063f,
    0.1130362f,      -0.015719004f,   -0.140412f,      -0.18837568f,
    0.062433153f,    0.031504456f,    -0.094885625f,   -0.035393864f,
    0.1496476f,      -0.08960959f,    0.019474862f,    0.063213885f,
    -0.023404166f,   0.23461843f,     -0.16407974f,    0.03204881f,
    0.027335694f,    -0.027473439f,   -0.015619007f,   -0.1049188f,
    0.06487695f,     -0.11291224f,    -0.03130717f,    0.056802604f,
    0.09958923f,     0.2487883f,      -0.2598369f,     -0.13094455f,
    -0.24022384f,    -0.22995228f,    -0.38962525f,    0.36690778f,
    0.12378695f,     -0.17829882f,    -0.43613353f,    0.38948402f,
    1.5744097f,      1.8929935f,      1.1893286f,      -0.16571559f,
    -0.3850277f,     0.1633417f,      -0.12620068f,    0.12936753f,
    -0.21834318f,    -2.294146f,      -3.1964247f,     -1.4431515f,
    0.114751086f,    0.059258226f,    -0.29311448f,    0.09162695f,
    0.21080463f,     0.3766637f,      1.016189f,       0.79564387f,
    0.53212464f,     0.006748908f,    0.49913907f,     0.14834642f,
    -0.04975518f,    -0.44655037f,    -0.27887666f,    1.4130934f,
    2.2748609f,      0.7099081f,      -0.44679132f,    -0.5465769f,
    0.103207394f,    0.12751217f,     0.14196394f,     0.3378114f,
    -0.060769133f,   -0.44330364f,    -0.18444574f,    0.046441846f,
    0.47713464f,     -0.04047436f,    -0.22058278f,    -0.014888772f,
    -0.47355905f,    -1.689616f,      -2.263742f,      -1.576508f,
    -0.1597515f,     0.1262728f,      -0.34897637f,    0.018787207f,
    0.10474255f,     0.5947698f,      1.4891676f,      1.865851f,
    1.3237001f,      0.060181417f,    0.067600206f,    0.41384393f,
    -0.17297567f,    -0.04765075f,    -0.22252034f,    -0.27395856f,
    -0.246198f,      -0.27099508f,    -0.19360836f,    -0.01752873f,
    -0.19778404f,    -0.13036391f,    0.22592251f,     -0.061855055f,
    -0.106156975f,   0.058396168f,    -0.010895029f,   0.08597891f,
    -0.10832947f,    0.042019352f,    0.34179598f,     -0.555678f,
    -0.11246273f,    0.6672375f,      0.035878927f,    -0.7674574f,
    0.3498744f,      0.21752368f,     -0.17594162f,    0.085941955f,
    -0.236462f,      0.2851301f,      -0.17152186f,    0.15951565f,
    -0.24913298f,    0.076933585f,    0.2086695f,      -0.1395177f,
    -0.3905971f,     0.5795658f,      0.67328423f,     -1.8390858f,
    0.53606087f,     1.3308287f,      -0.8537784f,     -0.38713288f,
    0.3166503f,      -0.6969071f,     0.96791893f,     1.253939f,
    -2.9758875f,     0.66112846f,     1.9708692f,      -1.2133801f,
    -0.4198169f,     0.47366077f,     -0.2923829f,     0.39353827f,
    0.7668349f,      -1.7749281f,     0.62147343f,     1.1072699f,
    -0.74991834f,    -0.23913854f,    0.17176372f,     0.2455638f,
    -0.5156108f,     0.33127692f,     -0.043218203f,   0.14190876f,
    -0.4060783f,     0.12943138f,     0.15177768f,     -0.050740436f,
    0.23838294f,     -0.3947057f,     -0.11642724f,    0.6103684f,
    -0.07549627f,    -0.5260266f,     0.26238048f,     0.24568498f,
    -0.23291308f,    -0.1911455f,     0.366679f,       -0.16834652f,
    -0.12714441f,    0.10760262f,     -0.012869022f,   0.09272179f,
    -0.17411943f,    0.10211068f,     -0.052509498f,   0.21952567f,
    0.22668256f,     -0.23646128f,    -0.38350084f,    0.28214347f,
    0.18805617f,     -0.3400788f,     0.3048546f,      -0.034534264f,
    -0.14628288f,    -0.43289933f,    0.17719355f,     0.6301316f,
    -0.4920206f,     -0.25743473f,    0.551685f,       -0.3978471f,
    0.17643909f,     -0.31291425f,    -0.055254214f,   0.355579f,
    0.59540635f,     -0.3795307f,     -0.23044683f,    0.15688989f,
    -0.18834095f,    0.09002043f,     -0.4233332f,     1.3875506f,
    -0.7722245f,     -1.5030309f,     0.9498494f,      0.44614583f,
    -1.0563089f,     0.4909273f,      -0.27324304f,    -0.4664511f,
    2.1482472f,      -2.1204903f,     -3.1012022f,     1.9661518f,
    0.99760544f,     -1.8178566f,     0.76360863f,     0.00017637288f,
    -0.42241326f,    1.2867695f,      -1.3358276f,     -1.15727f,
    1.0112249f,      0.46102375f,     -1.0365164f,     0.6025057f,
    0.21438183f,     -0.32451186f,    -0.032400884f,   0.14671092f,
    0.5979658f,      -0.48264953f,    -0.325724f,      0.35937044f,
    -0.42439848f,    0.06937307f,     -0.10309294f,    -0.3149045f,
    0.3198073f,      0.74574846f,     -0.28509477f,    -0.22185656f,
    0.5076725f,      -0.20241682f,    -0.16449717f,    0.19202612f,
    0.19054516f,     -0.3462562f,     -0.49572387f,    0.30162975f,
    0.13777046f,     -0.39584085f,    0.2108866f,      -0.060992476f,
    0.15498425f,     0.42318827f,     -0.81097174f,    -0.13913554f,
    -0.12825154f,    0.32996297f,     0.34774292f,     -0.34544817f,
    -0.16122742f,    -0.4645189f,     1.193955f,       0.087416485f,
    0.35084903f,     -0.6712591f,     -0.74609375f,    0.21232918f,
    0.3802732f,      -0.51348263f,    0.15345207f,     1.6242088f,
    -1.6040365f,     -0.5345814f,     0.59603524f,     0.7349298f,
    -0.5777116f,     -0.034852803f,   0.025381984f,    0.34224764f,
    0.98878604f,     -2.3405082f,     -0.7162164f,     1.4945784f,
    1.4683962f,      -1.225051f,      0.15292525f,     0.46455473f,
    -0.4680081f,     -0.05451003f,    -0.56235474f,    0.2794753f,
    -0.25928155f,    0.5550137f,      -1.1144168f,     0.6848743f,
    1.0526556f,      -1.6383762f,     -0.730813f,      1.2726651f,
    1.2776068f,      -1.1906152f,     -0.16886419f,    -0.105679676f,
    0.3440661f,      0.80081064f,     -1.3250022f,     -0.3077597f,
    0.84846634f,     0.90885776f,     -1.1485785f,     0.3641572f,
    0.26283768f,     -0.39452577f,    0.12396227f,     0.05894564f,
    0.2285457f,      0.09058779f,     -0.121762805f,   -0.60335773f,
    0.64353937f,     0.50596815f,     -0.41783166f,    -0.0786552f,
    -0.32168394f,    -0.05318952f,    0.022430299f,    0.996035f,
    -0.5076289f,     -0.24228655f,    -0.04435719f,    0.010860209f,
    -0.009106592f,   0.17272219f,     -0.14766288f,    -0.2550401f,
    -0.35909104f,    -0.2183195f,     2.6691316e-05f,  0.1129382f,
    -0.013126863f,   -0.08944891f,    -0.5413976f,     0.23095663f,
    1.4224114f,      2.0271764f,      0.90944046f,     -0.16619003f,
    -0.38373736f,    -0.031650756f,   0.15274753f,     0.63460743f,
    -0.19940104f,    -2.0441778f,     -2.870792f,      -1.2604065f,
    0.31610608f,     0.3716194f,      0.118392564f,    -0.01571788f,
    0.021131646f,    0.15188526f,     0.25206196f,     0.25282192f,
    0.19040301f,     0.044828556f,    0.18303448f,     -0.14372778f,
    -0.10433726f,    -0.6754534f,     -0.107342765f,   1.4732726f,
    2.1741085f,      0.9020016f,      -0.54077154f,    -0.5427292f,
    0.07939771f,     0.019122625f,    0.34452096f,     0.16994832f,
    -0.2102043f,     -0.49993142f,    -0.06769254f,    0.3598388f,
    0.16470204f,     0.010494264f,    0.08212783f,     0.31939662f,
    -0.34212196f,    -1.5395237f,     -1.9640778f,     -1.1592791f,
    0.08330834f,     0.26592332f,     -0.04055615f,    -0.055766437f,
    -0.34407967f,    0.33379942f,     1.181116f,       1.6249586f,
    0.88153195f,     -0.049814224f,   -0.23055519f,    0.016639953f,
    0.0026597271f,   0.08094211f,     -0.13109383f,    -0.22766289f,
    -0.38948286f,    -0.12864715f,    -0.097963765f,   0.06906583f,
    -0.003822868f,   0.056334645f,    0.08333424f,     0.06557644f,
    0.0697638f,      -0.10315097f,    0.04006957f,     0.3301952f,
    -0.060566194f,   -0.24449658f,    0.21809128f,     -0.22257607f,
    -0.39310086f,    -0.008146974f,   0.011479945f,    -0.37145948f,
    -0.018622108f,   -0.06521878f,    0.49956685f,     -0.07424825f,
    0.028826248f,    0.37591127f,     0.12016299f,     0.22374386f,
    0.2855225f,      0.29872447f,     -0.04993559f,    -0.45930946f,
    -0.14527962f,    0.1422631f,      0.22470929f,     -0.7610743f,
    -0.60764253f,    0.0014799612f,   0.055454344f,    0.21718188f,
    -0.16736293f,    0.16661677f,     0.013057732f,    0.17868681f,
    -0.43770465f,    -0.2788161f,     -0.32872653f,    -0.63013315f,
    0.25930512f,     0.4998367f,      -0.5313348f,     -0.511611f,
    0.7187586f,      1.2533845f,      1.6495429f,      0.5132609f,
    -0.87743765f,    -0.39281514f,    -0.021659996f,   0.34815326f,
    0.13939203f,     0.38165462f,     1.1455543f,      1.2872828f,
    1.1853788f,      0.6597066f,      0.11613457f,     0.2253683f,
    0.5787496f,      -0.080884725f,   -1.3844197f,     -2.4069812f,
    -2.5197465f,     -1.468663f,      -0.1905152f,     0.02432437f,
    -0.04322289f,    -0.42862573f,    0.013686785f,    0.27841923f,
    0.5142223f,      0.22805548f,     0.11788975f,     0.61857027f,
    -0.28481475f,    -0.32580206f,    0.20025645f,     0.050043892f,
    -0.2794318f,     -0.57532954f,    -0.91781276f,    -0.05277319f,
    0.5393122f,      0.31296724f,     -0.17477229f,    0.19186473f,
    -0.23561923f,    0.8142192f,      1.3564693f,      1.0155638f,
    0.38857663f,     -0.5315784f,     -0.34675854f,    0.0036471253f,
    -0.46166325f,    0.59063524f,     -0.65321386f,    -1.2793586f,
    -0.7868484f,     0.4612693f,      -0.37797135f,    0.10866741f,
    0.57137686f,     -0.63054734f,    1.5022197f,      -0.24725203f,
    -1.763671f,      -0.72024626f,    1.0599604f,      -0.14152588f,
    0.43136743f,     0.048369113f,    -0.40638736f,    0.72839314f,
    0.6222128f,      0.2326878f,      -0.12315493f,    -0.6844608f,
    -1.004819f,      0.7573427f,      -0.5568794f,     -0.37639704f,
    -0.18573876f,    0.27267385f,     0.94952166f,     -0.108780734f,
    -1.6338346f,     -1.5358003f,     1.1847959f,      -0.56333166f,
    0.04403898f,     -0.31153077f,    0.2167957f,      0.7788921f,
    1.0628037f,      0.33383256f,     -0.49729043f,    0.29511833f,
    -0.086260185f,   0.57543415f,     -0.023307502f,   -0.4246642f,
    -0.037288748f,   0.44723958f,     1.2921792f,      0.049781594f,
    -0.3188282f,     0.3135301f,      -0.19162498f,    -0.26112115f,
    0.0088052405f,   0.18998624f,     -0.32672372f,    -0.26533398f,
    0.22139256f,     -0.259618f,      0.03374944f,     0.69480604f,
    0.1562577f,      -0.38050637f,    -0.4761325f,     -0.5620093f,
    -0.36318594f,    0.96705985f,     -0.39626953f,    -0.29212478f,
    -0.10088344f,    -0.19255427f,    -0.24058838f,    0.74910414f,
    0.82689226f,     -0.6004234f,     0.14357041f,     0.039516177f,
    0.0880349f,      -0.07063236f,    -0.19007154f,    0.14344668f,
    0.0026287257f,   0.3685666f,      -0.6365134f,     0.26005024f,
    -0.21451813f,    0.3557145f,      0.37946618f,     0.37182269f,
    0.25501326f,     -0.8174484f,     -0.117498115f,   0.27562037f,
    0.5931977f,      -0.8206178f,     0.20258304f,     0.9999096f,
    0.82774f,        0.18709926f,     -1.7302046f,     -0.8171931f,
    0.27093223f,     1.1662422f,      -0.8783781f,     0.04764855f,
    0.99150956f,     0.62471896f,     0.0050949273f,   -1.0272613f,
    -0.45712996f,    -0.050084952f,   0.7911946f,      -0.5816935f,
    0.133864f,       0.07529493f,     -0.4205339f,     -0.45023695f,
    -0.029735561f,   0.41533887f,     -0.52014947f,    0.3152804f,
    -0.39374793f,    0.21145588f,     -0.042243678f,   -0.4867124f,
    -0.04500908f,    0.68816465f,     0.40140226f,     -0.5006732f,
    0.47050703f,     -0.15960352f,    0.21951202f,     0.26238203f,
    0.47124302f,     0.07974689f,     -0.42061168f,    -0.4556174f,
    -0.51491493f,    0.93874115f,     -0.5408317f,     -0.033821754f,
    -0.3030086f,     0.8458958f,      -0.012004424f,   -0.78078955f,
    -0.69143885f,    -0.31044877f,    -0.044980943f,   0.5889015f,
    -0.13808507f,    -0.34794644f,    1.0299698f,      1.4493475f,
    0.9734214f,      0.2856093f,      -0.24660979f,    0.015078074f,
    0.5253397f,      -0.76478934f,    -0.8498789f,     -0.11144516f,
    -0.619453f,      0.64680994f,     0.22537453f,     -0.40734524f,
    -0.5437496f,     0.5655021f,      -0.19733796f,    -0.23559701f,
    -0.9083139f,     -1.8651907f,     0.5419178f,      1.2806929f,
    0.031125655f,    -0.39753094f,    -0.2360012f,     0.8301542f,
    0.5426837f,      -0.123015404f,   -0.99725187f,    -0.07795487f,
    0.5721125f,      0.72220266f,     -0.17130637f,    -0.7986908f,
    0.35157883f,     0.31243104f,     0.46281502f,     0.08913258f,
    -0.5773011f,     -0.9563837f,     0.31028932f,     0.55930024f,
    -0.73833925f,    0.25844994f,     -0.070035614f,   -0.24920309f,
    0.24937412f,     0.32053366f,     -0.0122980755f,  0.12602198f,
    0.34236664f,     -0.4932755f,     0.031631865f,    0.4289681f,
    -0.58439124f,    -0.11454642f,    0.6765444f,      0.4968983f,
    0.19068336f,     -0.35479856f,    -0.5249921f,     0.16310485f,
    -0.100300625f,   0.44946545f,     0.3187435f,      -0.9738066f,
    -0.87102157f,    0.16394618f,     0.7275059f,      0.018069461f,
    0.052330744f,    -0.46422747f,    0.64381325f,     0.38751227f,
    -0.10304183f,    -0.20357825f,    -0.067489386f,   0.13081762f,
    -0.030873248f,   -0.24708964f,    0.73526907f,     -0.49927014f,
    -0.7841351f,     -0.30329156f,    -0.027965808f,   -0.04182988f,
    0.2813496f,      0.6070565f,      0.099563636f,    -0.062404864f,
    -0.3196853f,     0.22805269f,     0.97728664f,     0.6428377f,
    -0.37280875f,    -0.23010366f,    0.09593498f,     -0.06934287f,
    -0.48989648f,    0.24761257f,     1.1431428f,      -0.076457076f,
    -1.5247623f,     -1.1632059f,     0.05082964f,     -0.19393575f,
    -0.48874152f,    -0.4361163f,     0.7745189f,      0.43908182f,
    -1.2020212f,     -1.0465279f,     0.104224786f,    1.46947f,
    0.33833075f,     0.46208444f,     -0.51075315f,    -0.5485718f,
    -0.72736233f,    -0.80535334f,    0.009473791f,    0.7614502f,
    0.43357086f,     -0.2997292f,     -0.054165408f,   0.14749096f,
    -0.2765886f,     0.17067073f,     0.6635581f,      0.96915233f,
    0.8232187f,      0.116452776f,    -0.50994647f,    -0.20635909f,
    0.6482553f,      0.5004425f,      0.30794883f,     0.3368354f,
    0.026599415f,    -0.6732439f,     -0.38894758f,    0.24931672f,
    0.22100307f,     -0.1987707f,     -0.27011392f,    -0.14020406f,
    -0.40663993f,    -0.4280321f,     -0.119858265f,   0.21891454f,
    0.18245646f,     -0.16985452f,    0.0015374386f,   -0.27872005f,
    -0.10738812f,    0.27467343f,     -0.18803404f,    -0.17770578f,
    -0.26419592f,    -0.011982608f,   0.19875252f,     0.05170953f,
    0.3456704f,      0.40990397f,     0.709854f,       0.41264763f,
    0.49404907f,     -0.09918434f,    -0.0711523f,     0.095824875f,
    -0.16952364f,    -0.12796776f,    -0.35325912f,    -1.1871777f,
    -0.86733323f,    0.1214555f,      0.44798166f,     -0.22057988f,
    -0.31378666f,    0.10906465f,     -0.030722225f,   -0.20871378f,
    -0.12711486f,    -0.54412603f,    0.0708257f,      -0.18697724f,
    0.46012503f,     -0.085764565f,   0.17378625f,     -1.0977216f,
    0.45855087f,     2.0218627f,      0.91215175f,     -0.39005798f,
    -1.5386198f,     0.8250969f,      -0.19934095f,    0.27105054f,
    -1.0328922f,     0.96572757f,     2.7977571f,      1.6517049f,
    -0.23533392f,    -1.136633f,      0.8349356f,      0.19428137f,
    0.04198125f,     -0.14317757f,    0.13129203f,     0.6917048f,
    0.03616762f,     0.20491727f,     -0.03582896f,    0.7187966f,
    -0.3182142f,     0.2736464f,      0.17198047f,     -0.4654261f,
    -1.1276278f,     -1.1610755f,     -0.19445343f,    0.07431374f,
    0.115876876f,    -0.35029426f,    -0.15556812f,    -0.11100419f,
    0.120328896f,    0.36629674f,     0.23473068f,     0.23865028f,
    -0.46826977f,    -0.043584216f,   0.37287995f,     -0.20233592f,
    0.31516075f,     0.3658289f,      0.08355067f,     0.20147797f,
    -0.81688154f,    0.21714263f,     0.7141248f,      -0.26354742f,
    -0.15622237f,    0.049751714f,    -0.09251372f,    -0.7442208f,
    0.13619149f,     0.2007894f,      -0.60607094f,    -0.46117017f,
    -0.32320994f,    0.30601597f,     -0.081826575f,   -0.09781985f,
    -0.64223003f,    0.26154348f,     1.3581918f,      0.501311f,
    -0.09750517f,    0.68369377f,     -0.008605272f,   -0.35852325f,
    1.0197587f,      0.7696466f,      -0.56556654f,    -0.8564765f,
    0.8370336f,      -0.14644493f,    -0.2114824f,     -0.36982122f,
    -0.74381566f,    1.750189f,       1.123148f,       -2.2020502f,
    -2.5298035f,     1.2842436f,      -0.34911287f,    -0.8930842f,
    0.20097339f,     -0.08761307f,    1.4322004f,      -0.1031088f,
    -1.6277033f,     -0.65059525f,    1.1860843f,      0.034448836f,
    -0.06560607f,    -0.005918698f,   -0.12747392f,    0.029491523f,
    -0.5988291f,     0.2369485f,      0.94672f,        -0.1539595f,
    -0.47678432f,    0.38821217f,     -0.20152639f,    -0.16364752f,
    -0.19663106f,    -0.0371645f,     0.9155417f,      0.0558782f,
    -0.5354818f,     -0.16877843f,    0.044295475f,    0.08495336f,
    0.3967005f,      0.19083177f,     -0.26242918f,    -0.20104551f,
    -0.57343924f,    0.03203641f,     0.7416376f,      -0.31398505f
};

static const long int srcnn_conv1_kernel_dims[] = {
    64,
    9,
    9,
    1
};

static const float srcnn_conv1_bias[] = {
    -0.03104757f,    -0.041964848f,   -0.083611324f,   -0.002169974f,
    -0.07627048f,    0.25804275f,     0.046665564f,    -0.105794735f,
    -0.005059599f,   0.0075850748f,   -0.16695252f,    0.10687588f,
    -0.7635969f,     0.075352825f,    0.08281501f,     0.118062764f,
    0.0062399036f,   0.3085167f,      0.04891141f,     0.16722123f,
    -0.1108275f,     0.0058327145f,   -0.062004026f,   -0.020524414f,
    0.3672099f,      -0.006577327f,   0.00042476706f,  -0.29667565f,
    0.0134129785f,   0.004270995f,    0.26935476f,     -2.1275053f,
    0.017589822f,    0.0005980144f,   0.02921272f,     0.034701083f,
    0.0017111801f,   0.28400767f,     -0.032340873f,   0.05517057f,
    0.14524327f,     -0.0419153f,     -0.34236446f,    0.00046179228f,
    -0.00074790325f, 0.035835523f,    0.10878776f,     -0.0021145006f,
    -0.15688384f,    0.011170645f,    0.2916091f,      0.043360725f,
    -0.9492841f,     0.00031853997f,  0.002931761f,    -0.086825155f,
    -8.591174e-06f,  -0.046959378f,   -0.17770994f,    -0.49371472f,
    -0.011704801f,   -0.013705753f,   -3.0716825f,     0.101286575f
};

static const long int srcnn_conv1_bias_dims[] = {
    64
};

static const float srcnn_conv2_kernel[] = {
    -0.0002554064f,  0.0023899642f,   -0.009100332f,   0.06056699f,
    -0.029579287f,   0.21364173f,     0.024987988f,    -0.003250827f,
    -0.34216833f,    -0.0016624008f,  0.00025729585f,  -0.035775427f,
    0.006553251f,    0.022515697f,    -0.023953848f,   0.02906548f,
    -0.012154749f,   0.005103373f,    -0.0051578665f,  -0.7992084f,
    0.33581352f,     -0.0014715595f,  0.06291311f,     0.0053574033f,
    0.0032826893f,   0.078437746f,    0.025076132f,    0.0001246283f,
    0.07081128f,     -0.087276466f,   -0.14741173f,    -0.004349465f,
    -8.776815e-05f,  -0.020141445f,   -0.0047788164f,  -0.1080894f,
    0.012616037f,    -0.028747903f,   0.005360369f,    -0.040356155f,
    -0.003706113f,   -0.117941834f,   -15.261404f,     -5.986392f,
    -0.0051108436f,  -0.025936209f,   -0.0002097741f,  -0.008293844f,
    0.21790421f,     0.02073712f,     -0.0020672043f,  0.63576335f,
    0.04070767f,     -0.9167609f,     0.056237806f,    -0.020912038f,
    -0.10210692f,    0.005271496f,    -0.010184779f,   -0.004060786f,
    -0.011696783f,   0.004089799f,    -0.033230837f,   -0.024425566f,
    0.0045808223f,   0.019738648f,    0.00159457f,     -0.08491014f,
    -0.028512852f,   -0.026904164f,   -0.01204785f,    0.013258074f,
    -0.6294972f,     0.039659023f,    0.038586486f,    -4.6992803f,
    -0.0053459215f,  0.016924486f,    -0.039686054f,   0.04969527f,
    0.0065696035f,   -0.0035680728f,  0.033121888f,    0.67199767f,
    -0.16208403f,    -0.020312741f,   0.009834304f,    -0.01828358f,
    -0.0076933643f,  -0.056906313f,   0.015940744f,    0.009852193f,
    -0.05011567f,    0.0738738f,      -0.21214469f,    0.02694471f,
    -0.031959686f,   -0.08422337f,    -0.014053012f,   -0.2684944f,
    0.004127141f,    0.019776806f,    0.00019922777f,  -0.100366786f,
    0.0053483117f,   -0.12747979f,    0.6460549f,      0.20465274f,
    0.0005392808f,   -0.012628853f,   0.020735653f,    0.0013136477f,
    0.7598848f,      0.1812191f,      -0.022512946f,   -0.49779138f,
    -0.030665185f,   -9.862683f,      -0.14914194f,    -0.004945233f,
    0.15098566f,     0.004828689f,    0.015715465f,    0.0076724724f,
    -0.011215252f,   -0.0022208947f,  -0.0021873007f,  -0.00064622593f,
    0.10380185f,     -0.021220172f,   -0.41133305f,    0.1385379f,
    -0.10113701f,    0.05046951f,     -0.028998043f,   -0.077862196f,
    -0.0026313711f,  0.07207479f,     0.03417845f,     -0.8867274f,
    0.03667861f,     -0.060034137f,   -0.06790769f,    0.017967556f,
    -0.2640664f,     -0.04266031f,    -0.0037306193f,  0.12417062f,
    0.013336957f,    0.18365395f,     0.024028538f,    -0.19596553f,
    -0.101999275f,   -0.03283486f,    0.3536125f,      0.1212146f,
    0.46311057f,     -1.4377803f,     0.0064242054f,   -0.5467145f,
    0.047348626f,    0.033845134f,    0.038788326f,    -0.4619386f,
    -0.4026377f,     -0.020518104f,   -0.19901282f,    -1.1181489f,
    0.23989238f,     -0.087652676f,   -0.2651947f,     0.07884111f,
    -0.17780721f,    -0.029750695f,   -0.09210048f,    -0.061390083f,
    0.5792844f,      0.090853974f,    0.013544742f,    -0.12319469f,
    -1.8110691f,     -0.03525233f,    -0.044628996f,   -0.054026883f,
    -5.2995973f,     0.049026407f,    0.037372228f,    0.037250936f,
    0.024675526f,    0.006012507f,    0.119033895f,    -0.07103651f,
    -0.0018832803f,  -0.011271933f,   -0.005014377f,   0.16091253f,
    0.0008451048f,   0.07361324f,     -0.27223068f,    -0.009683271f,
    -0.07241917f,    0.10176954f,     -0.58777267f,    0.0068840515f,
    0.040149122f,    -2.672692f,      -0.049581256f,   0.046102308f,
    -0.3039416f,     -0.01708099f,    0.0185412f,      -0.2613542f,
    -0.068512194f,   -0.03933508f,    0.0044708136f,   -0.013953701f,
    -0.054889336f,   -0.718177f,      0.37320358f,     0.0019258542f,
    -1.0631531f,     -0.4854715f,     0.12662071f,     -0.023351932f,
    -0.074752174f,   -0.26812518f,    0.00018155224f,  0.14381455f,
    -0.051278833f,   0.17964071f,     -10.102844f,     0.0121083595f,
    -0.023559086f,   0.00397022f,     -0.09495507f,    0.03928734f,
    0.00081905496f,  -0.073684625f,   -0.042384148f,   0.0058574597f,
    0.03498091f,     0.0020822634f,   -0.0550703f,     0.14612466f,
    -16.444946f,     0.040170234f,    -0.051672157f,   0.010468965f,
    -27.063047f,     0.1651197f,      0.04043117f,     0.009542242f,
    -0.006391296f,   0.040943213f,    -0.17006986f,    0.009705507f,
    -0.06456855f,    -0.15734419f,    -0.022239685f,   0.0080621075f,
    -0.6083589f,     -0.2774921f,     -0.014246032f,   -0.026301347f,
    -0.038306847f,   -0.044747923f,   0.052509278f,    -11.353132f,
    -0.10573369f,    0.110858835f,    -0.069327f,      -0.30167094f,
    -0.10159388f,    -0.15759686f,    -0.14587629f,    -0.021145394f,
    -0.0026651793f,  -0.094455555f,   -0.05221896f,    -0.14031275f,
    -0.040530227f,   -0.048631087f,   -0.0646318f,     -0.033329662f,
    -0.13120557f,    -0.07684922f,    0.005672297f,    -0.0652643f,
    0.0066869417f,   -0.041431956f,   0.0020632548f,   -0.025253206f,
    0.014456385f,    -0.06282962f,    -0.23689137f,    -0.4358406f,
    -0.06103596f,    -0.07569789f,    0.1459004f,      -0.34747988f,
    -0.12652436f,    0.085319795f,    -0.11395488f,    -0.028091274f,
    0.68330103f,     -0.23123708f,    -0.14177723f,    -0.19736032f,
    -0.10154678f,    -0.29053602f,    -0.12867033f,    -0.05758738f,
    -0.018500831f,   -0.022059904f,   -0.07365435f,    -0.08169296f,
    -0.14771183f,    0.11508332f,     0.06399398f,     -0.09043867f,
    0.03651939f,     -0.4938234f,     -0.3120735f,     -0.2890012f,
    -0.13916342f,    -0.17628759f,    -0.22353305f,    -0.046944514f,
    -0.37460518f,    -0.107438505f,   0.061039757f,    -1.7861881f,
    -0.16293253f,    0.30335924f,     -0.028655829f,   -0.3049877f,
    -0.12845886f,    -0.05112472f,    -0.029790584f,   0.10508136f,
    0.0032049424f,   -0.016324107f,   -0.14696133f,    0.002153054f,
    -0.08524349f,    0.14478701f,     -0.16366178f,    -0.7213033f,
    -0.25844172f,    -0.087510295f,   0.10028701f,     -0.17504516f,
    -0.38140658f,    -0.025189014f,   -0.17398193f,    -0.14106399f,
    -0.097576536f,   -0.37243053f,    0.12278438f,     0.04048157f,
    -0.3178101f,     0.15025295f,     -0.39470074f,    -0.14945515f,
    -0.27459416f,    -0.15698285f,    -0.3676916f,     0.08977715f,
    0.9378766f,      -0.06659458f,    -0.30429012f,    -0.39369112f,
    -0.12025192f,    -0.87033683f,    -0.22903791f,    -0.10713569f,
    -0.04414073f,    -0.049127404f,   -0.0068324413f,  0.0057248953f,
    -0.09742813f,    -0.12934731f,    -0.047294848f,   -0.20914547f,
    0.14814423f,     -0.2777668f,     -0.029271659f,   0.21507141f,
    -0.36763206f,    0.10412054f,     0.08191576f,     -0.12652142f,
    -0.58834434f,    -0.19195904f,    0.25059387f,     -2.4687207f,
    -0.14109641f,    -0.07435956f,    -0.10273207f,    0.28873506f,
    -0.08833457f,    -0.042864174f,   -0.10548151f,    -0.059883863f,
    -0.020447442f,   0.04951171f,     0.02730374f,     0.0746732f,
    -0.11377327f,    0.21695584f,     0.1539962f,      -0.102783985f,
    -0.07325114f,    -0.11504277f,    0.042288896f,    0.02535179f,
    0.07583483f,     -0.17288487f,    0.3004598f,      -0.83335805f,
    -0.045229252f,   0.1154963f,      0.26644993f,     -3.1055822f,
    0.061228935f,    0.064988166f,    -9.20083f,       -4.393479f,
    -0.10626397f,    -0.018426223f,   -0.08110404f,    -0.08273521f,
    0.039648637f,    -0.17858253f,    -0.030643316f,   -0.010680011f,
    -0.19519591f,    -0.27500492f,    -0.23175392f,    0.30603918f,
    -0.04484174f,    -0.041979715f,   -0.09596891f,    0.20431246f,
    -0.0059319073f,  -0.001152917f,   -1.1518106f,     0.026888719f,
    -0.17097403f,    0.020100247f,    -0.1571006f,     -0.37969878f,
    -0.3301428f,     -0.20484106f,    0.01939461f,     -0.019713523f,
    -0.15515928f,    -0.16123447f,    0.07310325f,     -0.08826874f,
    -0.10307898f,    -0.0018930855f,  -0.09208286f,    -0.021420008f,
    -0.24134861f,    -0.7577915f,     -0.12299831f,    -0.46233153f,
    0.019531284f,    -0.04673523f,    -0.07949513f,    -0.1408142f,
    -0.047253385f,   -0.09263711f,    -0.29100868f,    -0.013803292f,
    -0.19429687f,    -0.044297647f,   -0.058798455f,   -0.06044459f,
    -3.7506065f,     -0.23349404f,    0.21300785f,     -0.25435624f,
    -0.07907954f,    -0.13863783f,    0.17392652f,     -0.03276513f,
    -0.0047281827f,  -0.12368379f,    0.0056355335f,   -0.22159404f,
    -0.19433871f,    -0.23018007f,    -0.09205849f,    -0.028791785f,
    0.061992902f,    -0.04017434f,    0.019763159f,    -0.21293294f,
    -0.082997516f,   -0.011148882f,   -0.15318495f,    -0.032940917f,
    0.2801317f,      -0.060451165f,   -0.062018655f,   -0.043600976f,
    -0.012885303f,   -0.23512465f,    -0.073871896f,   -0.01703533f,
    -0.05480962f,    -0.033199422f,   -0.008542301f,   -0.4588442f,
    -0.046556875f,   -0.076017424f,   -0.21684654f,    -0.06280796f,
    -0.12979394f,    0.15535876f,     -0.025942277f,   -0.010115448f,
