/*
 * Copyright (c) 2018 Sergey Lavrushkin
 *
 * This file is part of FFmpeg.
 *
 * FFmpeg is free software; you can redistribute it and/or
 * modify it under the terms of the GNU Lesser General Public
 * License as published by the Free Software Foundation; either
 * version 2.1 of the License, or (at your option) any later version.
 *
 * FFmpeg is distributed in the hope that it will be useful,
 * but WITHOUT ANY WARRANTY; without even the implied warranty of
 * MERCHANTABILITY or FITNESS FOR A PARTICULAR PURPOSE.  See the GNU
 * Lesser General Public License for more details.
 *
 * You should have received a copy of the GNU Lesser General Public
 * License along with FFmpeg; if not, write to the Free Software
 * Foundation, Inc., 51 Franklin Street, Fifth Floor, Boston, MA 02110-1301 USA
 */

/**
 * @file
 * This file contains CNN weights for ESPCN model (https://arxiv.org/abs/1609.05158),
 * auto generated by scripts provided in the repository: https://github.com/HighVoltageRocknRoll/sr.git.
 */

#ifndef AVFILTER_DNN_ESPCN_H
#define AVFILTER_DNN_ESPCN_H

static const float espcn_conv1_kernel[] = {
    -0.033651225f,   0.08141546f,     -0.028117338f,   0.1370229f,
    0.21719787f,     0.0018106321f,   -0.21415733f,    0.08370989f,
    0.04526427f,     0.13084698f,     -0.016193666f,   0.048420854f,
    -0.043297544f,   -0.010689146f,   -0.15213025f,    0.12779328f,
    -0.12508103f,    -0.03025096f,    0.050621416f,    0.06129373f,
    -0.31008086f,    0.090241484f,    0.11289834f,     0.024204707f,
    -0.15997766f,    -0.4491874f,     1.7992994f,      -2.2776546f,
    0.92356527f,     -0.22333145f,    -0.3484276f,     -0.30224112f,
    2.6481814f,      -3.5702555f,     1.6448367f,      0.821054f,
    -2.194776f,      2.9794505f,      -0.74629736f,    -0.71420956f,
    -0.19285335f,    0.45863184f,     -1.3390704f,     1.9217515f,
    -0.9752292f,     0.17233354f,     -0.42186308f,    0.0067120134f,
    0.15278922f,     0.25349525f,     0.04239441f,     0.32368666f,
    -0.32882598f,    -0.09148329f,    0.13972661f,     -0.33373186f,
    1.3149962f,      -1.3097465f,     -1.0351702f,     0.5667829f,
    0.28915232f,     -0.12594104f,    0.19577143f,     -0.010226973f,
    0.27975535f,     0.08592676f,     -0.3827023f,     0.28327408f,
    0.2345602f,      -0.28909206f,    -0.01707916f,    0.02990479f,
    0.029567802f,    0.16850159f,     0.03417645f,     -0.089996934f,
    0.059985105f,    -0.15995955f,    -0.17444675f,    -0.059467997f,
    0.08160676f,     0.26426318f,     1.01275f,        0.8737046f,
    0.10697361f,     0.37341496f,     0.34371883f,     2.3972206f,
    0.3797688f,      0.32201457f,     -0.15579607f,    0.004243462f,
    -0.9925481f,     -0.08061044f,    -0.06980977f,    0.004541201f,
    0.04380443f,     0.35560706f,     -0.00929085f,    0.09188179f,
    0.0667816f,      -0.13034518f,    0.14290251f,     -0.104175836f,
    0.0013874007f,   -0.21087192f,    0.33723673f,     -0.81895316f,
    0.2068736f,      -0.024198757f,   0.20320402f,     -0.9201378f,
    -22.43354f,      -0.55837536f,    -0.18251857f,    -0.06481952f,
    0.13386513f,     -0.92357135f,    0.12469517f,     0.07433132f,
    -0.019609528f,   0.020879095f,    -0.037496805f,   -0.020767067f,
    -0.023763046f,   0.014306224f,    -0.21043892f,    0.16374084f,
    0.060567956f,    -0.13136876f,    -0.24900316f,    0.35642996f,
    -0.39053982f,    0.006153686f,    0.10833906f,     -0.109700225f,
    0.16616625f,     0.0967383f,      0.26237366f,     -0.18988574f,
    0.23701477f,     -0.4337045f,     0.1442159f,      -0.3304001f,
    0.12143453f,     0.069193594f,    0.1799313f,      -0.05647911f,
    -0.017935714f,   0.043117225f,    0.06470898f,     -0.004627622f,
    -0.019676162f,   0.012499647f,    0.016022062f,    0.042290222f,
    -0.02982633f,    -0.037106734f,   0.039087374f,    0.00029811377f,
    -0.15740614f,    0.13884911f,     -0.06417996f,    -0.102875255f,
    0.17561884f,     -0.046311516f,   -0.10099872f,    0.17903659f,
    -0.055862334f,   0.059019238f,    0.11083021f,     -0.015236638f,
    -0.06907288f,    0.09691499f,     -0.22299959f,    0.010823794f,
    0.010635834f,    -0.0023554056f,  -0.012515517f,   0.029083649f,
    -0.0041044154f,  0.039968647f,    -0.036370832f,   -0.056957614f,
    0.06255996f,     0.035850722f,    -0.055701878f,   0.06230328f,
    -0.080863565f,   0.035210107f,    0.015096615f,    -0.04939917f,
    0.011800731f,    0.07148536f,     -0.047290847f,   -0.06091541f,
    0.113620274f,    -0.080722176f,   0.056476723f,    -0.066667825f,
    -0.14979011f,    0.15063208f,     -0.11805492f,    -0.138875f,
    0.14232866f,     -0.03414186f,    0.47239187f,     0.009407899f,
    0.01444684f,     -0.10259039f,    -0.07597026f,    0.12913887f,
    -0.67652786f,    0.49300277f,     -0.15496327f,    0.11434867f,
    0.0086330585f,   0.0016397188f,   -0.093785115f,   0.12697084f,
    0.09329895f,     -0.098265454f,   0.015779398f,    0.024828607f,
    -0.20260698f,    -0.0043203263f,  0.008699304f,    -0.0068465173f,
    0.002962457f,    0.007240551f,    0.006284914f,    -0.018137073f,
    -0.009959204f,   0.041471813f,    -0.018904453f,   -0.042574976f,
    0.024426522f,    0.018850524f,    -0.035666943f,   0.012505667f,
    -0.014740345f,   0.0039879885f,   0.015514583f,    0.0046489495f,
    -0.007373316f,   0.039615016f,    -0.04171012f,    -0.0011046156f,
    -0.013045653f,   0.027342325f,    0.034585696f,    -0.025510559f,
    -0.0030336082f,  0.000485477f,    -0.007296067f,   -0.027812503f,
    0.025867466f,    -0.011391817f,   0.018295178f,    -0.00917634f,
    -0.040564276f,   0.018141888f,    -0.00067481253f, -0.022856772f,
    0.02692952f,     0.015732365f,    -0.027582686f,   0.0110019455f,
    -0.01288451f,    -0.0003018919f,  0.019714799f,    0.01728935f,
    -0.002913521f,   0.008114081f,    0.0027821003f,   0.4531545f,
    0.053950854f,    -0.6977125f,     0.2064479f,      -0.109914035f,
    0.1841823f,      -0.13620034f,    0.27128533f,     -0.0609876f,
    0.003371579f,    0.1930245f,      2.4499261f,      -4.972192f,
    1.2972376f,      -0.14015496f,    0.2681309f,      4.5717506f,
    -4.222891f,      0.28777757f,     -0.47991228f,    0.030688927f,
    0.24025695f,     -0.010329718f,   0.22207767f,     -0.106166996f,
    -0.005659934f,   -0.012544079f,   -0.01702093f,    -0.000517936f,
    0.012638107f,    -0.0033698415f,  0.007970288f,    -0.011309287f,
    0.022607557f,    -0.01640778f,    -0.014023224f,   -0.008556073f,
    0.04318879f,     -0.03346796f,    0.014410724f,    -0.00046621874f,
    0.007378614f,    -0.0073061357f,  0.0042915936f,   -0.004515676f,
    0.024914468f,    -0.008171752f,   -0.0017248475f,  -0.0059723468f,
    0.010641572f,    -0.25384668f,    0.16646713f,     0.06976762f,
    0.132991f,       -0.11862378f,    0.3204264f,      -0.2161517f,
    -0.15423734f,    -0.1217866f,     0.04545744f,     -0.18977062f,
    0.03121648f,     0.28215134f,     -0.05836171f,    0.19382347f,
    0.06683978f,     0.07896366f,     -0.26435596f,    0.019489296f,
    0.008891515f,    0.08911816f,     -0.08334369f,    0.07251963f,
    -0.02495827f,    -0.17624144f,    -0.0600965f,     -0.11753576f,
    0.15228821f,     -0.15012947f,    -0.102076195f,   0.07920336f,
    0.35360602f,     -0.43018606f,    -0.015259097f,   0.25731575f,
    -0.027296295f,   -0.40447804f,    -0.2375002f,     -0.25029674f,
    0.15262108f,     0.297686f,       0.13268502f,     -0.44820413f,
    -0.37434947f,    0.1261727f,      0.15368667f,     -0.37884322f,
    0.21143666f,     0.004934576f,    0.03484901f,     -0.0062802057f,
    0.011079838f,    0.013925544f,    -0.07367002f,    -0.00024836176f,
    -0.020962216f,   0.042730514f,    -0.03942212f,    0.08173478f,
    -0.06545684f,    0.04225348f,     -0.033619102f,   0.122894906f,
    -0.09198154f,    0.005074649f,    0.020633776f,    0.0038829045f,
    -0.12776504f,    0.1464373f,      -0.040253535f,   -0.034283984f,
    -0.05876475f,    0.06889128f,     -0.09487612f,    0.12700228f,
    -0.015016703f,   0.02545879f,     -0.009468004f,   -0.00097389973f,
    0.0061884173f,   0.018115327f,    -0.03235417f,    0.010192787f,
    0.010647744f,    -0.006882341f,   0.00641248f,     0.0062712007f,
    -0.016744254f,   0.0058270027f,   -0.012694194f,   -0.022825575f,
    0.018078726f,    0.013505268f,    -0.02376646f,    0.022100678f,
    0.022399256f,    -0.024491498f,   0.003643337f,    0.0073666316f,
    -0.011214707f,   0.042343896f,    1.1964284f,      1.1262068f,
    -0.0125066f,     0.13206916f,     -1.3212638f,     -1.72202f,
    -1.7712481f,     0.39054653f,     0.115705706f,    1.4770936f,
    0.9925719f,      0.77947533f,     -0.68878996f,    -1.4571657f,
    -0.3137554f,     -0.3995305f,     0.097454146f,    1.0607964f,
    1.258041f,       0.017379453f,    0.030014992f,    -0.09101157f,
    -0.73976797f,    -0.21007289f,    -0.058368642f,   0.08423641f,
    -0.06387555f,    -0.18031077f,    -0.024950154f,   -0.42568955f,
    0.22135833f,     -0.02566547f,    0.26769084f,     -0.011800038f,
    -0.025906863f,   -0.66306657f,    -0.37567604f,    -0.28611735f,
    0.43021184f,     0.09991237f,     0.79288036f,     0.5373436f,
    0.7736879f,      0.025644226f,    0.34796628f,     -0.3276089f,
    -0.26382548f,    -0.44874048f,    -0.25642022f,    0.032270946f,
    -0.022875438f,   0.57005584f,     -0.103805095f,   -0.027593944f,
    -0.10354166f,    0.8457833f,      -1.3360838f,     0.42011598f,
    0.11129376f,     0.18282677f,     -0.7165381f,     -3.611883f,
    0.48547474f,     0.1206109f,      0.0791582f,      0.5717829f,
    1.4082952f,      -0.13747625f,    0.028161597f,    -0.05371877f,
    0.026620565f,    -0.27406257f,    0.06475868f,     0.10684791f,
    0.07656841f,     0.11414447f,     -0.18679783f,    0.3174631f,
    -0.3324665f,     -0.054792285f,   0.015518165f,    0.2820419f,
    -0.3405606f,     0.11497142f,     -0.034227278f,   -0.15895344f,
    -0.027250698f,   0.26229578f,     -0.029106213f,   0.07658948f,
    0.055758134f,    -0.04704797f,    -0.09523118f,    -0.01786842f,
    -0.24532066f,    -0.10276325f,    0.04712425f,     -0.0014071283f,
    0.26272595f,     -0.12238576f,    0.04811111f,     0.04746326f,
    0.06720963f,     -0.045621894f,   0.037144933f,    -0.057428807f,
    0.0074382615f,   -0.006663423f,   0.008955534f,    -0.0017526702f,
    0.068258256f,    -0.014245306f,   0.012218727f,    -0.06978347f,
    0.0045066467f,   -0.05709926f,    -0.028024383f,   0.1313973f,
    -0.08620281f,    0.0014925577f,   -0.04540824f,    0.009461808f,
    -0.085372925f,   0.15996909f,     -0.032260284f,   -0.067303635f,
    -0.009071448f,   0.05536098f,     0.046731256f,    0.005596734f,
    0.050206613f,    0.0077225636f,   -0.10998435f,    0.013611023f,
    0.065691985f,    -0.050880555f,   0.090820104f,    0.048506916f,
    -0.123054065f,   -0.027516266f,   -0.075243846f,   -0.13243125f,
    0.13891536f,     0.048725024f,    -0.037174966f,   0.16769321f,
    0.050089728f,    -0.12838423f,    0.002787225f,    0.07988778f,
    -0.0053280047f,  -0.056187253f,   -0.011433725f,   0.016641367f,
    0.08536485f,     -0.06201575f,    0.0035803248f,   0.028980076f,
    -0.048863932f,   -0.11342622f,    0.13643155f,     -0.08830679f,
    -0.02103459f,    0.09369883f,     -0.006806451f,   -0.012497092f,
    0.094690606f,    -0.050089475f,   -0.013550645f,   -0.0060583195f,
    -0.040357545f,   -0.007459913f,   0.058476903f,    -0.070549786f,
    0.0007626135f,   -0.012492823f,   -0.00510646f,    0.013715168f,
    -0.009291373f,   0.008988795f,    0.013655029f,    0.027690958f,
    -0.05720208f,    0.013017537f,    0.040551037f,    -0.0059102485f,
    -0.047496248f,   0.07378406f,     -0.03411246f,    0.032498203f,
    0.0007936657f,   -0.031725146f,   -0.0489591f,     0.04632291f,
    -0.06077211f,    0.019726476f,    0.032194573f,    0.02347913f,
    -0.030544575f,   -0.0039228355f,  0.01824424f,     -0.025985759f,
    -0.04485126f,    0.034144726f,    0.0048262817f,   -0.016245268f,
    0.03092239f,     0.05255696f,     -0.0527505f,     0.036376152f,
    0.010774665f,    -0.04255956f,    -0.019309435f,   0.03162172f,
    -0.05954396f,    0.047493123f,    0.0021444375f,   -0.031325057f,
    0.041758582f,    0.03128625f,     -0.08789106f,    0.042219453f,
    0.018610658f,    -0.02827738f,    0.035746276f,    -0.9474874f,
    2.0469842f,      -1.321167f,      0.2543833f,      -1.2119492f,
    4.2701416f,      -3.0788984f,     -0.22463766f,    0.4665166f,
    1.4026526f,      -1.1010966f,     -2.6380749f,     2.6244087f,
    -0.7884985f,     0.29131767f,     -1.738198f,      2.2840524f,
    -0.9478553f,     0.23109299f,     -0.27683294f,    0.32805127f,
    -0.3203711f,     0.261952f,       0.050106455f,    0.04158691f,
    -0.023125503f,   -0.03719599f,    -0.056111246f,   0.05282794f,
    -0.021825556f,   0.006073163f,    -0.018821497f,   0.12478096f,
    -0.07695036f,    -0.025720906f,   0.029763224f,    0.053414855f,
    -0.113284856f,   0.0674048f,      -0.055122614f,   0.0593638f,
    0.035032593f,    -0.04542647f,    0.0038384513f,   0.081376925f,
    -0.09966911f,    -0.040397853f,   0.049806096f,    0.0008625808f,
    0.009346304f,    -0.016910354f,   -0.0061955294f,  0.00075164373f,
    0.017360615f,    0.014771159f,    0.020654095f,    -0.0060036047f,
    -0.024364313f,   -0.0064911875f,  -0.0035039433f,  -0.017624265f,
    0.011326905f,    0.034578107f,    -0.031880025f,   0.01818495f,
    -0.0018683636f,  -0.013890168f,   0.00048885506f,  -0.0049361764f,
    -0.029021565f,   0.043846432f,    -0.0085247345f,  0.006515423f,
    -0.0072788447f,  -0.22348252f,    -0.32035953f,    -0.17488877f,
    -0.12534964f,    0.05155121f,     -0.25779155f,    0.17713468f,
    0.4386189f,      -0.04552404f,    -0.12387897f,    0.50271976f,
    0.2873703f,      0.2634686f,      0.04795615f,     -0.008180651f,
    -0.22767483f,    0.18837523f,     0.4473208f,      0.047504447f,
    -0.03341417f,    -0.025862379f,   -0.034787036f,   -0.11211656f,
    0.09060133f,     0.14062718f,     -0.11936079f,    -0.15965782f,
    0.31821185f,     0.5182185f,      -0.3406504f,     0.2403372f,
    -1.7994181f,     -6.015933f,      -0.22330882f,    -0.023098761f,
    -0.0795721f,     2.4078753f,      1.8562393f,      0.22230634f,
    0.0073212096f,   -0.3555047f,     0.59674025f,     2.190251f,
    -0.62903965f,    0.2844899f,      0.41804186f,     -0.5471097f,
    0.47739178f,     -0.261793f,      0.17756975f,     0.049934085f,
    0.007851809f,    -0.0122786295f,  -0.013898886f,   -0.0041208738f,
    -0.041106824f,   -0.030471098f,   0.078186445f,    0.0620147f,
    -0.09604734f,    0.0030226242f,   0.053262204f,    -0.05892392f,
    -0.01313975f,    0.088094994f,    -0.029207155f,   -0.073151454f,
    0.027125567f,    0.0018934088f,   0.096658505f,    -0.014958196f,
    0.036345955f,    -0.007185197f,   -0.017472142f,   -0.1481408f,
    -0.041528292f,   0.07346612f,     -0.074839324f,   0.07964649f,
    -0.025005175f,   -0.11541149f,    0.2657465f,      -0.2514277f,
    0.10952359f,     -0.09074946f,    -0.030426346f,   -0.12749483f,
    0.43572408f,     -0.37397367f,    0.06997134f,     -0.19125696f,
    0.5404963f,      1.1268033f,      0.50891066f,     -0.107599825f,
    -0.049365554f,   0.3013349f,      0.111512065f,    -0.22275999f,
    0.114790834f,    0.16869746f,     -0.14016086f,    -0.06494082f,
    0.113072425f,    0.048676368f,    -0.10187943f,    0.23833296f,
    0.14212827f,     -0.20158547f,    -0.093053155f,   -0.19645469f,
    -0.045022108f,   -0.3578435f,     -0.47786415f,    -0.19165401f,
    -0.17586553f,    0.2630432f,      -0.69676906f,    -0.1683862f,
    -0.10343814f,    0.0747168f,      -0.058464624f,   0.6414457f,
    -0.031557675f,   0.32135972f,     -0.28340906f,    0.58322585f,
    0.79386425f,     -1.3579369f,     0.2213669f,      0.7535923f,
    0.35874626f,     -4.081564f,      2.105799f,       0.03394105f,
    -0.58708084f,    -3.105196f,      5.0317016f,      -0.5260426f,
    -0.17504211f,    -0.55119985f,    2.7276595f,      -1.9475206f,
    -0.02522392f,    -0.1247523f,     0.40392175f,     -0.80572325f,
    0.4562317f,      0.09129194f,     0.07239832f,     -0.004039087f,
    -0.024027368f,   -0.015137804f,   -0.0054662786f,  0.011786941f,
    0.004253954f,    0.027057769f,    0.00018785706f,  -0.0088780485f,
    -0.008575791f,   0.021962967f,    -0.0003256301f,  0.0013863654f,
    -0.013673512f,   -0.013595973f,   0.039284207f,    -0.019664254f,
    -0.0053340485f,  0.00075133645f,  -0.014103194f,   -0.046577062f,
    0.037992567f,    -0.0065952917f,  0.023269163f,    0.01705902f,
    0.017225321f,    -0.02343812f,    0.0051621622f,   -0.0005592662f,
    -0.0147186285f,  0.00040271418f,  0.027110096f,    -0.02702271f,
    0.013710606f,    -0.006311487f,   -0.0060713515f,  -0.010298143f,
    0.03591056f,     -0.025406174f,   0.0048258547f,   0.021302823f,
    -0.013482781f,   0.006497144f,    0.005626027f,    -0.024558544f,
    -0.017322414f,   0.012411624f,    -0.024183042f,   0.014873674f,
    0.026183153f,    -0.008383793f,   0.0124931205f,   0.012457213f,
    0.012045159f,    -0.019694531f,   -0.0066898805f,  0.0019155081f,
    0.019189619f,    -0.04763183f,    0.023620982f,    0.035946153f,
    -0.013889654f,   -0.026330067f,   0.016713306f,    0.017396243f,
    0.014167993f,    -0.018667273f,   -0.0176273f,     0.021136532f,
    0.0036439386f,   -0.0375102f,     0.02710138f,     0.002033066f,
    0.009265898f,    -0.039189693f,   -0.025981946f,   -0.004615037f,
    0.0032535857f,   0.018461222f,    0.0074792383f,   -0.0017322749f,
    0.008931792f,    0.005375118f,    -0.0319608f,     0.004013289f,
    0.009399282f,    0.0026269008f,   -0.005500013f,   -0.0083868615f,
    0.010927849f,    0.023633521f,    -0.05956806f,    -0.013574904f,
    0.061837375f,    -0.0026012722f,  -0.027987529f,   0.06258813f,
    0.0054814643f,   -0.021918664f,   -0.023040216f,   -0.45757416f,
    1.4565207f,      0.43907982f,     -1.3033811f,     -0.024905257f,
    0.32251948f,     -3.835781f,      3.3216836f,      2.440432f,
    -0.5298869f,     -0.28021938f,    2.749278f,       -6.4149313f,
    0.6562477f,      0.95437104f,     0.14401948f,     -0.5539441f,
    3.2380984f,      -2.1034584f,     0.017148938f,    0.011923728f,
    0.13322712f,     -1.0862578f,     0.92730755f,     -0.26725858f,
    -0.24397932f,    0.074425526f,    0.1117935f,      0.13240293f,
    0.41784397f,     0.7404742f,      1.0318282f,      1.4331021f,
    0.7335343f,      -0.43346286f,    -0.7830092f,     -1.9374405f,
    -2.4191442f,     -1.3617048f,     -0.24706343f,    -0.03342432f,
    1.5173944f,      1.8612181f,      0.6315033f,      -0.11890764f,
    0.19086017f,     -0.7222582f,     -0.7190146f,     -0.14755085f,
    0.3167361f,      -0.039976545f,   0.1307512f,      -0.14481206f,
    0.0029141766f,   -0.023563737f,   0.22623633f,     -0.26986006f,
    0.033467237f,    0.3039329f,      0.09788029f,     -0.23093647f,
    0.04797184f,     -0.5435371f,     0.28225297f,     -0.12393708f,
    0.06615679f,     0.21791485f,     0.23950522f,     -0.38103038f,
    0.057797447f,    0.012778321f,    0.18788584f,     -0.23953205f,
    0.003463926f,    0.1519535f,      -0.025784193f,   0.022954147f,
    0.021384975f,    0.031615477f,    -0.024224572f,   0.013137536f,
    -0.015687706f,   0.024815697f,    -0.05859628f,    0.031555064f,
    -0.0019542053f,  0.0120559605f,   -0.027779348f,   0.04989342f,
    -0.018062575f,   0.011863047f,    -0.009080397f,   -0.032487895f,
    0.023245774f,    0.0034800111f,   -0.012821287f,   -0.004105503f,
    0.0097069405f,   -0.0123393545f,  -0.01738414f,    -0.24763492f,
    0.22560623f,     -0.33906525f,    0.17742047f,     0.29261616f,
    0.23450398f,     0.08458583f,     0.31558466f,     -0.34477365f,
    -0.036315188f,   -0.63012654f,    1.020803f,       -6.822575f,
    4.672898f,       0.907094f,       0.0921175f,      0.42199847f,
    -2.4781747f,     2.6292892f,      -0.20802575f,    -0.040282898f,
    -0.16429797f,    0.158319f,       -0.21606922f,    0.17297447f,
    0.10854483f,     -0.21564475f,    0.10645375f,     -0.0852769f,
    -0.123929694f,   -0.070597954f,   0.1399093f,      -0.21883014f,
    0.25562203f,     0.015535234f,    0.008046734f,    0.20049386f,
    -0.10580072f,    -0.288465f,      0.12385275f,     -0.13853587f,
    0.14443761f,     -0.11708488f,    0.16184115f,     0.32197487f,
    -0.14791423f,    0.16313978f,     0.049589388f,    -0.09173289f,
    -0.12055817f,    -0.03492332f,    0.0457395f,      -0.027245864f,
    0.08227852f,     -0.03637111f,    0.019504743f,    -0.05241149f,
    0.08827175f,     -0.09138424f,    0.049888045f,    0.03992102f,
    -0.013001513f,   -0.06494804f,    0.10308159f,     -0.058084413f,
    0.0041539194f,   0.03151993f,     -0.06009176f,    0.010160405f,
    0.0142107215f,   -0.0069897706f,  -0.03624838f,    0.08260462f,
    -0.07326148f,    -0.0082091065f,  0.05924571f,     -0.07805568f,
    0.0003147011f,   -0.024013342f,   0.003571202f,    -0.0687727f,
    0.085256286f,    -0.028858652f,   0.008514979f,    -0.01370254f,
    -0.02649602f,    -0.049568724f,   0.072079524f,    -0.019674798f,
    0.01081535f,     0.02266942f,     -0.006238329f,   -0.017271083f,
    -0.016328055f,   0.005945148f,    0.010414125f,    0.0649988f,
    -0.011186836f,   0.0031077736f,   0.01488379f,     0.10748715f,
    -0.06637495f,    -0.040573314f,   -0.0037701947f,  0.08946786f,
    0.020519216f,    0.18580866f,     -0.11058605f,    -0.10992421f,
    0.009827032f,    0.0054510324f,   0.048547767f,    0.16061442f,
    -0.05525848f,    -0.13149387f,    0.011624945f,    -0.11132381f,
    -0.029880086f,   0.14393318f,     0.035286944f,    -0.098463364f,
    0.038993724f,    -0.06352473f,    -0.06792619f,    0.098394215f,
    -0.06928554f,    0.058781754f,    -0.059582964f,   -0.017070632f,
    -0.0157639f,     0.1672481f,      -0.20033248f,    0.08431539f,
    0.18242975f,     0.14837542f,     -0.17650276f,    -0.046665296f,
    -0.1051493f,     -0.50624675f,    -0.10856225f,    -0.16793527f,
    -0.07197735f,    0.28330138f,     -0.39458862f,    0.023908805f,
    0.053147294f,    -0.061758015f,   -0.27711603f,    0.04967058f,
    0.068010144f,    -0.29855344f,    0.07553203f,     0.00070996344f,
    0.0021598968f,   -0.34284872f,    0.3667866f,      -1.7976327f,
    -3.8050454f,     -0.27751672f,    0.06710288f,     -0.11527652f,
    2.0488567f,      3.8449504f,      -0.019417979f,   0.25272283f,
    -0.7124749f,     0.6854457f,      1.2635205f,      -0.6528006f,
    0.20464845f,     0.11308838f,     -0.2125412f,     -0.4034266f,
    -0.008234763f,   -0.02797744f,    0.041370988f,    -0.09540984f,
    -0.001699344f,   -0.019013003f,   0.0010383653f,   -0.016509417f,
    0.28561717f,     -0.024256004f,   0.24378292f,     -0.02724916f,
    -0.020548128f,   -0.1074765f,     2.074155f,       -0.3262673f,
    0.024195021f,    0.3360093f,      -0.068875425f,   -9.405202f,
    1.627166f,       -0.37471554f,    -0.14033297f,    0.011253595f,
    0.33248034f,     -0.101982914f,   0.038908735f,    -0.08949174f,
    0.020867223f,    0.04687899f,     -0.060135193f,   0.05768169f,
    -0.015182229f,   0.0089645665f,   -0.0532681f,     0.0694109f,
    -0.029092036f,   0.052889585f,    -0.043014023f,   0.08994548f,
    -0.074426785f,   -0.018725326f,   -0.021360457f,   0.01875993f,
    0.0013528034f,   0.034160204f,    -0.038930826f,   0.009579829f,
    0.009250521f,    -0.09578013f,    0.04048143f,     0.078915566f,
    -0.13183434f,    0.40188128f,     -0.03411511f,    0.07047681f,
    -0.10000601f,    -0.0060591656f,  0.65625215f,     0.31422958f,
    0.18896863f,     0.17151128f,     0.34385997f,     0.030188305f,
    -0.16014273f,    -0.42167395f,    -0.018569563f,   -0.28614002f,
    0.029776182f,    0.049304806f,    -0.22978953f,    0.09140162f,
    0.022890963f,    0.11712325f,     0.17694704f,     -0.21161927f,
    0.07646972f,     -0.01295703f,    0.009571042f,    -0.106058836f,
    0.15918256f,     -0.06587445f,    0.08662464f,     -0.19923525f,
    0.34388235f,     -0.9267652f,     -0.09304384f,    -0.30417427f,
    0.7931898f,      -1.7338952f,     9.8180275f,      0.55701333f,
    0.064932264f,    -0.17937589f,    0.115376815f,    -0.09499582f,
    -0.2485727f,     -0.0046541383f,  0.028371822f,    0.03606203f,
    0.0067365323f,   0.11616945f,     0.043863643f,    -0.14730981f,
    0.27774972f,     0.060969193f,    -0.11612988f,    -0.28526798f,
    0.471017f,       -0.6997008f,     0.12838572f,     -0.055129312f,
    0.2856449f,      -1.4332232f,     1.3067651f,      -0.24192092f,
    0.2081171f,      -0.53965205f,    -6.1775684f,     -0.98148304f,
    0.17084767f,     -0.17830072f,    -0.04059373f,    0.3728461f,
    0.20867456f,     0.1925686f,      -0.057526354f,   0.14585286f,
    -0.853003f,      0.3680343f,      -0.14916426f,    0.13524614f,
    -0.11169913f,    0.86978984f,     0.13307375f,     0.16287537f,
    -0.006425193f,   0.14676112f,     -2.3489091f,     0.8756857f,
    -0.20259936f,    0.16589902f,     -0.5012086f,     5.3331738f,
    2.7984626f,      -0.9493607f,     0.033240914f,    0.4609847f,
    -1.6910734f,     -5.0659533f,     0.72995746f,     -0.51399076f,
    -0.065757565f,   -0.05140033f,    -0.11702281f,    0.074511275f,
    0.071474716f,    0.10055807f,     -0.0506172f,     0.044049654f,
    0.0014753543f,   -0.060616218f,   -0.03317927f,    0.17350663f,
    -0.041833654f,   -0.09485293f,    0.07951459f,     0.14834303f,
    -0.14340387f,    0.101668894f,    0.122225344f,    -0.2774673f,
    -0.08121955f,    0.14949931f,     -0.11217966f,    -0.1307467f,
    0.20548299f,     0.013154022f,    -0.013632002f,   0.011080129f,
    -0.023512319f,   0.0034349402f,   -0.024646418f,   0.047568355f,
    -0.025344204f,   -0.0053444174f,  0.0009639232f,   0.016193729f,
    -0.027206594f,   0.018514376f,    -0.016472122f,   0.011601346f,
    0.024698649f,    -0.029349223f,   0.0025446075f,   0.002941529f,
    0.004151751f,    -0.04827001f,    0.054990288f,    -0.024588568f,
    0.03452298f,     -0.009801387f,   -0.026963536f,   0.024885468f,
    0.0077325925f,   -0.12784983f,    -0.0004727017f,  0.0524453f,
    -0.0024653298f,  -0.16912785f,    0.39179403f,     0.068885565f,
    -0.11209827f,    1.1931618f,      0.04712435f,     -2.251133f,
    0.04459844f,     -0.20346907f,    1.195541f,       -0.2519252f,
    -1.2471386f,     -0.1414118f,     0.07511332f,     -0.23009096f,
    0.2610551f,      0.29286104f,     0.11769671f,     -0.023729652f,
    0.019181583f,    -0.028368853f,   -0.011860269f,   0.032248575f,
    0.05148718f,     -0.047919888f,   0.013449175f,    0.01674022f,
    -0.038879845f,   -0.049415056f,   0.045062315f,    -0.0224045f,
    0.0051458273f,   0.026753867f,    -0.020444315f,   -0.009118943f,
    0.037824873f,    -0.021686908f,   0.0063562766f,   -0.0038951882f,
    0.008729107f,    0.0036430436f,   0.026570326f,    -0.019414574f,
    0.047252927f,    0.24848075f,     0.049518216f,    -0.2768678f,
    0.009328891f,    -0.19252661f,    -0.3930677f,     -0.007572138f,
    0.11327027f,     0.09987962f,     0.18214096f,     2.3384292f,
    -0.545856f,      -0.8609355f,     -0.08785435f,    0.19772369f,
    1.0370896f,      -0.34821796f,    -1.0101713f,     -0.164299f,
    -0.06544462f,    -0.24169508f,    0.18837783f,     0.20615467f,
    0.046311665f,    0.21245573f,     -0.16856518f,    0.15108292f,
    -0.27393705f,    0.015365598f,    -0.3854066f,     1.1974015f,
    -0.8171824f,     0.38396147f,     0.057925183f,    -0.18901315f,
    -0.8586682f,     2.095654f,       -0.84733313f,    0.029171998f,
    0.25229037f,     -0.7818646f,     -1.3056161f,     1.2940466f,
    -0.134979f,      0.1756112f,      0.059034463f,    0.0018894798f,
    -0.4029903f,     0.1728906f,      -0.0034107924f,  -0.35439357f,
    0.19148839f,     0.03786663f,     -0.00047731365f, -0.019054921f,
    0.6592522f,      0.2706359f,      0.09047983f,     -0.026447074f,
    0.049455334f,    0.09238018f,     -0.0045684935f,  -0.368926f,
    -0.06521345f,    0.06581056f,     -0.22142394f,    -0.54163706f,
    0.26768303f,     -0.0740894f,     -0.03496943f,    -0.052972406f,
    0.10855165f,     -0.11435824f,    0.041386828f,    -0.102326035f,
    0.0018735762f,   0.07658435f,     -0.07127314f,    0.028028022f,
    0.116911955f,    -0.033302654f,   0.04568431f,     0.082488224f,
    -0.21965177f,    -0.07413175f,    -0.13298523f,    -0.04259496f,
    0.10826996f,     0.17827633f,     0.14145942f,     0.111332774f,
    -0.13057046f,    -0.006932171f,   0.027994003f,    -0.068751104f,
    0.0040345634f,   -0.0039512743f,  -0.08156678f,    -0.023819147f
};

static const long int espcn_conv1_kernel_dims[] = {
    64,
    5,
    5,
    1
};

static const float espcn_conv1_bias[] = {
    -0.018524863f,   -0.02344122f,    -0.059815478f,   -0.13828179f,
    -0.5407016f,     0.06077186f,     0.011967307f,    1.6737873e-05f,
    0.044080056f,    7.559907e-05f,   -0.0023202975f,  0.036452256f,
    -0.0011971687f,  0.037468974f,    0.5938281f,      -0.0019778858f,
    -0.0029633807f,  0.032908075f,    -0.082847565f,   0.5534438f,
    0.0010720869f,   0.008382872f,    -0.0005540301f,  0.007542251f,
    -0.00054567686f, 0.002956358f,    0.046740323f,    0.00097470934f,
    -0.0008472085f,  -0.44804764f,    0.38280413f,     0.030789707f,
    -0.722147f,      0.46606433f,     -0.03505152f,    -0.0014596627f,
    0.0030858433f,   0.0030317134f,   0.0025776294f,   0.0231461f,
    0.01756983f,     -0.07762163f,    0.0032662358f,   0.046537727f,
    -0.044725697f,   -0.002968841f,   0.0005652894f,   -0.0059821554f,
    0.6851272f,      -0.092141666f,   -0.29181793f,    0.00046312233f,
    -0.54941076f,    0.034235522f,    0.11732721f,     0.027588358f,
    0.0060634925f,   0.004350643f,    0.46479496f,     0.0037383304f,
    -0.2703324f,     0.026774203f,    0.017801644f,    0.04200875f
};

static const long int espcn_conv1_bias_dims[] = {
    64
};

static const float espcn_conv2_kernel[] = {
    -0.046674103f,   0.26428235f,     -0.46103826f,    0.52712137f,
    -0.33590984f,    -0.17109194f,    -0.0686052f,     -0.07092914f,
    -0.33207268f,    -0.022449905f,   -0.064986974f,   -0.32484075f,
    -0.0554371f,     -0.59975314f,    0.11422833f,     0.068143204f,
    -0.0018858669f,  0.3688631f,      0.041308302f,    -0.037440863f,
    -0.11112171f,    0.18021569f,     0.07213223f,     0.059388958f,
    0.09809465f,     -0.07924326f,    0.036813457f,    -0.25266457f,
    0.049585357f,    -0.325183f,      0.659209f,       0.08045369f,
    0.7181868f,      -0.25441548f,    0.05403617f,     -0.033545442f,
    -0.07890143f,    0.06283723f,     -0.0036670712f,  0.060813967f,
    0.49117467f,     0.08548931f,     0.1397057f,      0.23137523f,
    0.23626906f,     0.15435082f,     -0.0881616f,     -0.08931251f,
    0.6407793f,      -0.711827f,      -0.09148442f,    -0.010182393f,
    -0.22424959f,    0.22931574f,     -0.11653139f,    -0.035417557f,
    0.09172038f,     -0.06217888f,    -0.13925147f,    0.027134137f,
    -0.71670324f,    0.35419685f,     -0.12383344f,    0.16469592f,
    0.5541678f,      -0.34323946f,    -0.060989752f,   0.46205896f,
    -0.26838145f,    -1.1341122f,     -0.019517051f,   0.20830911f,
    0.4519294f,      -0.008591234f,   0.0035951894f,   -0.0696347f,
    0.04464795f,     0.16277248f,     -0.7174859f,     0.07877335f,
    -0.014362606f,   -0.24790181f,    -0.28197056f,    -0.7512798f,
    0.38359404f,     -0.18325178f,    -0.020694658f,   -0.24196818f,
    -0.13549626f,    0.11022808f,     -0.057731092f,   0.2660348f,
    -0.08914909f,    0.97424257f,     1.0067362f,      0.23840818f,
    1.3499018f,      -0.2948939f,     -0.18948932f,    0.084086366f,
    0.13916422f,     -0.053409252f,   0.034651592f,    0.6136519f,
    0.521036f,       0.053577263f,    -0.21486463f,    0.081501134f,
    -0.32000288f,    -0.17460087f,    0.09788475f,     0.24676149f,
    0.19157162f,     -0.40596998f,    0.45726103f,     0.050311435f,
    -0.6772082f,     -0.15382625f,    0.090584226f,    -0.17078221f,
    0.5261085f,      0.1265592f,      1.0355614f,      -0.11936747f,
    -0.7620874f,     0.14844258f,     0.6093218f,      -0.56291664f,
    0.037501205f,    0.12485749f,     0.14178781f,     0.08348596f,
    -0.30096284f,    1.1994859f,      0.19401193f,     -0.12891848f,
    0.17503682f,     0.020317312f,    0.06757912f,     0.7639953f,
    -0.01018983f,    0.47289777f,     0.5996521f,      -0.21656662f,
    0.03760899f,     -0.58895385f,    -0.56364167f,    -0.3800838f,
    -0.32080677f,    -0.016804136f,   -0.047808167f,   0.2457111f,
    0.048505846f,    -0.0066461437f,  0.19492339f,     -0.044978056f,
    0.03597572f,     0.973317f,       0.80091244f,     -0.19597733f,
    0.7849349f,      -0.4328205f,     0.54092515f,     -0.1000266f,
    -0.09305786f,    0.017513275f,    -0.043898217f,   -0.0011413264f,
    0.2741364f,      -0.24002706f,    0.10263537f,     -0.3157341f,
    -0.1817245f,     0.06316719f,     -0.045441207f,   -0.19999616f,
    0.59036136f,     -0.929242f,      -0.2259878f,     -0.115269065f,
    -0.6086586f,     -0.2443034f,     0.18262775f,     -0.09070053f,
    -0.68831503f,    -0.096460946f,   0.64405525f,     0.112335846f,
    0.0651215f,      0.99067503f,     0.27747253f,     0.37193787f,
    0.04985451f,     -0.23573603f,    0.421118f,       0.431377f,
    -0.20965208f,    0.26304242f,     0.2524355f,      0.027636467f,
    0.14990109f,     0.040952217f,    0.07939775f,     0.3484388f,
    0.025526477f,    -0.25410444f,    -0.14516917f,    -0.060723733f,
    0.02533456f,     -0.13899088f,    -0.771202f,      0.19927137f,
    -0.16109027f,    -0.0879771f,     -0.030220356f,   0.17516586f,
    -0.06494486f,    0.08522494f,     0.3226843f,      0.17873856f,
    0.015208139f,    -0.77031285f,    0.43173358f,     0.082899325f,
    -0.23150858f,    -0.3546863f,     0.12339482f,     0.040335365f,
    0.08092755f,     -0.037309915f,   0.05912349f,     0.26949504f,
    0.5846339f,      -1.9282948f,     -0.083857276f,   0.041776888f,
    0.5534651f,      -0.16246532f,    0.0333914f,      0.10689656f,
    -0.33218884f,    -0.191305f,      -0.110735744f,   -0.060104877f,
    0.4205079f,      -0.5120307f,     0.3012935f,      0.0059898547f,
    -0.5201543f,     0.07413049f,     -0.12935893f,    0.06917478f,
    1.1134965f,      -0.63113445f,    0.295582f,       -0.08106212f,
    -0.76212734f,    -0.0033916542f,  -0.0082135135f,  0.41783637f,
    -0.16403818f,    0.3409297f,      -0.23072788f,    -0.02182988f,
    0.15994272f,     -0.025851693f,   -0.086990654f,   0.36421558f,
    -0.022342218f,   -0.08575764f,    -0.17176214f,    -0.05879204f,
    7.2425564e-07f,  -0.7348249f,     -0.008461221f,   0.316571f,
    0.2553959f,      0.05026763f,     0.22897281f,     -0.12187772f,
    0.04273273f,     -0.11774693f,    -0.31411144f,    -0.23734225f,
    0.023199726f,    -0.71966887f,    0.390865f,       -0.26477832f,
    -0.26728633f,    0.22609584f,     0.14667323f,     -0.15086149f,
    -0.15804252f,    0.007859211f,    -0.071217954f,   -0.2024186f,
    -0.17261346f,    1.1517165f,      0.16905463f,     0.527085f,
    -0.79107165f,    0.20309469f,     -0.027971271f,   0.028042238f,
    -0.37720725f,    1.1990021f,      0.2861834f,      0.027881658f,
    -0.07594778f,    -0.755004f,      0.37583643f,     0.20889725f,
    0.40248895f,     -0.15868257f,    -0.29324895f,    0.0073413285f,
    -0.03221651f,    0.04222086f,     -0.56599194f,    0.1316574f,
    0.32267398f,     -0.30811018f,    0.009511509f,    0.37700927f,
    -0.1761917f,     -0.65478015f,    -0.031077266f,   -0.0012360336f,
    -1.4888004f,     0.0027788912f,   0.014060073f,    -0.10431362f,
    0.008857338f,    0.12252177f,     0.12191871f,     0.13308547f,
    -0.031593915f,   -0.21598554f,    0.44040915f,     0.6425841f,
    -0.08555652f,    0.0565315f,      -0.2560663f,     -0.059711326f,
    -0.026588634f,   -0.002182128f,   -0.5897357f,     0.102076136f,
    -0.03339101f,    -0.79707164f,    0.25357902f,     0.029758122f,
    -0.20302856f,    0.053880017f,    -0.24216141f,    0.14256707f,
    0.11925629f,     0.0009726241f,   0.020042723f,    -0.22397634f,
    0.60491306f,     -0.0799372f,     -0.1188527f,     0.15720364f,
    -0.10922401f,    -0.10785788f,    0.023474775f,    -0.07532779f,
    0.11522492f,     -0.014375704f,   -0.09244887f,    0.10161737f,
    0.7234623f,      0.08744806f,     0.03538458f,     0.2193847f,
    0.19487795f,     0.10907811f,     -0.32664987f,    -0.09264603f,
    -0.17754139f,    -0.26980463f,    -0.10870375f,    -0.08479278f,
    -0.49118847f,    0.120683394f,    0.7132835f,      0.45244792f,
    0.21157178f,     -1.3531632f,     -0.02591179f,    0.008506874f,
    1.0093842f,      0.02687048f,     -0.0182936f,     -0.05349838f,
    0.025951784f,    0.525051f,       0.18124938f,     0.055352695f,
    -0.015539851f,   0.01359462f,     0.1669847f,      -0.329349f,
    0.42093417f,     -0.06888676f,    -0.14403322f,    -0.07013914f,
    -0.045789f,      0.0077280467f,   0.20861097f,     0.034761835f,
    -0.06872854f,    0.27268225f,     -0.1248414f,     -0.0984672f,
    0.024131464f,    0.2819358f,      -0.52894294f,    -0.048365857f,
    -0.018785186f,   -0.014475937f,   -0.063025676f,   -0.0016713755f,
    0.44439432f,     0.5860615f,      0.0017755321f,   0.071490906f,
    0.01665473f,     0.01043939f,     -0.0049000867f,  -0.19566949f,
    0.25060382f,     -0.1115756f,     0.008380983f,    -0.051830936f,
    0.078110285f,    -0.35945877f,    -0.11642675f,    0.001180824f,
    0.0578475f,      -0.020864224f,   0.16781266f,     -0.0017521876f,
    -0.62528956f,    0.1562274f,      -0.46741173f,    0.012773457f,
    -0.42958456f,    0.35419467f,     0.7802642f,      0.7651227f,
    0.15311906f,     1.5961279f,      0.110667616f,    -0.072065115f,
    0.7206966f,      -0.04193095f,    0.0711928f,      -0.0019790665f,
    -0.023330979f,   -0.6372553f,     0.4749518f,      -0.007703528f,
    -0.0118237855f,  0.39432898f,     0.19798014f,     -0.037313983f,
    -0.39190286f,    0.069940664f,    -0.11332594f,    0.25451034f,
    0.10828647f,     -0.036833063f,   -0.20823239f,    -0.0051089395f,
    0.10366354f,     -0.27613324f,    -0.08230586f,    0.30575338f,
    -0.058297206f,   0.09497224f,     -0.2009728f,     0.14842197f,
    0.08278775f,     0.051755365f,    0.106069684f,    -0.30312496f,
    -0.6279082f,     0.67748356f,     -0.04157887f,    0.05925659f,
    0.6019529f,      -0.048674017f,   0.023168415f,    -0.0117832f,
    0.10957296f,     -0.55471784f,    0.3902961f,      0.004402121f,
    -0.26879898f,    -0.1613903f,     -0.0736826f,     0.05158686f,
    -0.40968376f,    0.062633745f,    0.1909543f,      0.051297225f,
    -0.5385568f,     0.20263128f,     -0.24177232f,    0.12465008f,
    0.9497351f,      0.0942599f,      -0.37810448f,    0.42079917f,
    0.27641112f,     -0.13552265f,    -0.15447186f,    0.05729938f,
    -0.9949809f,     -0.011660784f,   -0.080264896f,   0.21001951f,
    0.009583477f,    0.26658905f,     0.110737085f,    -0.010538512f,
    0.0073930826f,   -0.10350395f,    0.2690889f,      -0.06732192f,
    -0.06597211f,    -0.0026426371f,  0.32086986f,     -0.23931707f,
    -0.024190666f,   0.033044633f,    0.017585613f,    -0.047808494f,
    -0.02701819f,    0.66567475f,     -0.15553795f,    -0.16383912f,
    0.11520975f,     -0.25181836f,    0.13908514f,     -0.09092483f,
    -0.073647134f,   -0.020011587f,   -0.03323974f,    0.36156735f,
    0.19554496f,     -0.2779971f,     0.05498606f,     0.09546568f,
    -0.102127574f,   0.07539362f,     -0.027212327f,   0.2002329f,
    0.07217274f,     -0.31443796f,    -0.1112432f,     0.044234317f,
    0.010144093f,    0.04564201f,     -0.24525721f,    -0.10580795f,
    0.32514638f,     -0.035346646f,   0.2633613f,      -0.057136223f,
    0.32189956f,     -0.7063134f,     0.2205946f,      -0.121362925f,
    -0.11235741f,    0.093478404f,    0.3236306f,      -0.15380429f,
    -0.11459577f,    0.24943016f,     0.06301527f,     0.07359773f,
    -0.30425563f,    -0.009721266f,   0.011319024f,    -0.05684832f,
    0.002824362f,    0.014445753f,    0.28266156f,     -0.026186015f,
    -4.9471604e-05f, -0.038714428f,   -0.08657151f,    0.09283593f,
    0.200015f,       -0.08817101f,    0.07703519f,     0.0026806525f,
    0.010412304f,    -0.054159623f,   -0.0775633f,     0.042284265f,
    0.0073298747f,   0.21470556f,     0.05467484f,     0.019926656f,
    -0.047757216f,   0.1965818f,      -0.060126822f,   -0.018734982f,
    0.003734466f,    0.010669374f,    0.0101004215f,   -0.079241745f,
    -0.122091696f,   0.46603644f,     -0.002449234f,   -0.0029658272f,
    0.2260892f,      -0.0968824f,     0.027408192f,    -0.008983596f,
    0.41098675f,     -0.09793973f,    0.07739444f,     0.062839866f,
    0.2109761f,      -0.13808833f,    0.014332022f,    0.13062069f,
    0.14733574f,     0.026309716f,    -0.25325757f,    0.025179707f,
    0.18055823f,     -0.21977347f,    0.28260782f,     0.12728982f,
    -0.4268119f,     0.16071615f,     0.49010542f,     0.39210045f,
    -0.23921739f,    -0.34988824f,    0.020909507f,    -0.031102689f,
    0.39786085f,     0.04060349f,     -0.012260492f,   0.07701521f,
    0.0032373392f,   -0.3211925f,     -0.3098456f,     0.110261254f,
    0.02880115f,     0.023276372f,    -0.23179927f,    -0.09671852f,
    -0.17803997f,    0.16418648f,     0.009986631f,    0.028437436f,
    -0.0696619f,     0.070268594f,    -0.23809299f,    -0.1210799f,
    -0.06263444f,    0.1687488f,      -0.1022174f,     0.16335264f,
    -0.14669034f,    0.22479394f,     0.039738588f,    0.0025826024f,
    -0.034533355f,   -0.006438025f,   0.07587747f,     0.03283625f,
    -0.065498665f,   0.26191965f,     0.006896614f,    0.014701348f,
    0.019605692f,    0.12325369f,     -0.11641243f,    -0.0036758208f,
    -0.25055993f,    0.010461836f,    -0.14595032f,    -0.058902275f,
    -0.16618772f,    0.44314942f,     -0.101349875f,   -0.016435022f,
    -0.021817617f,   -0.06827429f,    -0.006538524f,   -0.015117204f,
    0.10537151f,     0.14787868f,     0.51321185f,     -0.26809156f,
    0.018769728f,    0.04534671f,     0.09445704f,     0.34622777f,
    -0.06110584f,    -0.036286496f,   -0.20022584f,    0.008659418f,
    0.3038453f,      -0.03234285f,    0.01122692f,     -0.054838225f,
    -0.017392907f,   0.016833223f,    0.49745992f,     -0.06170047f,
    -0.04826097f,    -0.0050241635f,  -0.57363427f,    -0.1872473f,
    0.17139418f,     0.03429791f,     -0.024473784f,   -0.10805081f,
    0.028670384f,    -0.073548235f,   -0.06016784f,    -0.0066841184f,
    0.05512082f,     -0.6844955f,     -0.21495752f,    -0.3565604f,
    -0.6392911f,     0.26932484f,     0.19190924f,     0.022291541f,
    0.04126848f,     -0.0017807592f,  -0.036653258f,   0.057726976f,
    0.17616573f,     -0.72685295f,    -0.0030662578f,  -0.04362823f,
    0.28530198f,     -0.06680635f,    0.098419f,       0.015014377f,
    -0.13731647f,    0.14593858f,     -0.16181391f,    0.13406125f,
    0.61669034f,     0.09283103f,     -0.07495512f,    -0.38249707f,
    0.007854118f,    0.072650045f,    -0.49352726f,    -0.034318488f,
    0.48840395f,     -0.5911552f,     0.27560255f,     -0.00076505897f,
    0.2525632f,      0.023079759f,    -0.13862175f,    -0.0050264117f,
    -0.21578434f,    -0.39153072f,    0.007889652f,    0.04991312f,
    0.124499984f,    0.02582332f,     -0.013385625f,   0.07202608f,
    0.018049205f,    0.21069467f,     0.17125195f,     -0.013168845f,
    0.015675973f,    -0.3299053f,     0.18481588f,     0.09117244f,
    0.13362707f,     -0.03578448f,    -0.11294014f,    0.06735854f,
    -0.04726264f,    0.18058431f,     0.013282449f,    0.10362096f,
    -0.008768287f,   0.01906196f,     -0.09233572f,    0.0027316224f,
    -0.32418412f,    -0.68946844f,    0.1328566f,      0.083345614f,
    0.07215056f,     -0.056430474f,   -0.030177787f,   0.025497515f,
    -0.3069073f,     -0.39930156f,    -0.042785905f,   0.025616985f,
    0.29878968f,     0.033854682f,    -0.013890017f,   0.00052144343f,
    0.3604786f,      -0.13097762f,    0.04974513f,     -0.1508374f,
    -0.6819763f,     -0.3551178f,     -0.16612557f,    0.101316705f,
    -0.62778705f,    -0.022399968f,   -0.43390587f,    -0.014289895f,
    0.42192006f,     0.35321176f,     -0.2627384f,     -0.13136947f,
    -0.1605258f,     0.005829208f,    -0.3298086f,     -0.31155488f,
    0.12568021f,     0.2695432f,      -0.09579615f,    -0.07985796f,
    0.4477858f,      -0.05365754f,    0.03691468f,     0.14316183f,
    -0.0390769f,     0.3263752f,      -0.57568514f,    -0.16314152f,
    -0.05244232f,    -0.21125014f,    0.1894712f,      -0.03354973f,
    -0.72243994f,    -0.16907904f,    0.09877965f,     -0.019296408f,
    0.1657333f,      -0.20240118f,    -0.042492058f,   -0.16696197f,
    0.0933027f,      -0.081449956f,   -0.16955544f,    -0.12059676f,
    -0.32353896f,    -0.14886564f,    0.10017824f,     -0.06872203f,
    -0.0687338f,     0.06287452f,     -0.03823187f,    -0.13179168f,
    -0.02977857f,    -0.7214259f,     0.04764241f,     -0.16904181f,
    0.22611506f,     -0.07867074f,    0.11607085f,     0.25687262f,
    -0.158813f,      0.2170912f,      0.022958746f,    0.12211839f,
    -0.38955256f,    -0.16881509f,    -0.6662008f,     -0.07782999f,
    0.63337785f,     0.084912784f,    -0.1898102f,     -0.016330302f,
    -0.0057496307f,  -0.22735956f,    0.15386534f,     0.15679047f,
    0.43130034f,     -0.0499025f,     -0.11292001f,    -0.104975134f,
    0.1517253f,      0.3488109f,      0.0832407f,      0.01959845f,
    -0.36043146f,    0.013733767f,    -0.048483185f,   -0.077942096f,
    0.018922301f,    -0.055467468f,   -0.17980838f,    0.15051974f,
    0.03501007f,     0.024140948f,    0.378899f,       0.58339345f,
    0.3902328f,      0.13922966f,     0.08787596f,     -0.0680227f,
    -0.07662555f,    0.062245425f,    -0.24619436f,    0.06520207f,
    -0.059733838f,   0.18075316f,     -0.4185296f,     0.18009084f,
    -0.61645687f,    -0.120788425f,   0.19870868f,     -0.025232071f,
    -0.018999962f,   0.019278869f,    0.07256909f,     -0.07902122f,
    -0.7232183f,     0.9824709f,      0.023246713f,    -0.075314395f,
    -0.1722031f,     0.10662969f,     -0.10377831f,    -0.19552313f,
    -0.0019716343f,  -0.33209836f,    0.22475685f,     -0.030774042f,
    0.24270383f,     -0.20828041f,    -0.11887029f,    -0.068650484f,
    -0.21299605f,    -0.067906f,      -0.6986742f,     0.032572027f,
    0.11754704f,     0.27241483f,     -0.21527997f,    0.2525498f,
    0.0735313f,      0.07372777f,     -0.05048918f,    -0.31742972f,
    -0.03269987f,    -0.13490497f,    -0.03511707f,    -0.003701831f,
    0.024309402f,    -0.03652601f,    -0.019658307f,   0.064287804f,
    -0.044906896f,   0.18838996f,     0.5800624f,      0.0489327f,
    -0.013741884f,   -0.1463824f,     0.41280955f,     -0.39657968f,
    -0.22094302f,    0.021620726f,    0.06754212f,     0.01914351f,
    0.057791635f,    -0.08462072f,    0.10943695f,     -0.15771161f,
    0.020891378f,    -0.14356568f,    0.07099027f,     0.0072890325f,
    0.30583042f,     -0.054003328f,   -0.20160842f,    -0.05109723f,
    -0.073696665f,   0.07079835f,     0.050535556f,    -0.1386965f,
    0.13956863f,     -0.033268258f,   0.051163133f,    -0.3299929f,
    0.14722784f,     0.04479772f,     -0.034851987f,   0.09152712f,
    -0.013576469f,   0.08212124f,     0.04366362f,     0.052677043f,
    0.12854135f,     -0.20400403f,    0.13585025f,     0.021291919f,
    0.6106778f,      0.03280244f,     0.6618558f,      0.010743958f,
    -0.47789448f,    -0.23268737f,    0.29747304f,     -0.0043874676f,
    0.030395813f,    -0.01416444f,    -0.11479771f,    -0.14839633f,
    0.1327711f,      0.39874923f,     0.07290827f,     0.08768036f,
    0.19624479f,     0.028556399f,    0.008063483f,    -0.039568193f,
    0.047924913f,    -0.41591546f,    -0.5199549f,     0.012532293f,
    0.0031062674f,   0.041904118f,    0.14968546f,     -0.2954595f,
    0.5711544f,      -0.018007848f,   -0.1187696f,     0.006382767f,
    -0.07623751f,    0.11004023f,     -0.29377073f,    0.2967224f,
    -0.0042043244f,  0.49871373f,     -0.11996741f,    -0.04853217f,
    0.2742492f,      -0.18625423f,    0.10374811f,     0.10584355f,
    0.11635925f,     -0.09287576f,    -0.083618164f,   -0.27217832f,
    -0.37832612f,    0.96235126f,     -0.07846141f,    0.07666849f,
    -0.7282468f,     -0.049017057f,   0.015335578f,    -0.1913724f,
    -0.8404892f,     0.35348907f,     0.0007533626f,   -0.03490046f,
    -0.12864292f,    -0.23313756f,    0.014800447f,    0.07538264f,
    -0.4744575f,     0.0019865024f,   0.011663446f,    0.029772537f,
    -0.2382581f,     0.057398744f,    -0.29506052f,    0.06907142f,
    -0.029674232f,   -0.20632058f,    0.08927787f,     -0.4543019f,
    0.07989503f,     -0.46033293f,    0.073787555f,    -0.12172886f,
    -0.7607957f,     0.02232548f,     0.0105672935f,   0.0673091f,
    -0.00069879065f, 0.047686838f,    -0.019173758f,   -0.03846056f,
    0.024762023f,    -0.10737568f,    0.09315246f,     -0.9336785f,
    -0.18223964f,    -0.033037316f,   -0.09616871f,    0.09074901f,
    0.01160752f,     0.00023968855f,  0.23658048f,     -0.03555241f,
    -0.036499016f,   0.9244435f,      -0.30398262f,    0.20839591f,
    0.5949766f,      0.29482245f,     0.25750014f,     -0.053599373f,
    -0.03293568f,    -0.0057265395f,  -0.026553756f,   -0.27830595f,
    0.17080984f,     -0.8018825f,     0.01221246f,     -0.2835773f,
    -0.09898585f,    -0.0070701726f,  -0.008414906f,   0.08213352f,
    -0.19505978f,    0.5015525f,      0.80230016f,     -0.08646765f,
    0.63567483f,     -1.0642571f,     0.5182278f,      -0.096828446f,
    -0.05344551f,    -0.056020953f,   -0.05707235f,    -0.018617336f,
    -0.5230437f,     0.34005353f,     -0.4557868f,     -0.14439894f,
    0.38480377f,     -1.3235939f,     1.8052317f,      -0.72057134f,
    0.9126798f,      0.3676458f,      -0.0080114575f,  -0.11595554f,
    -0.103040844f,   0.035603534f,    -0.015758205f,   0.07999699f,
    -0.006971836f,   1.6570647f,      0.2554021f,      -0.21877348f,
    0.0020116605f,   0.11209725f,     0.8904091f,      -1.1218871f,
    1.4163808f,      0.14892934f,     0.006312167f,    -0.065382436f,
    0.023434175f,    0.043887693f,    -0.43947184f,    -0.066447034f,
    -0.05484326f,    0.0056940434f,   0.32978708f,     -0.22046088f,
    -0.9243625f,     -0.26284355f,    -0.4704563f,     0.11848836f,
    0.048912488f,    -0.010977471f,   0.07930389f,     -0.04216015f,
    0.4962294f,      -0.42514783f,    -0.034328513f,   0.28654203f,
    -0.061215926f,   0.15865158f,     -0.05742608f,    -0.35354927f,
    0.5760551f,      -0.32362577f,    -0.7639785f,     -0.24093197f,
    0.8416991f,      0.8121987f,      -0.51095843f,    0.23165523f,
    0.07161821f,     0.02869675f,     0.8572826f,      0.030069608f,
    -0.04059496f,    0.121984705f,    -0.8305223f,     0.19240989f,
    -0.9800724f,     1.2104095f,      -2.3459392f,     0.821266f,
    0.8199659f,      1.1952082f,      -0.11307323f,    0.15900673f,
    0.37324476f,     -0.00901551f,    -0.0063961255f,  0.3436898f,
    -0.019784855f,   -1.5781275f,     0.55635923f,     -0.088165246f,
    -0.089846924f,   0.48113683f,     -1.2748227f,     -0.30893058f,
    -1.0148634f,     0.144896f,       0.33884206f,     -0.055583563f,
    -0.04183638f,    -0.22956437f,    0.5929827f,      -0.17173627f,
    0.08415828f,     0.08928949f,     -1.3766861f,     -0.66887f,
    -0.33084556f,    0.015637277f,    0.17392366f,     -0.124815434f,
    -0.034929127f,   0.08000754f,     0.06421893f,     -0.2598851f,
    -0.13899769f,    0.13867772f,     0.04168338f,     0.49056658f,
    1.0300015f,      -0.030438267f,   0.11001292f,     0.62731254f,
    0.05973872f,     0.979931f,       -0.8919011f,     0.28131783f,
    -0.09346065f,    -0.5158018f,     0.22534059f,     0.53414f,
    -1.30939f,       -0.010872453f,   -0.61851317f,    -0.04308007f,
    0.30164596f,     -0.28872985f,    0.6384374f,      -0.05910474f,
    0.5832805f,      -0.7048056f,     0.33323365f,     -1.1084536f,
    0.70449936f,     -1.8504816f,     0.008978661f,    -0.19915931f,
    -0.9858322f,     0.10512383f,     -0.025395656f,   1.3993329f,
    -0.028837258f,   1.8859462f,      -0.28787547f,    0.14018701f,
    0.030354962f,    -0.011389586f,   0.48661262f,     -0.69561386f,
    1.3474137f,      -0.16131014f,    -0.2688697f,     -0.28446344f,
    -0.09610444f,    0.1720655f,      0.27081022f,     0.22686748f,
    -0.18199518f,    0.661283f,       0.91053754f,     0.30152312f,
    0.02319523f,     -0.4257972f,     0.37422857f,     0.039165173f,
    0.04694271f,     -0.20457137f,    -0.17133068f,    0.048189476f,
    0.43752974f,     -1.027162f,      -0.086497605f,   -0.010030861f,
    -0.38085717f,    -0.030893505f,   0.0038837674f,   -0.32170814f,
    0.20521568f,     -0.6564224f,     -0.456026f,      -0.20190556f,
    -0.45532295f,    1.0338401f,      0.17268077f,     -0.018443432f,
    0.47271976f,     -0.0029546216f,  0.2591139f,      -0.027547639f,
    -0.34917423f,    0.7324974f,      -1.4116933f,     0.26277366f,
    0.003953574f,    -0.08849687f,    0.5799557f,      0.02265028f,
    0.9956517f,      0.20597336f,     0.0243701f,      -0.065926135f,
    -0.26063347f,    0.005145106f,    -0.040647544f,   -0.5246113f,
    -0.032949716f,   -0.3842233f,     0.2490879f,      -0.12214436f,
    0.00092013256f,  0.05368562f,     0.4980927f,      -0.3821752f,
    -0.9746551f,     -0.09184542f,    -0.02170654f,    -0.25944722f,
    -0.07797552f,    -0.1731825f,     -1.1407802f,     -0.06579885f,
    0.048637766f,    -0.10273871f,    0.7226834f,      0.1051687f,
    -0.675876f,      -0.23160712f,    0.13932365f,     -0.3109556f,
    -0.16254301f,    0.004054364f,    -0.101571485f,   0.34141943f,
    0.5158648f,      -0.18641707f,    0.1514879f,      -0.54648817f,
    -0.46785563f,    -0.048889644f,   0.03416854f,     0.11833223f,
    0.4963859f,      -0.033280317f,   -0.5098967f,     0.3247369f,
    -0.059735235f,   0.95467275f,     1.1799345f,      0.08239173f,
    0.37549368f,     -0.10384936f,    -0.19131805f,    -0.05227246f,
    0.93128794f,     0.1769598f,      0.26859936f,     0.04983612f,
    0.19740231f,     0.29193434f,     0.31630036f,     0.4617379f,
    0.900637f,       -0.500469f,      -0.07832846f,    -0.16936824f,
    0.48466104f,     -0.041119654f,   -0.08462446f,    -0.68950397f,
    0.04631842f,     0.54778326f,     0.1338306f,      0.4341834f,
    0.14371982f,     -0.34779876f,    -0.24549949f,    -0.89762527f,
    0.38836622f,     -0.10706622f,    -0.1931988f,     -0.11792283f,
    0.0035790345f,   0.33384633f,     1.3935994f,      0.3070505f,
    -0.16708173f,    -0.20717686f,    -1.1201156f,     0.7722406f,
    -0.08369808f,    0.24140514f,     -0.8074505f,     0.21041206f,
    0.07052478f,     -0.0992914f,     -0.08230787f,    -0.20418759f,
    -0.14002877f,    0.51368827f,     -0.06314002f,    0.6684959f,
    -0.2723895f,     0.072143145f,    -0.121543154f,   -0.9446662f,
    0.7801356f,      0.7813523f,      -0.60231173f,    -0.041328736f,
    0.5023119f,      0.19410098f,     -0.17512462f,    -0.03537046f,
    0.13634318f,     0.023312362f,    0.3242475f,      -0.0042878226f,
    -0.33574507f,    0.16946486f,     0.4183852f,      0.51513636f,
    0.14975318f,     -1.3054739f,     -0.746688f,      -0.8801606f,
    0.5497791f,      0.048051637f,    0.3759283f,      0.31506863f,
    0.2502755f,      -0.054758083f,   0.10454956f,     0.1691291f,
    0.042567298f,    -1.5660353f,     -0.31068772f,    -0.28079906f,
    -0.024366086f,   0.28031284f,     -1.0634004f,     0.2108564f,
    -0.41109252f,    0.06184334f,     0.38427737f,     0.44320226f,
    0.03957711f,     0.004129623f,    -0.31172767f,    -0.15918258f,
    0.1326007f,      0.44373193f,     0.78900695f,     -0.1760957f,
    -0.16458939f,    0.48684084f,     0.24407406f,     -0.30311462f,
    -0.16764544f,    0.26463488f,     0.30706203f,     0.22452609f,
    0.03442557f,     -0.19601104f,    0.0807709f,      0.33969784f,
    0.37965566f,     -0.07889159f,    0.039907616f,    1.0991075f,
    -0.4089549f,     -0.31498322f,    0.16044329f,     0.15731367f,
    -0.7579591f,     0.6460394f,      0.0046346104f,   0.0472538f,
    -0.52719986f,    -0.07572972f,    0.66765577f,     0.094688304f,
    0.22829652f,     0.02697642f,     1.3646461f,      -1.0294485f,
    0.32645002f,     0.985207f,       -0.48907226f,    0.24017715f,
    0.7846768f,      -0.3893203f,     0.041490614f,    0.17593683f,
    0.22703595f,     -0.023705255f,   0.052981924f,    -0.28682443f,
    0.05020945f,     -0.37853613f,    -0.036045365f,   0.20786847f,
    0.034319263f,    0.058425084f,    0.17980011f,     1.0989101f,
    -0.36878836f,    -0.058031064f,   0.01689887f,     0.35156643f,
    0.054320306f,    0.12823732f,     -0.7314487f,     0.12663695f,
    -0.008609773f,   -0.28736416f,    0.8887259f,      0.22080967f,
    -0.49281853f,    -0.71532553f,    0.3902669f,      0.16677961f,
    0.11729585f,     -0.005339085f,   0.015549244f,    -0.7530055f,
    -0.18213952f,    0.86832607f,     -0.10606119f,    -1.0991435f,
    0.24169695f,     -0.09348218f,    0.011970132f,    -0.1062844f,
    -0.60076994f,    0.14488591f,     -0.37456793f,    -0.1606147f,
    -0.522324f,      0.18760403f,     0.27903914f,     -0.4969156f,
    -0.352278f,      0.04724763f,     -1.2687259f,     0.025117675f,
    1.1559798f,      -0.87893057f,    0.087309524f,    -0.08584089f,
    -0.020828197f,   -0.045017093f,   1.212271f,       0.45598748f,
    0.89593214f,     0.42855322f,     -0.05613323f,    -0.09234977f,
    -0.11786892f,    0.059708573f,    0.097749226f,    -0.13230008f,
    -0.052386533f,   0.4205756f,      -0.6480817f,     -0.2275672f,
    -0.08140867f,    -0.31374398f,    0.3735192f,      -0.62694097f,
    0.73815274f,     0.08312054f,     -0.0924495f,     0.021514803f,
    0.053884946f,    -0.10900521f,    -0.41072857f,    -0.21020694f,
    0.041961685f,    0.06188188f,     -0.5475027f,     -0.3411637f,
    -0.39764288f,    0.5900751f,      0.37223083f,     -0.1108904f,
    -0.07866411f,    0.008883312f,    -0.012757348f,   0.2694886f,
    0.6689537f,      -0.3504275f,     0.03389823f,     0.031843357f,
    -0.5419896f,     0.022275751f,    0.009060438f,    0.3633925f,
    -0.43923414f,    0.7864955f,      -0.118183985f,   -0.15515181f,
    0.21635044f,     0.49661508f,     -0.4722201f,     0.5163968f,
    0.9700302f,      -0.044228435f,   0.6457148f,      0.0017951588f,
    -0.49664235f,    0.050343726f,    -0.19076023f,    -0.30561933f,
    -0.23653527f,    0.45331326f,     -0.41963464f,    -1.1247996f,
    0.22692493f,     0.59337515f,     -0.2237175f,     -0.01918548f,
    -0.44020566f,    -0.027704136f,   -0.04253981f,    -0.3823013f,
    -0.02502749f,    -0.46320587f,    0.16625318f,     0.15970246f,
    -0.007429975f,   -0.1683428f,     0.76946366f,     -1.2303258f,
    -0.95331824f,    0.052714635f,    -0.17677064f,    -0.09253482f,
    0.021721262f,    -0.15922648f,    1.1512754f,      0.0031821122f,
    0.030584762f,    0.21514477f,     -0.4230814f,     -0.00014326212f,
    0.1688291f,      -0.5380872f,     -0.15794986f,    0.28297946f,
    0.13241048f,     -0.075477324f,   -0.11189966f,    -0.49272132f,
    -0.20409596f,    0.6171119f,      -0.01777885f,    0.028663076f,
    0.30929625f,     0.025719853f,    -0.03694918f,    -0.56768686f,
    0.1775044f,      -0.2769967f,     -0.5732568f,     0.07951842f,
    0.06743672f,     -0.013239328f,   0.9011393f,      -0.18373159f,
    0.11558731f,     0.123553514f,    0.0044899555f,   -0.013636768f,
    0.23078315f,     0.34557414f,     -0.7334669f,     0.5137294f,
    0.011534466f,    -0.21156578f,    0.7697923f,      0.15463492f,
    -0.5901611f,     0.028582644f,    0.017852113f,    -0.07857407f,
    -0.4777054f,     0.06458535f,     0.06914719f,     -0.06420497f,
    0.046576172f,    0.73274297f,     -0.5026898f,     0.13529554f,
    -0.00941928f,    0.25313148f,     -0.37075043f,    -0.2733768f,
    0.065498896f,    0.038754348f,    -0.015358937f,   0.094372556f,
    -0.08542737f,    0.06419397f,     0.20445304f,     0.18457255f,
    -0.07349663f,    0.23186208f,     -0.17375587f,    0.1813076f,
    1.2848791f,      0.9271832f,      0.39130297f,     0.0104423165f,
    0.031900086f,    -0.10575629f,    -0.071113825f,   -0.2813745f,
    -0.63900816f,    -0.3010183f,     -0.078159384f,   -0.3896904f,
    0.3688795f,      -0.119128644f,   0.077123255f,    -0.047321837f,
    -0.7008967f,     0.17933623f,     0.11333183f,     0.011499413f,
    0.607434f,       0.69931144f,     0.17165236f,     -0.1361541f,
    0.5183956f,      -0.008188635f,   0.24646443f,     -0.008420727f,
    -0.71537113f,    -0.74191815f,    0.43494743f,     0.5137038f,
    -0.1907198f,     0.109988324f,    -0.3980153f,     -0.44217053f,
    -0.39546895f,    0.3968704f,      0.014194501f,    0.0490976f,
    -0.10890121f,    -0.047488034f,   -0.08533077f,    -0.38523468f,
    -0.063952215f,   -0.36171728f,    1.3895638f,      -0.18317534f,
    0.004864246f,    -0.10929064f,    -0.09027185f,    0.6888102f,
    -0.644277f,      0.08041566f,     -0.076905385f,   0.05812857f,
    0.07392323f,     -0.12644598f,    0.026674818f,    -0.18673258f,
    0.09689631f,     -0.2628735f,     -0.25706333f,    -0.39390376f,
    -0.4951419f,     -0.94046056f,    0.017409422f,    -0.099073075f,
    -0.11927845f,    0.14758973f,     0.062230386f,    -0.8272258f,
    -0.85650516f,    -0.5034178f,     0.14160982f,     -0.35882106f,
    -0.12686756f,    0.0969981f,      -0.17357199f,    -0.1016007f,
    -0.30692658f,    0.73137844f,     0.51190776f,     0.094313726f,
    0.68952423f,     -0.33750173f,    0.4584838f,      0.00045639463f,
    -0.22498818f,    -0.03972586f,    -0.30972204f,    0.06765716f,
    1.0040592f,      1.2720892f,      -0.12680252f,    -0.16533485f,
    -0.9031853f,     0.025274767f,    0.4374573f,      -0.0017714903f,
    0.27475032f,     -0.30898345f,    -0.17943485f,    -0.093494624f,
    0.33200723f,     -0.003868301f,   0.006973397f,    -0.46648303f,
    0.060371667f,    -0.37320092f,    0.15722525f,     0.2487535f,
    0.0042585013f,   0.31561005f,     -0.1151895f,     -0.5503925f,
    0.62729096f,     -0.019816924f,   0.14519577f,     -0.23005262f,
    0.0049698725f,   0.13356787f,     0.07876236f,     0.11001108f,
    -0.028032063f,   -1.3307017f,     -0.06598647f,    0.2910977f,
    -0.008249967f,   -0.09258802f,    -0.61329556f,    0.13149554f,
    0.087250404f,    -0.07198767f,    -0.0064592697f,  -0.0738384f,
    0.19079113f,     -1.068451f,      -0.09496136f,    -0.000341748f,
    0.90756285f,     -0.008928536f,   0.12384436f,     0.22698209f,
    0.4866184f,      0.041644946f,    -0.15970235f,    0.02174098f,
    0.4970642f,      -0.24010655f,    -0.26073715f,    1.0649153f,
    -0.46890327f,    0.053935613f,    -0.79150695f,    -0.055312715f,
    -0.17689951f,    0.28245515f,     -0.054626778f,   -0.06193034f,
    -0.0028709057f,  -0.036895722f,   -0.57166326f,    0.38450122f,
    -0.099760406f,   -0.06808836f,    0.20637059f,     0.014000514f,
    -0.21060416f,    -0.026943302f,   -0.008706633f,   0.16452776f,
    0.008026457f,    -0.29122934f,    0.8303414f,      -0.12333763f,
    0.009050507f,    0.70525366f,     0.62096506f,     0.4900359f,
    0.9831365f,      -0.05575002f,    -0.06924361f,    0.095837f,
    0.06918361f,     -0.008072401f,   -0.10670196f,    -0.01943345f,
    -0.0072479197f,  -0.29566485f,    0.12579326f,     -0.14184883f,
    -1.0289804f,     -0.70995533f,    -0.15975907f,    -0.029099256f,
    -0.03375278f,    0.061063007f,    0.020239409f,    -0.823185f,
    -0.48817238f,    0.95726126f,     0.05110191f,     0.9522512f,
    -0.39398512f,    0.07514176f,     -0.02450375f,    0.16414882f,
    -0.3778163f,     -0.14328916f,    -0.23608033f,    -0.098305546f,
    -1.2154307f,     0.03519007f,     -0.06572301f,    0.0031483087f,
    -0.32979482f,    -0.023844222f,   -0.25152838f,    0.06280502f,
    -0.5603487f,     0.22348763f,     -0.22049682f,    -0.5489126f,
    0.050499804f,    -0.22933632f,    1.2048659f,      0.085301846f,
    0.53779286f,     -0.04541708f,    -0.42714235f,    -0.114994355f,
    0.077430025f,    0.0019177721f,   -0.022488091f,   0.4067963f,
    0.025118781f,    -0.37767127f,    -0.5273275f,     0.3877572f,
    -0.08213132f,    1.6665092f,      -0.3122936f,     0.2684743f,
    -0.885766f,      0.18616807f,     0.3564835f,      -0.14651437f,
    -0.011919897f,   -0.03195618f,    0.1152242f,      -0.051294573f,
    0.082694925f,    0.25671086f,     -0.0695763f,     0.06358117f,
    0.74922425f,     0.36549798f,     0.3604688f,      0.19808912f,
    0.11861682f,     -0.11772792f,    0.023446508f,    0.19055665f,
    0.09591083f,     0.39769763f,     -0.10193978f,    0.6399084f,
    -0.118168056f,   -0.025860926f,   0.09197376f,     0.25056756f,
    -0.8823866f,     -0.1034859f,     -0.1393422f,     0.12775324f,
    -1.0833702f,     0.55493206f,     -0.55619854f,    0.10329987f,
    0.57847714f,     0.060047545f,    0.6049074f,      -0.12549861f,
    -0.022799013f,   -0.73334527f,    0.7079563f,      0.3016133f,
    -0.2209651f,     0.17532831f,     -0.65859646f,    0.011872502f,
    -0.044833202f,   0.05802466f,     0.49906757f,     0.14276251f,
    0.9737522f,      -0.0036204476f,  0.0028946085f,   -0.056772333f,
    -0.038172066f,   0.6197196f,      -0.01639909f,    -0.38761434f,
    0.072124764f,    0.06785335f,     -0.6001445f,     0.9029481f,
    0.48170623f,     -0.24380372f,    -0.22275232f,    0.14893897f,
    -0.024422985f,   0.087934524f,    0.95391107f,     0.011719784f,
    -0.10277132f,    1.573545f,       -0.027059387f,   0.3247061f,
    0.99540097f,     1.443773f,       0.05386302f,     -0.23261318f,
    -0.12469175f,    0.13316385f,     0.016029045f,    -0.0063711936f,
    0.01762945f,     0.36611274f,     0.08972508f,     0.30712077f,
    -0.26090217f,    0.0031268331f,   -0.11014641f,    -0.5720738f,
    -0.5639281f,     0.019921884f,    0.51711327f,     -0.16300824f,
    -0.13510548f,    0.17063567f,     0.38829276f,     -0.29442516f,
    0.084774755f,    -0.05248659f,    -0.5395793f,     0.12503177f,
    0.5452999f,      0.55447555f,     -0.45326382f,    0.3414917f,
    0.2836259f,      0.02962363f,     -0.592555f,      -0.03465222f,
    -0.025140282f,   0.20495126f,     0.06391735f,     0.15052867f,
    0.21320514f,     0.039794207f,    0.030232532f,    -0.14236775f,
    0.013585668f,    0.1326012f,      0.41451913f,     0.07357894f,
    -0.014308767f,   0.6170127f,      -0.372488f,      -0.05951878f,
    -0.6931575f,     0.02011225f,     -0.08121963f,    -0.078647174f,
    -0.106735334f,   -0.041893844f,   0.4213713f,      0.021669546f,
    -0.036483373f,   -1.3079649f,     -0.19947098f,    0.24933967f,
    0.43800384f,     0.9655616f,      0.2552877f,      -0.0019412349f,
    0.03308606f,     0.006003238f,    0.07148713f,     0.22389409f,
    0.2680311f,      0.49049807f,     -0.030111598f,   -0.072276965f,
    -0.67143995f,    -0.13021722f,    0.0038304636f,   -0.084877305f,
    0.3546851f,      0.0014745921f,   0.009995153f,    0.15942898f,
    0.7030296f,      -0.06200087f,    0.16187207f,     -0.0014681758f,
    0.34708276f,     0.042232294f,    -0.42565167f,    0.04119306f,
    0.5375523f,      -0.64575267f,    -0.07403678f,    -0.2334629f,
    0.6109085f,      -0.87409884f,    0.7713701f,      -0.4826039f,
    -0.30480117f,    0.30053002f,     0.1462264f,      -0.12091676f,
    -0.1582895f,     0.0046089278f,   0.004810011f,    0.113557115f,
    -0.039927945f,   -0.35131967f,    0.051165875f,    -0.39044905f,
    0.091032326f,    -0.25981817f,    0.22634125f,     -0.14027756f,
    0.049981806f,    -0.0467415f,     -0.14341736f,    0.23024786f,
    0.09546332f,     0.12248355f,     -0.7858108f,     0.063256726f,
    0.016779812f,    0.37885863f,     0.35680738f,     -0.27929777f,
    -0.40441898f,    0.13013232f,     -0.34245622f,    -0.039367046f,
    -0.06399504f,    -0.043711066f,   -0.11576525f,    0.67227155f,
    0.3619514f,      -0.07882113f,    0.004442097f,    -0.40862623f,
    -0.19893081f,    0.111571774f,    -0.10046477f,    -0.016046414f,
    -0.16379161f,    -0.29523376f,    0.063762076f,    -0.20367733f,
    0.20983404f,     -0.35274857f,    0.10470164f,     -0.18603796f,
    -0.86547214f,    -0.10827245f,    -0.8721894f,     0.050294425f,
    0.25122395f,     0.194495f,       -0.19602104f,    -0.2963323f,
    0.3040308f,      1.2060019f,      -0.4322342f,     0.29893824f,
    0.53474873f,     -0.47262055f,    -0.30938658f,    0.04530289f,
    -0.63986933f,    -0.023553003f,   0.0028545316f,   0.0059051644f,
    0.017317161f,    0.33975446f,     -0.22744276f,    0.2041872f,
    -0.08495383f,    -0.13449326f,    0.15414521f,     0.24521166f,
    -0.09439226f,    0.060709234f,    0.13547389f,     -0.22402775f,
    -0.036962923f,   -0.19246994f,    0.34138623f,     -0.121779226f,
    0.03968929f,     -0.8482405f,     0.22754039f,     -0.28667283f,
    -0.44498968f,    -0.60010904f,    -0.3601931f,     0.061218426f,
    0.069286086f,    -0.0030529562f,  0.029059855f,    0.377279f,
    0.105468936f,    -0.35330158f,    0.018554715f,    -0.13633803f,
    0.7281722f,      -0.0046950183f,  0.123859f,       0.03714201f,
    -0.04469041f,    -0.111670636f,   -0.32531464f,    0.09333545f,
    0.47098127f,     0.2274033f,      -0.17244692f,    0.25584722f,
    0.34795192f,     0.081313774f,    1.0746405f,      -0.13414536f,
    -0.3979964f,     -1.0879383f,     0.36208192f,     0.15792575f,
    0.122745596f,    -0.023249758f,   0.05964052f,     -0.0060077743f,
    0.021397233f,    -0.42065015f,    -0.13975693f,    -0.037741337f,
    -0.063053966f,   0.025943968f,    -0.011683591f,   -0.008706891f,
    0.007145784f,    0.26263484f,     0.31879652f,     0.014681194f,
    0.00654473f,     0.08251991f,     0.28295973f,     -0.039998922f,
    -0.21669704f,    0.1660612f,      0.07474764f,     -0.15964223f,
    -0.025208466f,   -0.054200947f,   -0.026033727f,   -0.078104705f,
    -0.022985185f,   -0.01506758f,    0.0026671444f,   -0.083349444f,
    -0.006899891f,   0.45605922f,     -0.07585411f,    -0.03942136f,
    -0.013859746f,   -0.011474223f,   0.0064103715f,   0.0122716725f,
    0.101682894f,    0.1016815f,      0.024777308f,    0.01471872f,
    0.34514418f,     0.046117976f,    -0.03203467f,    0.05374025f,
    0.05236815f,     -0.005288516f,   0.039844617f,    0.05726062f,
    -0.28553554f,    -0.12280083f,    -0.010398416f,   -0.051934347f,
    0.05713223f,     -0.02810472f,    0.04347635f,     -0.005164778f,
    0.012373663f,    0.2718315f,      0.48957554f,     -0.013845285f,
    -0.06987528f,    -0.035763822f,   0.03597708f,     -0.022896944f,
    0.0068812207f,   -0.14976381f,    0.07771851f,     0.078737654f,
    0.53912544f,     -0.013667609f,   0.009509036f,    -0.0058935652f,
    -0.013410584f,   -0.36920217f,    0.20532338f,     0.05188507f,
    -0.013276654f,   -0.0022585627f,  -0.34951398f,    -0.22259676f,
    0.1721818f,      -0.022042798f,   -0.06965093f,    0.04736011f,
    -0.018319689f,   -0.016166708f,   0.04395636f,     0.027602723f,
    -0.009085259f,   -0.1230529f,     0.05030763f,     -0.009185757f,
    -0.00024862285f, 0.5558705f,      -0.078649014f,   0.0034227618f,
    0.014880684f,    0.011291685f,    -0.0037412557f,  0.11232719f,
    0.10180813f,     -0.1452423f,     -0.020468978f,   0.0028362588f,
    -0.34611276f,    -0.061698016f,   0.02405149f,     0.06947595f,
    -0.17364088f,    -0.07227603f,    -0.064481646f,   0.037099563f,
    -0.16279651f,    -0.04401294f,    -0.044543244f,   -0.038924396f,
    0.019953627f,    0.025663488f,    0.007677187f,    -0.016340453f,
    0.0077102105f,   0.09823559f,     0.20692164f,     -0.17961378f,
    -0.18084644f,    1.9230658e-05f,  0.05647889f,     0.014703978f,
    0.010008401f,    -0.1121624f,     -0.017601665f,   -0.07639821f,
    0.19516668f,     0.005743868f,    -0.008852902f,   0.0305475f,
    -0.0029133484f,  0.09002025f,     -0.01992898f,    -0.014376694f,
    0.01167537f,     -0.026024926f,   -0.2789509f,     -0.032265384f,
    0.113168105f,    -0.05364941f,    -0.1574542f,     0.09376676f,
    0.020710552f,    0.06075086f,     0.008636697f,    0.072762854f,
    0.000179895f,    0.3456567f,      0.025678432f,    -0.074387185f,
    0.026792154f,    -0.25800395f,    0.07881812f,     0.046434067f,
    0.012625898f,    -0.028284889f,   -0.02491126f,    0.023944272f,
    0.009710916f,    0.16511695f,     -0.031247023f,   0.0018563486f,
    0.15395331f,     -0.0076460512f,  -0.020389149f,   0.049093336f,
    0.10382156f,     -0.035351314f,   0.009565356f,    -0.06323532f,
    -0.29214263f,    -0.0023359917f,  -0.17818227f,    -0.009895879f,
    -0.046099875f,   0.0024482138f,   0.06532132f,     0.010954204f,
    -0.07110699f,    0.02198267f,     -0.088628165f,   -0.09141581f,
    0.0760771f,      0.027118789f,    0.15048158f,     -0.11901542f,
    -0.37259945f,    0.19362882f,     -0.030802073f,   -0.13634822f,
    -0.35675076f,    0.01467977f,     0.029831393f,    -0.07370825f,
    -0.002126716f,   0.31909248f,     0.24852262f,     -0.10933074f,
    0.011671194f,    -0.071767226f,   0.06898677f,     0.06327687f,
    0.22762035f,     -0.077095106f,   -0.08108688f,    0.03255345f,
    0.055702865f,    0.107977f,       -0.0034886738f,  0.037626922f,
    -0.0030516917f,  -0.21344364f,    -0.014818139f,   0.05246243f,
    -0.035879076f,   0.22751032f,     0.04005838f,     0.0073741595f,
    -0.009191947f,   -0.029188117f,   -0.05811093f,    0.040719096f,
    0.048099697f,    0.3855574f,      -0.0060555036f,  0.042787604f,
    -0.55800605f,    0.009897925f,    0.019569527f,    -0.2915962f,
    -1.0781194f,     0.03292253f,     -0.018410714f,   -0.07187909f,
    -0.19825383f,    -0.067948304f,   0.22056298f,     0.04947223f,
    -0.105174944f,   0.0024802985f,   -0.08754306f,    0.004542315f,
    0.3870724f,      0.29234722f,     -0.0047889245f,  0.30710196f,
    0.53463006f,     -0.11273465f,    -0.12457816f,    -0.0010187149f,
    0.19961236f,     0.36136612f,     -0.15468979f,    0.04062258f,
    -0.16186167f,    -0.024962962f,   -0.024773614f,   -0.0114295585f,
    0.01684022f,     0.36041167f,     -0.21948388f,    0.1915662f,
    -0.0047973706f,  -0.43040618f,    0.05966985f,     -0.00027674646f,
    -0.41713512f,    0.07617185f,     0.27380827f,     -0.09441982f,
    -0.0040086485f,  -0.028672814f,   0.24157865f,     -0.09339134f,
    0.012112252f,    0.2147801f,      0.020150393f,    0.066439584f,
    0.07170433f,     -0.3875427f,     -0.33050987f,    -0.0102263875f,
    0.0044189366f,   0.042367075f,    0.026449542f,    0.051484115f,
    0.115683354f,    -0.6007919f,     0.007763368f,    0.016719684f,
    -0.401863f,      0.06625697f,     0.04040015f,     0.012912467f,
    0.12198498f,     0.11934922f,     -0.11683646f,    0.072028115f,
    0.17331858f,     0.008202952f,    0.0717959f,      0.060011692f,
    0.10465313f,     -0.0033135333f,  -0.26371318f,    -0.045101274f,
    0.15265273f,     -1.0523217f,     0.13903184f,     0.25599927f,
    0.6859134f,      -0.039007068f,   -0.21193312f,    0.021606816f,
    0.04495826f,     0.4505658f,      0.24516907f,     0.07692408f,
    0.07059295f,     0.022104615f,    0.043220505f,    0.04952006f,
    0.0057651624f,   -0.06064482f,    0.07827498f,     -0.04013409f,
    0.0035875516f,   -0.09289838f,    -0.21662554f,    0.13522758f,
    0.024368195f,    -0.024605986f,   0.05762151f,     0.051305596f,
    -0.037394065f,   -0.07724804f,    0.15341327f,     0.0049413475f,
    -0.011528657f,   0.21325362f,     -0.03920411f,    0.06890001f,
    0.111433074f,    0.50785357f,     -0.021456238f,   -0.050302096f,
    -0.01242706f,    0.006727743f,    0.045685824f,    -0.058312602f,
    -0.002096912f,   0.9976318f,      0.013712047f,    -0.010744051f,
    0.2977653f,      -0.0652747f,     0.018005906f,    0.12224006f,
    -0.6974484f,     0.05781479f,     0.025902355f,    1.8219562e-05f,
    0.3851496f,      -0.028707527f,   -0.4370785f,     0.0078269f,
    -0.0039666896f,  -0.008514037f,   -0.30792361f,    0.062474824f,
    0.022263365f,    -0.15652551f,    0.4308204f,      -0.32283765f,
    -0.08207422f,    -0.0149213085f,  -0.113489695f,   0.3649257f,
    -0.12870748f,    -0.22169471f,    0.28754982f,     0.090529054f,
    -0.8036505f,     0.011512394f,    0.002014808f,    -0.04100507f,
    -0.005321597f,   -0.1538057f,     -0.25856143f,    -0.03328444f,
    0.0028614898f,   -0.060954306f,   -0.027022852f,   0.12675719f,
    -0.47103256f,    -0.06039225f,    -0.064616665f,   0.090020925f,
    -0.073906496f,   -0.032930996f,   -0.078331895f,   0.007586858f,
    -0.0403489f,     0.008083122f,    0.004606347f,    0.14762938f,
    -0.13229391f,    -0.0061374195f,  0.123903476f,    -0.071201965f,
    -0.03049885f,    0.03565021f,     0.04874859f,     0.054224003f,
    0.05604062f,     -0.36935982f,    0.029095598f,    0.054800812f,
    0.55237657f,     -0.041265935f,   -0.011401279f,   -0.037793204f,
    0.22366779f,     -0.05610134f,    0.07530306f,     -0.058228277f,
    -0.3007927f,     -0.730336f,      -0.018644769f,   -0.032974146f,
    -0.16306789f,    -0.011114965f,   -0.09814073f,    0.03074098f,
    0.101149805f,    0.18346871f,     -0.09223584f,    -0.07340539f,
    0.042115815f,    -0.25919664f,    0.49065873f,     -0.3355628f,
    0.53187764f,     -0.18840909f,    -0.04954688f,    -0.0322028f,
    0.5673649f,      -0.02246416f,    -0.015110285f,   0.11297663f,
    -0.019531759f,   -0.5835388f,     0.37239715f,     -0.07871147f,
    -0.018180532f,   -0.27714783f,    0.15716344f,     0.098184004f,
    0.5965115f,      0.0115454225f,   -0.0670172f,     -0.03500153f,
    0.03706175f,     -0.028436407f,   -0.1787384f,     -0.014865955f,
    0.046985667f,    -0.12098046f,    -0.060189165f,   0.0084932f,
    -0.4346995f,     -0.3784685f,     -0.24981418f,    0.06690141f,
    0.013306233f,    -0.017288689f,   0.020521985f,    0.023114365f,
    0.06277476f,     0.35805202f,     0.010422373f,    0.15102747f,
    -0.64899176f,    0.013621945f,    -0.022411961f,   -0.022985032f,
    -0.18592435f,    0.062330272f,    -0.1652348f,     -0.0128571f,
    0.35203636f,     0.12488081f,     -0.06318143f,    0.09027019f,
    0.13472773f,     0.023164527f,    0.18613821f,     -0.009319499f,
    -0.038857754f,   -0.029000249f,   -0.19398957f,    -0.006111455f,
    -0.46944344f,    0.23341255f,     0.20324652f,     0.12675916f,
    -0.5746145f,     -0.14199808f,    -0.09824572f,    -0.008092041f,
    -0.3465434f,     0.009044275f,    -0.012658588f,   0.047024917f,
    -0.0037835673f,  0.24975556f,     -0.0648421f,     -0.010510368f,
    0.0068081594f,   -0.0723137f,     0.09379738f,     0.024135822f,
    -0.41425082f,    -0.020039983f,   -0.0030550014f,  -0.023276012f,
    0.006437845f,    0.061165266f,    0.16174817f,     0.040744834f,
    -0.017515454f,   -0.14204875f,    -0.078848176f,   -0.06925204f,
    -0.0096742865f,  0.34718427f,     -0.0794156f,     -0.015814563f,
    -0.0040620295f,  -0.0060547697f,  -0.058024988f,   -0.100885436f,
    -0.0576821f,     -0.8391736f,     -0.010777437f,   -0.04822471f,
    0.36427936f,     0.04062056f,     -0.02326814f,    0.07189806f,
    0.5600841f,      0.012207458f,    -0.041943595f,   0.02435949f,
    0.38076973f,     -0.122602865f,   -0.052952226f,   0.06980154f,
    -0.055258133f,   -0.013687773f,   -0.0856235f,     -0.04374016f,
    0.09650116f,     0.29755f,        -0.47976774f,    0.15719572f,
    -0.32557812f,    -0.025206277f,   -0.031276036f,   0.057823833f,
    -0.09089346f,    0.503004f,       -0.006529944f,   -0.025876073f,
    -0.30078557f,    -0.05259635f,    0.0032635273f,   -0.046257973f,
    -0.02316766f,    -0.26077843f,    0.7320577f,      -0.043850385f,
    -0.033227257f,   -0.05506104f,    -0.24302953f,    0.058208752f,
    0.4221944f,      -0.1568565f,     -0.124339305f,   0.020135615f,
    0.11952597f,     -0.047492266f,   0.03294807f,     0.043000266f,
    0.06636332f,     0.13762432f,     0.07293039f,     0.027872035f,
    0.26005533f,     0.34660113f,     0.051574808f,    -0.02278254f,
    0.021317443f,    0.062619954f,    -0.033112284f,   0.033078555f,
    -0.07754032f,    0.30340594f,     0.04229149f,     0.1011f,
    -0.93605536f,    -0.0279014f,     0.065664195f,    -0.07469741f,
    0.2900185f,      -0.064222895f,   -0.1184728f,     0.04473821f,
    0.37162083f,     0.3866583f,      0.17402013f,     -0.011172565f,
    0.14724825f,     0.06985764f,     -0.3215314f,     -0.016214777f,
    0.10370639f,     0.06478165f,     -0.3076502f,     0.06566887f,
    0.052055914f,    0.09171187f,     -0.15219733f,    0.20973541f,
    -0.09710595f,    -0.20841539f,    0.006604662f,    0.0014135013f,
    -0.1204219f,     0.07645794f,     0.009907881f,    0.15408614f,
    0.042608973f,    0.27650645f,     0.64020914f,     0.06414246f,
    0.0021227524f,   0.017464157f,    0.42234883f,     0.39741832f,
    -0.18801786f,    0.08781363f,     0.019875262f,    -0.034119435f,
    -0.12910372f,    0.029834492f,    0.04959784f,     -0.035403237f,
    -0.09575419f,    0.07616226f,     -0.029487915f,   -0.06529359f,
    0.2640056f,      0.25360247f,     -0.024585385f,   0.03528128f,
    -0.03912399f,    -0.09157948f,    0.028441116f,    -0.09878465f,
    -0.090702064f,   -0.03699577f,    -0.03778671f,    -0.03099707f,
    0.8253499f,      0.014648578f,    -0.023807703f,   0.12276291f,
    0.13683261f,     0.012393276f,    -0.09710647f,    -0.060594097f,
    0.3637277f,      -0.12072426f,    0.13245226f,     -0.0012597025f,
    -0.1445149f,     -0.035735946f,   0.13486508f,     0.002902589f,
    -0.06783004f,    -0.29527253f,    -0.16234896f,    -0.23000294f,
    0.10789907f,     -0.024862438f,   -0.020582909f,   -0.03781267f,
    -0.07737101f,    0.16471127f,     -0.012005016f,   0.013442521f,
    0.008695317f,    -0.036061253f,   -0.00826367f,    0.04339891f,
    -0.01615247f,    0.07068644f,     0.23048232f,     -0.011837257f,
    0.0035089764f,   0.08488863f,     -0.12142084f,    0.08498186f,
    0.16516931f,     0.047290962f,    0.13265212f,     0.00070049835f,
    0.026418207f,    -0.023809984f,   -0.1454881f,     -0.024720045f,
    0.0011072542f,   -0.3594184f,     0.080107115f,    -0.0060178605f,
    -0.22351952f,    0.29620695f,     0.072012f,       -0.010723271f,
    0.05960017f,     0.052636843f,    0.009037887f,    -0.019138843f,
    0.059447788f,    -1.2984676f,     -0.023149392f,   0.0020327843f,
    -0.3092342f,     -0.018714866f,   -0.011115168f,   -0.120765574f,
    0.25836888f,     -0.00012626717f, -0.15590277f,    0.024720296f,
    0.23155403f,     0.06540557f,     -0.1272455f,     -0.16563734f,
    0.19736916f,     -0.010581099f,   0.2613023f,      0.022265833f,
    -0.22763121f,    -0.06104306f,    0.34168476f,     0.050627157f,
    0.4505934f,      -0.099938266f,   -0.03717385f,    0.21582119f,
    -0.1390078f,     -0.568788f,      0.0003142876f,   0.10037417f,
    -0.5478204f,     0.0006657814f,   -0.006297763f,   -0.05546984f,
    -0.0012908723f,  -0.036351852f,   0.4743353f,      -0.033152323f,
    0.014712085f,    0.03156526f,     0.100179374f,    0.055466257f,
    -0.41749266f,    -0.0006258779f,  0.051372074f,    -0.04356899f,
    -0.034612022f,   0.052254967f,    -0.17012389f,    -0.0916247f,
    -0.01833241f,    0.07664711f,     0.021573605f,    -0.16185318f,
    0.11990656f,     -0.17991622f,    -0.0058188783f,  0.028227264f,
    -0.02108333f,    -0.025127675f,   0.0013046649f,   0.08473401f,
    -0.04146249f,    -0.17261878f,    0.0026823373f,   0.0020854294f,
    0.4964213f,      0.009009839f,    -0.049275625f,   0.11792902f,
    0.7545057f,      -0.0014132108f,  0.0017040063f,   -0.034621894f,
    0.13339141f,     0.080961965f,    0.12928864f,     0.022553094f,
    -0.2431439f,     0.01122458f,     -0.21582563f,    -0.014350744f,
    -0.101545714f,   0.09464467f,     0.4213868f,      -0.26705825f,
    0.3142573f,      0.16381992f,     -0.5199926f,     0.24028027f,
    -0.04669982f,    0.08559798f,     -0.061597414f,   -0.09440083f,
    0.9962914f,      -0.050030354f,   0.007972445f,    0.09041357f,
    -0.020699596f,   -0.4460657f,     0.38913694f,     -0.033420682f,
    0.030246839f,    -0.1478609f,     0.17612411f,     -0.19901018f,
    -0.11187573f,    0.0064607407f,   0.043710582f,    -0.017643603f,
    0.08217184f,     -0.010799988f,   0.20924352f,     -0.07070071f,
    -0.012005384f,   -0.232373f,      -0.039940335f,   0.17365238f,
    -0.08512493f,    -0.17155096f,    -0.017029807f,   -0.070312835f,
    -0.0077718394f,  0.06367218f,     0.04827339f,     0.05517328f,
    -0.015714867f,   1.6968807f,      0.005945503f,    -0.16341135f,
    0.34020543f,     0.06193833f,     0.030435894f,    -0.246971f,
    0.3649049f,      -0.044227373f,   0.002531635f,    -0.013681736f,
    0.04537735f,     0.25078866f,     -0.013089379f,   -0.07847082f,
    0.2725609f,      -0.032453157f,   0.10069641f,     -0.017454598f,
    -0.23776634f,    -0.06519283f,    0.3604512f,      0.29404774f,
    -0.1860629f,     -0.15837754f,    0.1678824f,      0.11049545f,
    -0.12812108f,    0.06320874f,     0.046848863f,    0.011675171f,
    0.46090773f,     0.08568206f,     0.022939675f,    -0.047999207f,
    0.044190213f,    0.1562978f,      0.18320628f,     0.042696822f,
    -0.0122516155f,  0.03984359f,     0.3708256f,      -0.05280428f,
    -0.24732433f,    0.04335415f,     -0.1441837f,     0.02553387f,
    -0.107694f,      -0.010430678f,   -0.16044798f,    0.16159347f,
    0.050026465f,    -0.09185798f,    0.09541704f,     -0.17227614f,
    0.04096726f,     0.2918169f,      0.12662955f,     0.06157122f,
    0.00766281f,     -0.10749638f,    -0.055704527f,   0.011385054f,
    -0.12360373f,    0.47784868f,     -0.011855966f,   0.016330717f,
    -0.32877898f,    -0.09110654f,    0.019638339f,    0.12672323f,
    0.6350247f,      -0.13409394f,    -0.0077276397f,  0.06470689f,
    0.057473924f,    0.04303109f,     -0.071611926f,   0.010568346f,
    -0.49587503f,    -0.013963412f,   0.20460561f,     0.016110955f,
    -0.49089178f,    -0.18241288f,    0.50063574f,     -0.23849785f,
    -0.5559127f,     0.15898034f,     0.10989115f,     0.26470658f,
    -0.01013526f,    -0.14694701f,    0.004489279f,    0.05518631f,
    0.59108365f,     -0.018291691f,   -0.022436239f,   -0.04088917f,
    -0.014791668f,   0.043376062f,    0.16307668f,     0.01621932f,
    0.0014469766f,   0.024469662f,    -0.4269077f,     -0.021166233f,
    0.13428153f,     -0.024848392f,   0.098018676f,    0.06379463f,
    0.016683204f,    0.038179494f,    0.031783354f,    -0.068717234f,
    -0.021776298f,   -0.16822582f,    -0.016150437f,   0.1575426f,
    0.15831402f,     -0.09662214f,    0.03142256f,     0.007203998f,
    -0.017188448f,   0.019085184f,    0.03745755f,     -0.011074834f,
    0.03154437f,     -0.9384747f,     -0.008694909f,   0.14019527f,
    -0.17755365f,    0.02073978f,     -0.009033487f,   -0.08590541f,
    -0.024985446f,   -0.004093996f,   -0.0555781f,     -0.09240104f,
    0.096564405f,    0.04066303f,     -0.02180789f,    -0.011132781f,
    0.20420696f,     0.016700292f,    0.06600887f,     0.047187306f,
    -0.02076854f,    -0.10503244f,    0.25983134f,     0.21840551f,
    -0.32094398f,    -0.22290188f,    1.3253807f,      0.21109791f,
    -0.12927043f,    0.6002755f,      -0.02089594f,    -0.04530725f,
    -0.26657403f,    0.032572705f,    -0.0100231785f,  0.0708596f,
    0.016187856f,    0.06518296f,     0.3124852f,      0.04887191f,
    0.0028617901f,   -0.18666886f,    0.33269957f,     -0.1486844f,
    -0.026365757f,   0.020988049f,    -0.070677474f,   -0.049858164f,
    -0.026587864f,   -0.04254433f,    -0.06510276f,    0.12760377f,
    0.018921414f,    0.0241072f,      0.026844785f,    -0.18613553f,
    0.030758139f,    -0.12250028f,    -0.06085466f,    0.002041224f,
    -0.0040272647f,  -0.018028907f,   -0.02785293f,    -0.0003521555f,
    0.04775339f,     -0.13988225f,    -0.0074934945f,  -0.033019263f,
    0.05393138f,     -0.0065512727f,  -0.020261116f,   0.34755322f,
    -0.0826358f,     -0.07664628f,    -0.035839662f,   0.11785819f,
    -0.39461428f,    -0.020319091f,   0.15030818f,     0.026512649f,
    0.020197595f,    -0.035953954f,   0.14853695f,     -0.021812294f,
    0.034613147f,    0.08945376f,     -0.6558053f,     -0.086705655f,
    0.5482094f,      0.09420661f,     -0.41676843f,    0.18717943f,
    -0.06599932f,    -0.56404626f,    0.08016426f,     0.0022197575f,
    -0.55039716f,    -0.040793415f,   -0.0033396971f,  -0.057141583f,
    -0.037149508f,   0.2288959f,      -0.27006677f,    -0.07031288f,
    -0.010639694f,   0.1348306f,      -0.27025464f,    0.0350023f,
    0.18043233f,     -0.035161678f,   -0.006259741f,   0.05518103f,
    0.059558228f,    0.009182596f,    0.16845869f,     -0.06543876f,
    -0.005743551f,   -0.39416245f,    0.051597416f,    0.29309905f,
    0.2938438f,      -0.12118317f,    -0.09471063f,    -0.041920774f,
    -0.017126005f,   0.05937604f,     -0.0035281763f,  0.051468264f,
    0.14270054f,     0.314545f,       0.050796427f,    0.01318194f,
    0.026985608f,    0.035868287f,    -0.010469121f,   -0.20876093f,
    0.19532305f,     -0.11193005f,    -0.033861104f,   -0.04603516f,
    -0.5406827f,     0.05589666f,     0.12279087f,     -0.062117785f,
    0.064747244f,    0.020509433f,    0.18989821f,     -0.020537527f,
    -0.13105239f,    0.40663588f,     -0.49826884f,    0.28956646f,
    0.11852532f,     -0.008768637f,   0.12434393f,     0.07745619f,
    -0.25814423f,    -0.21222427f,    0.031258166f,    0.0936614f,
    -0.16795568f,    -0.013915899f,   -0.009237131f,   -0.14146775f,
    -0.0053123357f,  -0.1724265f,     0.4498832f,      0.088921905f,
    -0.02978067f,    0.15217888f,     -0.027520508f,   0.45357004f,
    -0.10618351f,    -0.030982222f,   0.21715567f,     0.031807195f,
    -0.01295293f,    0.036520135f,    -0.24912667f,    -0.019910524f,
    0.0038579437f,   0.24646096f,     0.28012592f,     0.03368078f,
    -0.5565983f,     0.51061636f,     -0.11653568f,    0.0014985758f,
    0.005183618f,    0.035225887f,    0.04912012f,     0.008105491f,
    0.08615647f,     -0.5306345f,     0.037945177f,    -0.051057752f,
    -0.14211199f,    0.03392412f,     0.00955998f,     0.09550955f,
    0.8438336f,      -0.2000249f,     -0.16793129f,    -0.15834059f,
    0.31784794f,     -0.13549541f,    -0.13413745f,    -0.13789186f,
    -0.07404421f,    -0.0030583162f,  0.18645717f,     -0.02157021f,
    -0.23156567f,    0.12528023f,     -0.36199448f,    0.13630316f,
    -0.29662046f,    -0.042305652f,   -0.041692164f,   0.78332245f,
    0.5519626f,      -0.18252647f,    0.071336195f,    -0.00848383f,
    1.157797f,       -0.013821907f,   -0.0013586188f,  0.028939672f,
    -0.027687328f,   0.0063339844f,   0.004091473f,    -0.09063307f,
    0.00632893f,     0.15733698f,     0.3493178f,      -0.25026032f,
    -0.0034256906f,  0.050312445f,    -0.147148f,      -0.0881166f,
    -0.007202018f,   -0.13021193f,    -0.025345795f,   -0.060363498f,
    -0.0006999539f,  0.20776735f,     0.3032111f,      0.11623544f,
    -0.69132f,       0.53010947f,     0.22696061f,     -0.05980183f,
    -0.017476153f,   0.05784042f,     0.02024059f,     0.23029178f,
    0.1592716f,      0.9744706f,      0.033727378f,    0.13462971f,
    0.8414614f,      0.021116294f,    -0.06382785f,    0.065849826f,
    -0.77772236f,    -0.19354285f,    -0.27205253f,    0.16655819f,
    -0.10706955f,    0.14090586f,     -0.38847712f,    0.12206957f,
    0.35087126f,     0.018223556f,    0.3136521f,      -0.03264866f,
    -0.3567076f,     -0.44174466f,    -0.07327421f,    -0.3194473f,
    0.26565498f,     0.08493378f,     0.1815766f,      -0.050739054f,
    -0.006088156f,   0.62182546f,     -0.1324985f,     -0.015060115f,
    -0.2704989f,     0.010778689f,    -0.04824534f,    0.1863299f,
    -0.012366902f,   0.34537584f,     -0.098318584f,   0.008446686f,
    0.009445607f,    -0.15584385f,    -0.10578944f,    0.29444432f,
    0.29439884f,     0.07082676f,     -0.10432846f,    0.010126514f,
    0.0017580178f,   0.04894156f,     0.26864323f,     0.027731542f,
    0.0059990394f,   0.707689f,       0.29888585f,     -0.30692703f,
    -0.8469116f,     -0.102942206f,   0.18854266f,     0.012301113f,
    0.0010491202f,   -0.03331774f,    -0.08706221f,    0.08740603f,
    0.0955695f,      -0.16193433f,    0.005223475f,    -0.1990943f,
    -0.8894871f,     0.033053547f,    -0.040720437f,   -0.065822065f,
    -0.5876164f,     -0.17938851f,    -0.19499122f,    0.034504343f,
    -0.31082174f,    0.21002105f,     0.862039f,       0.09694486f,
    -0.18736582f,    -0.025657762f,   0.69445026f,     0.014717754f,
    -0.31640813f,    0.35605222f,     0.44484234f,     0.05328263f,
    0.09238249f,     0.052132193f,    -0.112957545f,   -0.11773104f,
    -0.18811426f,    -0.3145211f,     0.066282585f,    -0.06161545f,
    -0.2813783f,     -0.035825755f,   0.0059607932f,   0.09537578f,
    -0.019212376f,   0.11432891f,     -0.567658f,      -0.22745577f,
    0.029270148f,    -0.016042752f,   -0.2594051f,     0.50624305f,
    -0.58418965f,    -0.10651836f,    -0.1637567f,     -0.015315814f,
    0.0588222f,      -0.04203804f,    -0.041002106f,   0.018817345f,
    0.04828644f,     0.07711505f,     0.2028236f,      -0.027219575f,
    0.006651426f,    -0.07122145f,    0.10931341f,     -0.04741802f,
    -0.04517081f,    0.011814542f,    -0.058562458f,   0.30043077f,
    0.0045898105f,   -1.247423f,      0.01993139f,     0.04923846f,
    0.09225936f,     -0.0076849363f,  0.033185232f,    0.014304266f,
    -0.32597095f,    -0.24056308f,    -0.4302366f,     0.027474685f,
    0.33784932f,     -0.25509351f,    -0.07386988f,    0.0009167738f,
    -0.025437754f,   -0.011713006f,   -0.45412412f,    -0.010687997f,
    -0.11613874f,    -0.44881666f,    0.36019912f,     -0.53250206f,
    -0.33889312f,    -0.08592707f,    0.20946439f,     -0.6469393f,
    1.3412784f,      0.98912567f,     -0.17357755f,    0.010404901f,
    0.2610597f,      0.042112194f,    0.012550799f,    0.12288203f,
    0.04733653f,     -0.022040712f,   -0.8768243f,     0.04770738f,
    -0.021695994f,   -0.26047653f,    0.3360094f,      0.83632076f,
    -0.5843266f,     0.11429735f,     0.20336463f,     -0.027897196f,
    -0.04340598f,    0.0045455345f,   -0.13173796f,    0.021218495f,
    0.038775317f,    -0.70786935f,    0.10970416f,     -0.3964646f,
    -0.6698416f,     -0.74631226f,    -0.022808863f,   0.09282145f,
    0.033445846f,    -0.08638097f,    0.006325947f,    0.09503295f,
    -0.12388054f,    1.2569854f,      -0.032677203f,   0.039192438f,
    -0.081253186f,   -0.0063980995f,  0.042938855f,    0.11410096f,
    -0.8556671f,     0.08471816f,     -1.0939487f,     -0.0015663431f,
    0.40989372f,     0.28875715f,     0.44352886f,     0.09570113f,
    -0.24494693f,    -0.00047116613f, -0.38672355f,    0.015685908f,
    0.021278007f,    -0.05797214f,    0.248303f,       0.19521719f,
    0.21587986f,     -0.032871958f,   0.23008576f,     0.21658199f,
    0.036328245f,    -0.65275747f,    0.09201603f,     -0.025679493f,
    -0.92910904f,    0.021719676f,    0.017177375f,    0.11324695f,
    0.0019247402f,   0.1931846f,      0.26181838f,     0.15844508f,
    0.006795032f,    -0.1397643f,     0.36483163f,     0.39365822f,
    0.25713363f,     0.009902011f,    0.06490622f,     0.026342573f,
    -0.025484337f,   0.086205035f,    0.081517436f,    0.034151442f,
    -0.03846542f,    -0.5591753f,     0.19074638f,     0.37698093f,
    -0.35173395f,    -0.14325054f,    -0.43869096f,    -0.012883601f,
    0.0003646689f,   0.0005373159f,   0.04653338f,     -0.2087285f,
    0.1517989f,      0.5849099f,      -0.019995308f,   -0.04342486f,
    -0.3800216f,     -0.04007773f,    -0.017589476f,   -0.024634568f,
    -0.3007563f,     -0.07154129f,    -0.66669667f,    -0.026372897f,
    -0.07946254f,    0.10177972f,     0.57474524f,     0.13744383f,
    -0.020430623f,   -0.013584707f,   0.20537062f,     0.022211624f,
    -0.29795107f,    0.57223755f,     0.40009263f,     0.02226658f,
    -0.2592108f,     0.14876151f,     0.11749052f,     -0.16314484f,
    0.20280161f,     0.006032111f,    -0.03182481f,    0.020385504f,
    0.4547294f,      -0.00067187694f, -0.00047066624f, 0.01710547f,
    0.019836666f,    -0.3942362f,     -0.27419925f,    0.16821904f,
    0.020117465f,    0.11511876f,     -0.2989714f,     0.17499676f,
    0.03683763f,     0.071633406f,    -0.0116829015f,  0.041034427f,
    -0.042387735f,   0.05416612f,     -0.028176492f,   0.055913016f,
    -0.039090794f,   -0.031751484f,   0.043870702f,    0.069372185f,
    -0.044216078f,   0.25293872f,     -0.21532717f,    0.08034303f,
    0.057374652f,    -0.03360632f,    0.018842429f,    0.02339191f,
    0.22562718f,     -0.110148266f,   -0.09025615f,    0.083832495f,
    -0.6814998f,     -0.043790318f,   -0.028982282f,   -0.07111136f,
    -0.32567313f,    -0.17241213f,    -0.10683052f,    0.087502144f,
    0.21527664f,     0.24548475f,     -0.030854417f,   -0.053382125f,
    0.031977348f,    0.014782147f,    -0.10670295f,    0.033852994f,
    -0.1459858f,     -0.13896927f,    0.27521753f,     0.3008577f,
    -0.00495376f,    -0.16059792f,    0.16307618f,     0.21685287f,
    -0.61044633f,    -0.07893876f,    0.11888328f,     -0.0031266974f,
    1.0226511f,      0.010532688f,    -0.0017604034f,  0.029042348f,
    -0.0072924756f,  0.11147201f,     -0.53256595f,    -0.09118909f,
    0.022319429f,    0.10464078f,     -0.18329267f,    -0.13050462f,
    0.7702663f,      -0.1693563f,     -0.022166427f,   0.07016212f,
    0.044789918f,    0.026921215f,    -0.02136535f,    -0.02220865f,
    -0.028176108f,   -0.27761915f,    -0.14966705f,    0.26814744f,
    0.0009852799f,   -0.3761102f,     0.20915465f,     -0.08442129f,
    -0.062150948f,   0.045717623f,    0.003777402f,    0.038754888f,
    0.059325796f,    -0.16252041f,    0.03597849f,     0.06308502f,
    0.22493652f,     0.027579049f,    -0.005237538f,   -0.096212916f,
    -0.89336103f,    0.027431075f,    -0.122828946f,   -0.13869385f,
    0.5627581f,      -0.15386991f,    0.08273721f,     0.020299176f,
    0.26121685f,     -0.036961734f,   -0.09159009f,    -0.0065585165f,
    0.12537676f,     0.9271213f,      -0.6220157f,     -0.04897373f,
    0.39619008f,     0.23855439f,     0.058847707f,    -0.33573025f,
    0.46605334f,     -0.24963109f,    -0.031057974f,   -0.010540132f,
    -0.8415916f,     -0.04024044f,    0.00966706f,     0.12419478f,
    -0.0058646696f,  -0.23757398f,    -0.41728008f,    -0.069746286f,
    -0.03358186f,    -0.00062127726f, -0.10666955f,    0.15589106f,
    -0.24706149f,    -0.009485509f,   -0.041538034f,   -0.045254838f,
    0.026312774f,    -0.108302064f,   -0.035514828f,   -0.066233486f,
    0.046382982f,    -0.23588641f,    0.21240862f,     -0.13298047f,
    0.0248457f,      -0.10445664f,    0.11140641f,     0.011270957f,
    0.034872487f,    0.01649418f,     -0.0036853012f,  0.17490314f,
    0.1678751f,      -0.3716033f,     0.026665797f,    -0.044029504f,
    0.7772889f,      0.0023240603f,   0.057570536f,    0.046537273f,
    0.13628264f,     -0.18902957f,    -0.018479101f,   -0.011631737f,
    0.23185553f,     0.1081962f,      0.36724073f,     -0.06552928f,
    -0.05650017f,    0.04774381f,     0.25038117f,     -0.042514794f,
    -0.22574246f,    -0.13346156f,    0.02845881f,     0.17410947f,
    0.22936969f,     0.17620188f,     0.067600325f,    0.0030360508f,
    0.3268615f,      -0.52369916f,    0.08915494f,     0.06427315f,
    0.39043638f,     -0.018521318f,   0.057131533f,    -0.07570644f,
    0.0036933094f,   -0.25552914f,    -0.10401826f,    0.041841213f,
    -0.014064093f,   0.13153663f,     -0.3454686f,     0.37251392f,
    -0.23542805f,    -0.07628868f,    0.104988895f,    0.049341604f,
    0.035529785f,    -0.008858327f,   0.08275809f,     -0.021811401f,
    0.022132693f,    -0.18535553f,    0.16394103f,     0.33726618f,
    0.19844896f,     -0.17665263f,    -0.23559888f,    -0.014556714f,
    0.0003120631f,   0.07498165f,     0.100801386f,    0.07612374f,
