/*
 * Copyright (c) 2018 Sergey Lavrushkin
 *
 * This file is part of FFmpeg.
 *
 * FFmpeg is free software; you can redistribute it and/or
 * modify it under the terms of the GNU Lesser General Public
 * License as published by the Free Software Foundation; either
 * version 2.1 of the License, or (at your option) any later version.
 *
 * FFmpeg is distributed in the hope that it will be useful,
 * but WITHOUT ANY WARRANTY; without even the implied warranty of
 * MERCHANTABILITY or FITNESS FOR A PARTICULAR PURPOSE.  See the GNU
 * Lesser General Public License for more details.
 *
 * You should have received a copy of the GNU Lesser General Public
 * License along with FFmpeg; if not, write to the Free Software
 * Foundation, Inc., 51 Franklin Street, Fifth Floor, Boston, MA 02110-1301 USA
 */

/**
 * @file
 * Default cnn weights for x2 upsampling with srcnn filter.
 */
#ifndef AVFILTER_SRCNN_H
#define AVFILTER_SRCNN_H

/// First convolution kernel
static const double conv1_kernel[] = {
-0.08866337686777115, 0.055409565567970276, 0.037196505814790726, -0.11961404234170914, -0.12341991066932678, 0.2996342182159424, -0.09118170291185379, -0.00013613555347546935, -0.049023594707250595,
0.038421183824539185, -0.07726779580116272, 0.027273094281554222, 0.45762088894844055, 0.023581644520163536, -0.20363852381706238, -0.07738441973924637, 0.07288403809070587, 0.06679897010326385,
-0.07315085083246231, 0.2665306031703949, 0.07836370915174484, -0.2898528277873993, -0.506912887096405, 0.0446651317179203, -0.06246858835220337, -0.024424826726317406, -0.029072929173707962,
-0.16884787380695343, 0.20686236023902893, -0.2536700665950775, -0.38499701023101807, -0.12601901590824127, 0.7257882356643677, 0.09588377922773361, -0.04487278312444687, -0.011251595802605152,
-0.02955852635204792, 0.2211706042289734, -0.3845316469669342, -0.053509537130594254, 0.10955915600061417, 0.3725738823413849, -0.28968045115470886, -0.10883618891239166, 0.19628790020942688,
0.09746792912483215, -0.005647096782922745, -0.13035884499549866, 0.6254252195358276, 0.19104234874248505, -0.011692332103848457, -0.27067890763282776, -0.030754156410694122, 0.029875505715608597,
0.016808750107884407, -0.1831790804862976, -0.16016070544719696, 0.3598291277885437, -0.1889011114835739, -0.22343340516090393, -0.11111768335103989, 0.3221142590045929, -0.18514074385166168,
-0.06647012382745743, 0.1800554096698761, -0.0356597937643528, -0.25352174043655396, -0.18370479345321655, 0.2839542329311371, 0.0030237233731895685, 0.24072711169719696, -0.1435547173023224,
0.0474187433719635, -0.03221237286925316, -0.08801338076591492, 0.2959175109863281, 0.04108741134405136, -0.103544220328331, -0.11681117117404938, -0.010267493315041065, 0.023703521117568016,

-0.043954458087682724, 0.0953388437628746, 0.12233797460794449, -0.0521148182451725, 0.068812295794487, 0.0576486811041832, 0.08686650544404984, -0.12001238018274307, 0.02353638783097267,
-0.022270673885941505, -0.06377912312746048, 0.010644146241247654, -0.27824145555496216, -0.23719865083694458, -0.21418367326259613, -0.09665020555257797, 0.10458534955978394, 0.06599418818950653,
-0.031174281612038612, -0.03465353325009346, 0.022143816575407982, -0.24322354793548584, -0.08923598378896713, -0.02724810689687729, -0.09314896911382675, -0.03740973770618439, 0.07819665223360062,
0.12521375715732574, 0.11189836263656616, 0.34981977939605713, 0.24303556978702545, 0.21350803971290588, 0.3712073266506195, 0.12192775309085846, -0.15492133796215057, 0.01884031854569912,
-0.08351074159145355, -0.305499792098999, -0.11462165415287018, -0.11833594739437103, -0.35027629137039185, -0.007749142590910196, -0.05184945464134216, -0.14423955976963043, -0.04047594219446182,
0.18357796967029572, 0.16708122193813324, 0.0748625323176384, 0.17892862856388092, 0.12331069260835648, 0.16825254261493683, -0.040668703615665436, 0.12498869001865387, 0.12445469200611115,
-0.08529794961214066, -0.23087382316589355, -0.2426449954509735, -0.003364269156008959, -0.019013511016964912, 0.007406715769320726, -0.09762480109930038, 0.09727375954389572, -0.14308449625968933,
0.20924511551856995, 0.047315631061792374, 0.17839451134204865, 0.20142769813537598, -0.2138431817293167, -0.16858182847499847, 0.07769212126731873, 0.11478294432163239, 0.002249526558443904,
-0.09524660557508469, -0.11904185265302658, -0.1190405860543251, 0.1193549856543541, 0.040786921977996826, -0.07873278856277466, 0.19328512251377106, -0.06008544936776161, -0.03619224950671196,

-0.03508936986327171, -0.02129603736102581, 0.04467615857720375, 0.0351480171084404, 0.047732554376125336, -0.036008983850479126, -0.09819480776786804, -0.07464613020420074, 0.16331301629543304,
0.05766148120164871, -0.06068359687924385, 0.023710887879133224, 0.04077879339456558, 0.0195282194763422, -0.04709528759121895, -0.0026468061842024326, 0.01308137271553278, -0.04843336343765259,
-0.05547124147415161, -0.007511544041335583, -0.0018498365534469485, 0.006324829533696175, 0.08334493637084961, -0.03534594178199768, -0.05873340740799904, -0.11714734137058258, -0.049685098230838776,
-0.01065769698470831, 0.08840381354093552, 0.06828710436820984, 0.020970111712813377, 0.2620500922203064, 0.11938150972127914, 0.04214100167155266, -0.0640568658709526, -0.04790668934583664,
0.05482594668865204, 0.07402177155017853, 0.21512433886528015, 0.25780582427978516, 0.42716339230537415, 0.18216213583946228, 0.12531153857707977, 0.10390171408653259, -0.010482890531420708,
-0.07587306201457977, -0.01289812009781599, 0.10065701603889465, 0.07373074442148209, 0.15948989987373352, -0.08611098676919937, 0.00668379059061408, 0.10756229609251022, -0.10216449201107025,
-0.12100939452648163, 0.009513840079307556, 0.04604566842317581, 0.06705893576145172, 0.21903297305107117, 0.026905395090579987, 0.005323861725628376, 0.0006765045691281557, -0.04283676669001579,
-0.025259271264076233, -0.009707702323794365, -0.0009789661271497607, 0.04325764626264572, 0.0880921259522438, 0.018156062811613083, -0.012795506976544857, -0.10799489170312881, 0.04463301599025726,
0.135641410946846, 0.03334195539355278, -0.12862707674503326, -0.13122200965881348, -0.009230302646756172, -0.01939813420176506, -0.005852208007127047, -0.05510852858424187, -0.039392534643411636,

0.03604253754019737, -0.017754223197698593, 0.012287494726479053, 0.08819247782230377, -0.04256458953022957, -0.08412624895572662, 0.0034042259212583303, 0.0951397642493248, -0.019551629200577736,
-0.09674753248691559, 0.18024282157421112, -0.08090511709451675, -0.2444406896829605, 0.006856921128928661, 0.13041719794273376, 0.025669438764452934, -0.239430770277977, 0.0447552353143692,
-0.0160992369055748, -0.1801433265209198, -0.1196504458785057, 0.15631894767284393, 0.23565492033958435, -0.016446923837065697, 0.08860990405082703, 0.03030352108180523, 0.03708450496196747,
0.20704922080039978, -0.30848193168640137, 0.29852479696273804, 0.5171792507171631, 0.008160743862390518, -0.3112908899784088, -0.12307851761579514, 0.23214605450630188, -0.03460124507546425,
-0.053407326340675354, 0.1022569090127945, 0.21641655266284943, -0.00649402616545558, -0.25075840950012207, -0.20448848605155945, 0.05053631216287613, 0.12135548144578934, -0.24142836034297943,
-0.2844122350215912, 0.33926066756248474, -0.18576817214488983, -0.49420735239982605, -0.09703129529953003, 0.003108662785962224, 0.15142951905727386, -0.08352979272603989, 0.115256167948246,
0.15754960477352142, 0.11142445355653763, 0.0034580992069095373, -0.17606016993522644, 0.16817983984947205, 0.09105344116687775, 0.0391756035387516, -0.09479036927223206, 0.05635075643658638,
0.025231560692191124, -0.24550069868564606, 0.06336600333452225, 0.16318576037883759, 0.2175760567188263, -0.10586289316415787, -0.08236701786518097, 0.06969913840293884, -0.02470541186630726,
-0.05397476255893707, 0.1786981225013733, -0.02780720219016075, -0.1967526525259018, -0.10373450070619583, 0.00851354282349348, 0.1325003206729889, -0.04592644423246384, -0.0030838586390018463,

-0.04047795757651329, 0.049372006207704544, -0.13666890561580658, 0.1378665715456009, -0.13875751197338104, 0.2965521812438965, 0.17230957746505737, -0.1306699514389038, -0.04865024611353874,
0.04459606111049652, -0.03141403943300247, 0.03123670630156994, 0.14699892699718475, -0.48831430077552795, -0.44782617688179016, -0.32052814960479736, 0.2229323387145996, 0.1162572130560875,
0.03055264800786972, -0.1319550722837448, -0.09584920108318329, 0.0705055445432663, -0.14855937659740448, 0.10478757321834564, -0.16068053245544434, -0.1229013130068779, -0.1337907612323761,
0.024233104661107063, 0.23596088588237762, -0.02100684866309166, 0.18905019760131836, 0.5085715055465698, 0.6372939348220825, 0.21577122807502747, 0.011278441175818443, 0.18822115659713745,
-0.15459269285202026, -0.0407223254442215, -0.10378250479698181, -0.20680242776870728, -0.00483810156583786, -0.08054018765687943, -0.20550838112831116, -0.1687704175710678, -0.13454553484916687,
0.2471650391817093, -0.055626824498176575, 0.2678316533565521, -0.060780562460422516, -0.303755521774292, -0.16147832572460175, 0.13623715937137604, 0.2936753034591675, 0.047969236969947815,
-0.030661728233098984, -0.3058367073535919, -0.08003056794404984, 0.10655707865953445, -0.018742285668849945, 0.0358792282640934, -0.025629207491874695, -0.11310984939336777, -0.14455994963645935,
0.04050181433558464, 0.28120800852775574, -0.05849621072411537, 0.09595921635627747, -0.004120929166674614, 0.14832600951194763, 0.051878951489925385, -0.024979719892144203, 0.12018022686243057,
-0.05971016362309456, -0.02700062096118927, -0.15200918912887573, 0.17205531895160675, -0.10738909244537354, -0.04203944280743599, -0.051565732806921005, 0.04735837131738663, -0.020336713641881943,

0.07923562824726105, 0.0198534969240427, 0.048436764627695084, -0.002480322029441595, -0.030445646494627, 0.043048497289419174, -0.0205036923289299, -0.06609753519296646, 0.12097517400979996,
0.0073249018751084805, -0.1222478523850441, -0.05323218181729317, -0.05764566361904144, -0.02026738040149212, -0.02420945279300213, -0.0054551986977458, 0.009971958585083485, 0.02396593615412712,
-0.00814845971763134, -0.005118967965245247, 0.021225877106189728, -0.00796600803732872, 0.08807612955570221, 0.014100071974098682, -0.025872008875012398, -0.07725587487220764, 0.03290954977273941,
0.03431324660778046, 0.09776207059621811, 0.13437990844249725, 0.05204648897051811, 0.2355445921421051, 0.1828816831111908, 0.09693129360675812, -0.05040072277188301, -0.04832229018211365,
-0.09905002266168594, -0.007481470704078674, 0.19846895337104797, 0.14758875966072083, 0.23091012239456177, 0.1373375654220581, 0.13091282546520233, 0.09288259595632553, -0.0527421310544014,
-0.1716664880514145, -0.0430670902132988, 0.14391253888607025, 0.03829243406653404, 0.08738404512405396, -0.02923797443509102, 0.06396066397428513, 0.12762053310871124, -0.028018195182085037,
-0.1265193074941635, 0.024751774966716766, 0.10589214414358139, 0.09887334704399109, 0.24562613666057587, 0.1253046840429306, 0.061612073332071304, -0.024125540629029274, 0.007247811183333397,
-0.047855667769908905, 0.013432897627353668, 0.03482811152935028, 0.077229805290699, 0.10088468343019485, 0.044684406369924545, -0.02041577361524105, -0.15163108706474304, -0.0034704350400716066,
0.1224449947476387, 0.039203088730573654, -0.06930789351463318, -0.015424877405166626, -0.016137346625328064, -0.04581397399306297, 0.013485562987625599, 0.02408866584300995, 0.01687670312821865,

0.12519507110118866, -0.041654638946056366, 0.03898311033844948, -0.22598722577095032, -0.09394078701734543, 0.1919124722480774, 0.029383260756731033, 0.10377474129199982, -0.2492591291666031,
-0.043930936604738235, -0.3671221435070038, 0.3154682517051697, 0.36849597096443176, 0.03571537509560585, -0.22950607538223267, -0.32223397493362427, 0.11626888066530228, 0.36967718601226807,
0.07823024690151215, -0.03394254669547081, -0.16880908608436584, -0.10228093713521957, 0.10619838535785675, 0.18821090459823608, 0.23802940547466278, -0.3408791124820709, -0.07126303762197495,
0.061694081872701645, 0.4341343641281128, 0.018764551728963852, -0.5168696641921997, -0.18586228787899017, 0.023195838555693626, 0.41148796677589417, -0.16325277090072632, -0.04624730721116066,
-0.24675504863262177, -0.24047937989234924, 0.5096768140792847, -0.11603347212076187, -0.16423484683036804, -0.4146907329559326, 0.03169603273272514, 0.2864610254764557, -0.04983063042163849,
0.28279417753219604, -0.529873788356781, 0.44762998819351196, 0.38769611716270447, 0.10861404985189438, -0.451587438583374, -0.280461847782135, 0.25342127680778503, -0.006180415395647287,
0.061705078929662704, -0.42082899808883667, -0.3081591725349426, 0.3025337755680084, 0.429571270942688, 0.21554873883724213, 0.13188275694847107, -0.20662707090377808, -0.04069284722208977,
0.12084224075078964, 0.5464516878128052, -0.07281342148780823, -0.3835149109363556, -0.27153536677360535, -0.07571228593587875, 0.18072815239429474, -0.09978610277175903, -0.018040550872683525,
-0.06959383934736252, -0.3904227018356323, 0.31299376487731934, 0.034528203308582306, 0.02515311911702156, 0.10656317323446274, -0.11172980815172195, 0.03748366981744766, 0.047296296805143356,

0.09683134406805038, -0.0490269660949707, -0.037623628973960876, 0.10789167135953903, -8.220049494411796e-06, -0.14363789558410645, -0.16596809029579163, -0.08668889105319977, 0.18112757802009583,
0.18681281805038452, -0.03149910271167755, 0.04626822471618652, 0.180941641330719, 0.13341115415096283, -0.00802976917475462, -0.01218352746218443, 0.017653124406933784, -0.14602351188659668,
0.026090171188116074, -0.028547901660203934, 0.028874900192022324, 0.05083140358328819, 0.020649630576372147, -0.08328215032815933, -0.023062726482748985, 0.010069028474390507, -0.12333136796951294,
0.053707439452409744, -0.0324716679751873, -0.03936217725276947, -0.08829819411039352, -0.1376572996377945, -0.11359868198633194, 0.0130832614377141, 0.022561145946383476, 0.132071852684021,
0.136616051197052, 0.04625130817294121, 0.0588667057454586, 0.0007978741195984185, -0.012749897316098213, -0.010349061340093613, 0.07410106062889099, 0.07395953685045242, 0.18698151409626007,
-0.04733249172568321, 0.048088040202856064, 0.0830550268292427, 0.030247695744037628, 0.06644177436828613, 0.012841179966926575, 0.03576447069644928, 0.021402418613433838, 0.06981246918439865,
-0.25763800740242004, -0.04209354147315025, 0.006816637236624956, 0.05338362976908684, 0.08177036046981812, 0.05133795365691185, 0.1127142459154129, 0.017543654888868332, 0.07357458770275116,
-0.08409541845321655, -0.034381840378046036, 0.0006349623436108232, 0.10339710861444473, 0.034956417977809906, -0.05212416872382164, -0.012170637957751751, -0.06977469474077225, 0.07710030674934387,
0.19582803547382355, -0.11509156227111816, -0.06393624097108841, 0.06701605021953583, 0.034070633351802826, 0.023426907137036324, -0.012323208153247833, -0.004050432704389095, 0.0735023096203804,

-0.050630632787942886, 0.08542390912771225, -0.0671345442533493, -0.01851995475590229, -0.3399946689605713, 0.059590741991996765, 0.02107023261487484, 0.021752946078777313, -0.06753665208816528,
0.010389531962573528, -0.11542703211307526, -0.0027277180925011635, 0.10986809432506561, 0.26090121269226074, 0.15581563115119934, -0.10301733762025833, 0.017184121534228325, 0.03874387592077255,
0.10182108730077744, -0.04267549142241478, -0.052380189299583435, 0.14567996561527252, 0.22389087080955505, 0.018040284514427185, -0.12593504786491394, 0.10430043935775757, -0.03315733000636101,
-0.14966940879821777, 0.16408929228782654, -0.05998832359910011, -0.015550674870610237, -0.46872779726982117, 0.008157094940543175, 0.011156035587191582, -0.0006008691270835698, 0.0005489904433488846,
-0.2431062012910843, 0.3261091411113739, 0.21652723848819733, -0.22604592144489288, -0.9168027639389038, -0.17663948237895966, 0.21353387832641602, 0.32204127311706543, -0.220024973154068,
0.0037586877588182688, 0.029378486797213554, 0.05196898803114891, 0.007423775736242533, -0.32089659571647644, -0.15943418443202972, -0.08669042587280273, 0.17428545653820038, -0.2017044574022293,
0.11773359775543213, -0.09072963893413544, -0.18743669986724854, 0.11423009634017944, 0.19110383093357086, 0.043780069798231125, -0.01969584822654724, 0.03457418084144592, 0.10652895271778107,
-0.0077469912357628345, 0.057167161256074905, -0.07428690791130066, 0.10680720210075378, 0.23509608209133148, 0.11014974117279053, 0.005297536496073008, -0.09246116131544113, 0.08342938125133514,
-0.05754890292882919, 0.0387006439268589, 0.04286401718854904, 0.004276377614587545, -0.28811076283454895, -0.012603707611560822, 0.029502470046281815, 0.06630267202854156, -0.04321223124861717,

-0.04078223183751106, -0.12889280915260315, 0.00378090119920671, -0.04499083012342453, -0.17399507761001587, -0.0889720693230629, -0.0762118324637413, -0.13595382869243622, 0.1422111839056015,
0.14240193367004395, -0.029453754425048828, 0.1309717893600464, 0.11728502064943314, 0.056849636137485504, 0.10260996967554092, 0.1364084780216217, 0.06682252138853073, 0.041533179581165314,
-0.06190625578165054, -0.03482181206345558, 0.13024269044399261, 0.08779320120811462, -0.009105866774916649, -0.08456816524267197, -0.021619636565446854, -0.0503055639564991, -0.056489184498786926,
-0.07594376057386398, 0.09475210309028625, 0.19542919099330902, 0.13114997744560242, 0.011391323991119862, -0.14203785359859467, -0.05326744168996811, -0.05350463092327118, 0.03762698918581009,
-0.11648685485124588, 0.07287167757749557, 0.15281938016414642, 0.12073400616645813, 0.12067076563835144, -0.0056082638911902905, 0.04571988061070442, 0.024191811680793762, 0.048591308295726776,
-0.17068271338939667, -0.05672881007194519, -0.012579147703945637, -0.09227554500102997, 0.02230173908174038, 0.0004932500305585563, 0.00950812827795744, 0.0031514225993305445, -0.00889667496085167,
-0.05413658916950226, 0.047616228461265564, 0.06174631789326668, 0.02442876808345318, 0.12186183035373688, 0.09169657528400421, 0.047002628445625305, -0.0075267525389790535, 0.01986403949558735,
-0.01424704771488905, 0.0007475072052329779, 0.0003156432358082384, 0.04763738438487053, 0.06383068859577179, 0.003278251737356186, -0.01552825327962637, -0.09433456510305405, -0.008774847723543644,
0.11492444574832916, -0.08672236651182175, -0.13945794105529785, -0.11357706785202026, -0.06397917866706848, 0.005938075017184019, 0.03685227036476135, 0.007383051328361034, 0.01781647838652134,

0.12231902033090591, -0.1332593411207199, 0.025870023295283318, 0.10824725776910782, 0.10331027209758759, 0.25639644265174866, -0.059610120952129364, -0.10638877749443054, 0.003959098365157843,
-0.11812649667263031, -0.04782481864094734, 0.1282173991203308, -0.04403266683220863, -0.2635486125946045, 0.09152621030807495, 0.19478914141654968, 0.2014356553554535, -0.06887999176979065,
0.09494968503713608, 0.0008627189672552049, 0.11727812886238098, -0.10687321424484253, -0.4276202321052551, -0.22730430960655212, -0.24313688278198242, -0.06356537342071533, -0.05558193847537041,
0.03284458443522453, -0.14488743245601654, -0.06454713642597198, 0.035593390464782715, 0.1627628654241562, 0.4332711398601532, -0.03525981679558754, 0.07995440810918808, 0.32160332798957825,
-0.02787955291569233, 0.06924286484718323, -0.02763601392507553, -0.07363066077232361, 0.0028215220663696527, 0.1994757354259491, -0.3216938376426697, -0.2148716002702713, -0.022139549255371094,
0.04032602161169052, 0.1799757331609726, 0.10570091009140015, 0.06988003104925156, -0.03948461636900902, -0.012861414812505245, -0.1395958960056305, 0.05889321118593216, -0.02811681292951107,
-0.10384295135736465, -0.1494208127260208, -0.15001268684864044, 0.004614438395947218, -0.09650319069623947, -0.03012348897755146, 0.07189778983592987, 0.15020400285720825, 0.008814077824354172,
0.03591006621718407, 0.021772446110844612, 0.005769453477114439, 0.09402872622013092, 0.015208454802632332, 0.09444975107908249, 0.027698298916220665, -0.0674431249499321, -0.07676154375076294,
0.014581595547497272, -0.0036740561481565237, 0.06329377740621567, -0.054385025054216385, -0.05358858034014702, 0.028128311038017273, -0.09020408242940903, 0.06944200396537781, 0.014859440736472607,

-0.005160152446478605, 0.01375893410295248, 0.062362246215343475, 0.10193950682878494, 0.05305499583482742, -0.2313140481710434, -0.22592732310295105, 0.03434952720999718, 0.13069109618663788,
-0.10505129396915436, 0.055356789380311966, -0.026555435732007027, -0.016221890226006508, -0.0673375278711319, 0.29508867859840393, 0.2490212768316269, -0.04586341232061386, -0.13178391754627228,
-0.0017491007456555963, -0.10163252055644989, -0.19645392894744873, -0.2106999158859253, -0.3647651672363281, 0.1470862478017807, 0.13710150122642517, -0.030172884464263916, 0.04172680154442787,
0.23463378846645355, 0.12248606234788895, 0.16099709272384644, 0.2875089645385742, 0.06577456742525101, -0.04996803030371666, -0.16703690588474274, -0.11296173930168152, 0.032325565814971924,
-0.194684699177742, -0.19403424859046936, -0.1389089971780777, 0.2883749306201935, 0.175620898604393, 0.05886877328157425, -0.15678346157073975, -0.20327216386795044, 0.2553490400314331,
-0.03820692375302315, 0.10567138344049454, -0.055865220725536346, 0.048038050532341, 0.03708084300160408, 0.3200385868549347, 0.10980627685785294, -0.15385061502456665, 0.028807630762457848,
0.15568581223487854, 0.17938005924224854, -0.07448218762874603, -0.2856184244155884, -0.35392215847969055, -0.023577706888318062, -0.03370700031518936, 0.010182502679526806, 0.014598316513001919,
0.04377548396587372, -0.13170590996742249, -0.039992351084947586, 0.03889957070350647, -0.09751184284687042, -0.05208892747759819, 0.010670154355466366, 0.053134288638830185, -0.0034348545596003532,
-0.17609059810638428, 0.0654265433549881, 0.10833371430635452, 0.12016133219003677, 0.2053433358669281, 0.022898679599165916, -0.005226183217018843, -0.041576020419597626, -0.01749270036816597,

0.04755033180117607, 0.02835986763238907, -0.09969023615121841, 0.05305624380707741, 0.0671200305223465, -0.02495085448026657, 0.09633297473192215, 0.1224144771695137, 0.06672052294015884,
-0.14968997240066528, 0.006965477950870991, -0.0101174246519804, 0.1153266578912735, 0.070655457675457, -0.059816814959049225, 0.056025292724370956, 0.11349499225616455, -0.07753042131662369,
0.00633694464340806, 0.11751654744148254, 0.026646621525287628, 0.056598562747240067, 0.023606441915035248, -0.10963784903287888, -0.042333852499723434, 0.061614494770765305, 0.005725272931158543,
0.02671220153570175, 0.011555863544344902, -0.1333906203508377, -0.12263333052396774, -0.053668566048145294, -0.09383269399404526, -0.02531207539141178, 0.04083413630723953, 0.11758150905370712,
0.06897315382957458, 0.09025383740663528, -0.048477206379175186, -0.04428590089082718, -0.00994509644806385, -0.08149151504039764, -0.015064210630953312, 0.008549756370484829, 0.05929453298449516,
0.08121351897716522, 0.18622539937496185, 0.024635188281536102, 0.05900023132562637, 0.06015000864863396, -0.04819020256400108, 0.056722432374954224, 0.008928965777158737, -0.04534973204135895,
0.03157646209001541, 0.07381211221218109, -0.10185391455888748, 0.007117577362805605, 0.0659014955163002, 0.03364647552371025, 0.1454240083694458, 0.040063224732875824, -0.019146164879202843,
0.041676461696624756, 0.011365608312189579, -0.09844156354665756, -0.0134221026673913, -0.03245968744158745, -0.0808059424161911, -0.006428427528589964, -0.05743950605392456, -0.08071335405111313,
-0.07342201471328735, -0.04317256808280945, 0.051688309758901596, 0.18833208084106445, 0.03716733306646347, -0.10183736681938171, -0.03289051353931427, 0.004819261375814676, -0.027331547811627388,

0.11519625782966614, -0.10764797031879425, -0.030568554997444153, -0.020863555371761322, -0.07997738569974899, -0.12052356451749802, -0.05828532204031944, -0.1472300887107849, -0.06770514696836472,
-0.01562062930315733, 0.015726376324892044, 0.1413108855485916, 0.11010552197694778, 0.04810444265604019, 0.07543331384658813, 0.0912747010588646, 0.08718889206647873, 0.2342718243598938,
-0.14150191843509674, -0.009130681864917278, -0.038059089332818985, 0.01774609461426735, 0.12451276183128357, 0.10040413588285446, -0.023616507649421692, -0.07792382687330246, -0.04633943736553192,
0.08530189096927643, 0.1388300657272339, -0.06484226137399673, -0.0574176125228405, -0.005594234447926283, -0.04882295802235603, 0.0208494383841753, 0.11939211934804916, 0.0362018346786499,
0.013776280917227268, -0.05286431312561035, -0.12257250398397446, -0.0317244753241539, -0.15581031143665314, -0.3350363075733185, -0.17516198754310608, 0.05554129555821419, -0.0686616599559784,
0.05185200646519661, 0.010789181105792522, 0.09104238450527191, 0.24157585203647614, 0.14322906732559204, -0.06151513382792473, 0.035073213279247284, 0.2104591578245163, -0.013173309154808521,
-0.027040261775255203, -0.08000551909208298, -0.046120285987854004, 0.02919718250632286, -0.012629073113203049, -0.10132584720849991, -0.017108483240008354, 0.11031834781169891, -0.0014046418946236372,
0.06428524851799011, 0.025128263980150223, -0.012446816079318523, -0.004635910969227552, -0.1081504076719284, -0.22872592508792877, -0.05087840557098389, 0.07903845608234406, 0.007435936946421862,
-0.026907602325081825, 0.03015039674937725, -0.003209742484614253, -0.007098188158124685, -0.02275368571281433, -0.11266212910413742, 0.08625403791666031, 0.11682000011205673, -0.1131199449300766,

0.1638965606689453, 0.08308251202106476, 0.044147979468107224, 0.0804295688867569, 0.06370081752538681, -0.10228355973958969, -0.10279213637113571, -0.11453505605459213, -0.13203175365924835,
-0.1876012235879898, -0.263865202665329, -0.004500165581703186, 0.06932093948125839, 0.12449021637439728, 0.14221718907356262, 0.3287881910800934, 0.3420238494873047, 0.08183267712593079,
0.21325354278087616, -0.22493533790111542, -0.12725761532783508, 0.09147705882787704, 0.1290125548839569, -0.030734121799468994, -0.27371203899383545, -0.10408978164196014, 0.14720973372459412,
0.10748197883367538, -0.1599961668252945, -0.05009974539279938, -0.08701540529727936, -0.20689280331134796, 0.07116125524044037, -0.2347627431154251, -0.26232045888900757, -0.013499017804861069,
0.025579001754522324, -0.2004159539937973, 0.2018989771604538, 0.09299933165311813, -0.11280879378318787, 0.39264678955078125, 0.0753006786108017, -0.12662969529628754, 0.06762414425611496,
0.15581151843070984, -0.18859748542308807, 0.13877420127391815, -0.019523711875081062, -0.09793340414762497, 0.18235981464385986, -0.16306428611278534, -0.08839341253042221, 0.11948712915182114,
-0.05991736426949501, -0.14886321127414703, 0.09461961686611176, -0.08510956168174744, -0.13966059684753418, 0.24795463681221008, 0.11794982105493546, 0.05069331079721451, -0.012114989571273327,
0.04457290470600128, -0.04815959185361862, 0.1882898360490799, 0.1909743845462799, -0.28103575110435486, -0.0955992266535759, -0.024672048166394234, -0.08950752019882202, -0.1380532830953598,
0.0033542094752192497, -0.05668618530035019, -0.08821909874677658, -0.06438030302524567, 0.06170225515961647, 0.20625977218151093, -0.1312813013792038, 0.13963045179843903, 0.028703266754746437,

-0.04330714792013168, 0.047828178852796555, 0.02259783074259758, 0.028202934190630913, 0.11306528747081757, 0.04620766639709473, 0.03325071558356285, 0.013018330559134483, -0.030188586562871933,
-0.09428548812866211, 0.008304737508296967, -0.012987429276108742, -0.014564705081284046, -0.017758160829544067, -0.08705758303403854, -0.007289479952305555, 0.03306053951382637, -0.0745755285024643,
-0.04534974694252014, 0.09827587753534317, 0.011266577057540417, 0.014672774821519852, 0.08231431990861893, -0.03596215322613716, -0.06713400781154633, -0.05937987565994263, 0.013066737912595272,
0.0018231334397569299, 0.06210479512810707, -0.022566145285964012, -0.016408411785960197, 0.2281709462404251, 0.10552603006362915, -0.002925910521298647, -0.07945609092712402, -0.038855068385601044,
0.04577802121639252, 0.04221392795443535, 0.0668831318616867, 0.15467569231987, 0.31194326281547546, 0.12416514754295349, 0.07539507746696472, 0.05988781899213791, 0.03964969143271446,
-0.0502743236720562, 0.008425815962255001, -0.016213499009609222, 0.038200847804546356, 0.09047190845012665, -0.12545324862003326, -0.01555199921131134, 0.053054459393024445, -0.04037122800946236,
-0.046121809631586075, 0.02309240587055683, -0.06815005838871002, 0.019335538148880005, 0.14722861349582672, -0.034557852894067764, -0.009797059930860996, 0.008686223067343235, -0.02284996584057808,
-0.032456208020448685, 0.005591321736574173, -0.040950026363134384, 0.013277396559715271, 0.06872589141130447, -0.008198446594178677, -0.0033175325952470303, -0.021463187411427498, 0.024988390505313873,
-0.10292976349592209, 0.05840924382209778, -0.014231771230697632, -0.009959504008293152, 0.05161023512482643, -0.03409617766737938, 0.008187868632376194, 0.04731370136141777, 0.048039115965366364,

0.0802970826625824, -0.04051158204674721, 0.04360191896557808, 0.05865092575550079, -0.1622205376625061, -0.024287313222885132, 0.0836285799741745, 0.06500931084156036, -0.05659390985965729,
-0.2624095678329468, 0.13464407622814178, -0.18771032989025116, 0.11550064384937286, 0.16735835373401642, 0.11418536305427551, 0.04208488389849663, -0.28944122791290283, 0.19866064190864563,
0.1005323976278305, 0.349872350692749, -0.06771906465291977, 0.07137097418308258, 0.16644106805324554, -0.13974255323410034, 0.027255967259407043, 0.08780799806118011, -0.04396819323301315,
-0.043444134294986725, -0.15180604159832, 0.0619785338640213, 0.017747757956385612, -0.034784309566020966, -0.44199270009994507, -0.18068085610866547, 0.30195340514183044, -0.1637018322944641,
0.10270186513662338, 0.04544973373413086, 0.2248280793428421, -0.12152138352394104, 0.010336581617593765, -0.01738337054848671, 0.055105287581682205, 0.1704106330871582, -0.042338646948337555,
-0.19112332165241241, 0.03816298022866249, -0.04613948240876198, -0.49528568983078003, -0.05306403338909149, 0.18114855885505676, 0.04686790704727173, -0.20611685514450073, 0.05648867040872574,
0.12168501317501068, 0.028137346729636192, 0.0594622865319252, -0.14465802907943726, 0.09685065597295761, 0.07187637686729431, 0.1801527738571167, -0.043932389467954636, -0.058578118681907654,
-0.024302706122398376, -0.2215542495250702, 0.12393766641616821, 0.25892123579978943, 0.18990910053253174, -0.2777440547943115, -0.09749724715948105, 0.09521270543336868, 0.08916869014501572,
0.0026095544453710318, 0.11813537031412125, -0.009317749179899693, -0.22345435619354248, -0.049469027668237686, 0.06460578739643097, 0.06491654366254807, -0.039918966591358185, -0.06013340875506401,

-0.0022389348596334457, 0.07565576583147049, -0.07352778315544128, 0.06510433554649353, -0.12369297444820404, 0.014344852417707443, 0.03208686411380768, 0.09831662476062775, 0.03037380240857601,
0.061919935047626495, -0.013876724056899548, -0.15071509778499603, 0.034635160118341446, 0.04767913743853569, 0.13710123300552368, -0.09395329654216766, -0.06332149356603622, -0.08442047983407974,
-0.08935949951410294, 0.01231801975518465, 0.07064413279294968, 0.14218099415302277, 0.11146871745586395, 0.2414155900478363, -0.20935581624507904, -0.16613058745861053, -0.01560592744499445,
0.019988715648651123, 0.06758933514356613, -0.0719168558716774, -0.01236981712281704, -0.10486599057912827, 0.17582540214061737, -0.1299474686384201, -0.04703458026051521, 0.15262652933597565,
0.07538525015115738, 0.11724765598773956, -0.1910475194454193, -0.014827147126197815, -0.22970618307590485, 0.11626717448234558, -0.01903100498020649, -0.041880253702402115, 0.06078922003507614,
-0.02890881896018982, 0.04699661582708359, -0.26935461163520813, 0.1876785308122635, -0.14111796021461487, 0.2596698999404907, 0.10678144544363022, -0.18526306748390198, -0.0190057884901762,
0.09745893627405167, -0.05590953305363655, -0.08272332698106766, 0.31723424792289734, -0.0658387690782547, 0.09415221959352493, -0.07164923846721649, -0.06966632604598999, 0.02662808448076248,
-0.19949419796466827, -0.0246206633746624, 0.21311849355697632, 0.2718130350112915, 0.01648002304136753, -0.1393970400094986, -0.34433266520500183, 0.001598656876012683, 0.0038846421521157026,
0.051192447543144226, 0.1691122204065323, -0.2610856890678406, -0.07406745105981827, -0.029053758829832077, 0.13458499312400818, 0.11526892334222794, -0.03541361168026924, 0.056526754051446915,

0.002176720881834626, -0.0005761379143223166, 0.0005373261519707739, 0.00019933497242163867, 0.0013520611682906747, 0.0007539301295764744, -0.0001342654722975567, -0.0011657949071377516, 0.0012583840871229768,
0.0005933881038799882, -0.0017465304117649794, -0.001484010019339621, 0.00039301998913288116, -0.0004645275475922972, -0.0016878750175237656, 0.0002233775012427941, -0.001029559294693172, -0.0009793323697522283,
-0.0006459116702899337, -0.0021235670428723097, -0.00032014321186579764, -0.0012910895748063922, 0.0002855791535694152, 2.8073684006812982e-05, -7.394276326522231e-05, -5.34655264345929e-05, -0.00032978097442537546,
-0.0003956406144425273, -0.0008609459619037807, 0.001455773483030498, 0.0010776156559586525, 0.0011523488210514188, 0.00021282589295879006, -0.0011867907596752048, -0.0007682160357944667, -0.00032176540116779506,
-5.27907905052416e-05, 0.00013192533515393734, -0.0010120510123670101, 8.375827746931463e-05, -0.0008451887406408787, -0.0004846166411880404, 0.0008424000116065145, 0.00021478746202774346, -0.0005068618338555098,
-0.002082191640511155, -0.0006638173945248127, -0.0008866858552210033, -0.0006656062905676663, 0.00026315945433452725, 0.0006128559471108019, -0.0025304651353508234, 0.0015004959423094988, 0.00043555640149861574,
-0.0018750375602394342, 0.0002780657378025353, 0.0007915541646070778, 0.000905690947547555, -7.55542641854845e-05, -8.375364996027201e-05, 0.0005546159227378666, 0.0028697361703962088, -0.0006116626900620759,
0.00037985286326147616, -0.0023933311458677053, 0.0007050145650282502, 0.0002475101500749588, -0.0005008446169085801, 0.0007629976025782526, -0.00047074357280507684, 0.00195360672660172, -0.0003873295499943197,
-0.00015744158008601516, -0.0015861615538597107, -0.0007085212273523211, 0.00038756319554522634, -0.0016021300107240677, -0.0005903082783333957, 0.00042594975093379617, -0.0003776818630285561, -0.0018262226367369294,

-0.054790906608104706, 0.2536484897136688, -0.27960002422332764, 0.10039357095956802, -0.12157637625932693, 0.20832301676273346, 0.18832406401634216, 0.058016110211610794, -0.19121704995632172,
0.07001335173845291, 0.011789658106863499, -0.14975960552692413, 0.32273632287979126, -0.4436017572879791, -0.171577587723732, -0.1372644156217575, -0.3071932792663574, 0.38878709077835083,
-0.15567609667778015, 0.1787453144788742, -0.19251511991024017, 0.1917136162519455, -0.014789951965212822, 0.25968435406684875, -0.03754926845431328, -0.2848123610019684, 0.04102560505270958,
-0.19286713004112244, 0.42374134063720703, -0.14859318733215332, -0.024421747773885727, 0.21294380724430084, 0.6637654900550842, 0.01166415773332119, -0.20433177053928375, 0.0004903928493149579,
-0.10848186165094376, 0.20892439782619476, -0.14281906187534332, -0.3483707904815674, -0.5034167766571045, 0.3756079375743866, 0.1145843118429184, -0.4429202973842621, 0.05628497153520584,
0.0797097459435463, -0.023797867819666862, 0.10833027213811874, 0.18675033748149872, -0.2089790254831314, 0.04415358230471611, 0.25636789202690125, -0.1085459291934967, 0.14499802887439728,
0.03994300961494446, -0.043282948434352875, -0.20615562796592712, 0.09225345402956009, 0.08605579286813736, -0.21106603741645813, -0.07366359978914261, 0.05395741015672684, -0.047547996044158936,
-0.1271095871925354, 0.2529429793357849, -0.09454374760389328, 0.025951437652111053, 0.0771566703915596, 0.17352186143398285, 0.044705767184495926, -0.06119989976286888, -0.039735082536935806,
0.010745588690042496, 0.02310154214501381, -0.06094783544540405, 0.048681072890758514, -0.20067468285560608, 0.08646697551012039, 0.03963540866971016, -0.13203775882720947, 0.08694609999656677,

-0.09722302109003067, 0.03210695460438728, -0.07559206336736679, -0.012425316497683525, 0.09689220786094666, -0.07424142956733704, -0.023912370204925537, 0.045455969870090485, -0.08255463093519211,
-0.13820241391658783, 0.05437605455517769, -0.02811860293149948, -0.01956179551780224, -0.04275551065802574, -0.09518728405237198, 0.0649702250957489, 0.15782667696475983, -0.06812569499015808,
-0.031783927232027054, 0.14993485808372498, 0.018872646614909172, 0.04746113717556, 0.05827770754694939, -0.039790987968444824, -0.010545185767114162, 0.03882989659905434, 0.04108560457825661,
-0.01779293827712536, 0.04831157997250557, -0.06487990915775299, -0.016816694289445877, 0.1503911018371582, 0.008327034302055836, -0.05022227019071579, -0.047379978001117706, 0.013194894418120384,
0.08495984971523285, 0.0397963710129261, 0.004932734649628401, 0.1605139672756195, 0.3089984953403473, 0.13151097297668457, 0.050496067851781845, 0.01862998679280281, 0.06326597183942795,
-0.0008310661069117486, 0.029276559129357338, -0.07300391793251038, 0.03156458958983421, 0.09604397416114807, -0.07065139710903168, -0.01909143477678299, -0.022223643958568573, -0.09892617911100388,
0.02422359213232994, 0.09269452840089798, -0.07475303113460541, -0.016138877719640732, 0.07657403498888016, -0.05603542551398277, -0.00701037235558033, 0.056756410747766495, -0.018174193799495697,
0.07398765534162521, 0.09504812210798264, -0.06857247650623322, -0.08990290015935898, -0.030557651072740555, -0.061947084963321686, 0.002213288564234972, 0.08159051090478897, 0.05168388783931732,
0.020383579656481743, 0.17409996688365936, -0.0038788863457739353, -0.07470913231372833, 0.03962652012705803, -0.030469411984086037, -0.009616252034902573, 0.018628180027008057, -0.0447019524872303,

0.0011134855449199677, -0.0011197625426575541, 0.00028048010426573455, 0.0004587448784150183, 6.948400550754741e-05, -0.0012169212568551302, 0.00019439002790022641, 0.0005519872065633535, 0.0007525513065047562,
-0.000916541088372469, -0.0007435868610627949, -0.0005027623265050352, 0.0012707291170954704, -0.0004001464694738388, 0.0018891592044383287, 0.0008733655558899045, -0.0005721450434066355, -0.0006271543097682297,
0.0005203100154176354, 0.001399348140694201, -0.00164745410438627, 0.0006773479981347919, -0.001439067185856402, -5.636991772917099e-05, 0.0006965023349039257, -0.0009332018089480698, -0.0023588379845023155,
0.0006780097610317171, -0.0021587773226201534, 0.0006371110212057829, -0.0008876072242856026, -0.0003492744581308216, -0.0009850499918684363, 0.0009845952736213803, -0.0015154257416725159, -0.00014025077689439058,
0.0026105847209692, -0.000629860907793045, -0.0005694304709322751, 0.00135590392164886, 0.001492034294642508, -0.001354074920527637, 2.806216116368887e-06, 0.0004825407231692225, -0.00041581306140869856,
-0.0007369396626017988, -0.001763421343639493, 0.0001726301125017926, 0.0009360493277199566, 0.00018216429452877492, 0.0002068042813334614, 0.0019893869757652283, -0.0005855539930053055, -0.0011269997339695692,
-0.00021704420214518905, -0.001588256098330021, -0.0006783627322874963, 0.0014362453948706388, -0.0009027141495607793, -0.002311782445758581, -0.0011867601424455643, -0.0014500886900350451, 0.00023469516600016505,
-0.00021923855820205063, -0.000187889818334952, 0.0004802521434612572, 0.0013267970643937588, -0.0009545548819005489, 0.0009784998837858438, 0.0004759304574690759, -0.0006459070718847215, 0.0006639648345299065,
0.0013779453001916409, 0.0016899800393730402, -0.0011343491496518254, -0.0014891978353261948, -0.0005899216630496085, -0.0007052959408611059, -0.0008034939528442919, -0.0008974294760264456, -0.0005873892805539072,

0.001997949555516243, 0.00038864839007146657, -0.0010013188002631068, 0.001064236625097692, 0.0007615702925249934, 0.0005331269931048155, 4.9322476115776226e-05, -0.0004924519453197718, -0.000549216172657907,
-0.000953887531068176, -0.000806727388408035, -0.0022148157004266977, 0.0006371723720803857, -0.0007776754791848361, 0.00013404866331256926, -0.0007302353042177856, 3.658763307612389e-05, 0.0006877999403513968,
0.00028875935822725296, -0.00021337946236599237, -0.0018511258531361818, -0.0001520185760455206, 0.0002033752971328795, -0.0008148921187967062, -0.0012771745678037405, 7.278051634784788e-05, 0.0018562816549092531,
-0.0005795079632662237, 0.0021367198787629604, 0.00037966063246130943, -0.00025460298638790846, -0.00028426345670595765, -0.0003711270110215992, 8.817698835628107e-05, -0.0013910559937357903, -0.00087404326768592,
-0.0013343970058485866, -0.0001950975856743753, -0.00012777128722518682, 0.0003881152952089906, -0.00031405629124492407, -0.00037136347964406013, -0.0019521546782925725, 0.001345470896922052, -0.0020607116166502237,
0.002132078167051077, -0.0007246605819091201, -0.0012057367712259293, 0.0004841535701416433, 0.0012451520888134837, 0.0009222452063113451, 0.00042793742613866925, -6.94207483320497e-05, -0.0007683316362090409,
-0.0001312245731242001, -8.655225246911868e-05, -8.890397111827042e-06, 0.0007705824682489038, -0.0006850814097560942, 0.0010243412107229233, 8.739300392335281e-05, -0.0013965679099783301, 0.0006112000555731356,
0.0009240308427251875, -0.0014342877548187971, -0.00021028138871770352, 0.0008153088856488466, -0.0007925853715278208, -0.00010381962056271732, -0.0007340257870964706, -0.001259033801034093, -0.0001811065012589097,
-0.0017119715921580791, -0.00044205767335370183, -4.566427378449589e-05, -0.00017785138334147632, 0.0002857264771591872, -0.0008472527842968702, 0.0012532157124951482, 0.0001405022048857063, 0.001547528663650155,

-0.0010427614906802773, 0.0007475833990611136, 0.0029893710743635893, 0.0010094214230775833, 0.001213993295095861, -0.0031357628758996725, -0.001727048889733851, 0.00022000611352268606, -0.0017372133443132043,
0.0006355569930747151, 0.0015863387379795313, 0.0034089884720742702, 0.0012360273394733667, 0.0023517278023064137, -0.001312332577072084, 0.0004263900627847761, -0.00298516103066504, -0.0020501846447587013,
-0.002186942845582962, -0.0028350544162094593, 0.0015414305962622166, 0.0020203643944114447, 0.0009336156072095037, -0.00011486181028885767, -0.003162732347846031, -0.0004121828533243388, -0.0021209099795669317,
-0.0005692229024134576, -0.00028354019741527736, 0.0010228734463453293, 0.0023090748582035303, 0.0011307382956147194, 0.0007596202194690704, -0.0016434324206784368, -0.0027102408930659294, -0.0015361955156549811,
-0.0022551275324076414, -0.0007140388479456306, -1.4683435438200831e-05, 0.0009901500307023525, 0.0009438516572117805, 0.0011072073830291629, -0.00010429092799313366, -0.0009952072286978364, -0.0010037280153483152,
-0.0029726577922701836, -0.0008929024334065616, -3.998647662228905e-05, 0.0007388826343230903, 0.0006245546974241734, -1.1670941603370011e-05, -0.0009585865773260593, 0.00022638247173745185, -0.00017370296700391918,
-3.671366721391678e-05, 0.0005166505579836667, 0.0007188158924691379, -0.001319343806244433, 2.4574779672548175e-05, -0.0004365151980891824, -0.0004397975280880928, -0.0007993369945324957, -0.0005081442068330944,
-0.0033734093885868788, -0.0010377391008660197, 0.000367781292879954, 0.002041769912466407, -0.0007499930798076093, -0.000623529776930809, 1.958497887244448e-05, 0.0005294838338159025, 0.0019362326711416245,
-0.0032374155707657337, -0.0022865859791636467, 0.00020928609592374414, 0.00032419478520751, -0.0005169984651729465, 0.0011239422019571066, 0.00023473604233004153, 0.0006507424404844642, 0.0005158171989023685,

0.0008587247575633228, 0.0007473339210264385, -0.0002584163739811629, -0.001316582434810698, 0.0004300776345189661, -9.040193253895268e-05, 0.0011788200354203582, -0.00025176192866638303, 0.00037236002390272915,
8.983260340755805e-05, -0.0005132769583724439, -1.6655694707878865e-05, 0.0004661396669689566, -0.0002495500666555017, -0.0005246942746452987, 0.0006304687703959644, -0.0009184961672872305, -0.0014047521399334073,
0.00019007973605766892, -0.0011629501823335886, -0.0015439189737662673, 0.00013563164975494146, 0.0006293953629210591, -0.0005517981480807066, 0.00043078605085611343, -0.0013739519054070115, -5.2912975661456585e-05,
-0.0012539810268208385, -0.0010593991028144956, -0.0009878211421892047, -0.0022236520890146494, 0.000829606840852648, -0.0016500352649018168, -1.0490934073459357e-05, 0.00028435621061362326, -0.0009808980394154787,
-0.000259050284512341, 0.0019392730901017785, 0.0008278421009890735, -0.0005646470235660672, -0.0008060720283538103, -0.00030645757215097547, -0.0009889212669804692, 0.00044436316238716245, -0.00042043571011163294,
-0.002695289673283696, 0.0010895334417000413, -0.00011561972496565431, 0.0005394463078118861, -0.0005808002315461636, -0.0007317991694435477, -0.0006932075484655797, -0.002503905212506652, 0.0004994494374841452,
0.0024093480315059423, 0.00011227242794120684, 0.0005490590119734406, 0.0010854867286980152, 0.00010402601037640125, 0.0008677217410877347, 0.001215033931657672, -0.0012397676473483443, 0.000507814809679985,
0.0012428320478647947, 0.0002220383903477341, 0.0004693296505138278, 0.0008965278975665569, 0.0009469942306168377, -0.0002011579053942114, 0.0002707711246330291, -0.0018706030678004026, 0.000484568125102669,
-0.001637203386053443, 0.00026659315335564315, -2.5258643290726468e-05, -0.0007849052199162543, -5.2908373618265614e-05, 0.00039768844726495445, -0.0002964452432934195, -0.0009756496292538941, -0.0014156108954921365,

0.0003856481926050037, -0.001212604925967753, -0.000904262880794704, 3.360929622431286e-05, -0.0018874986562877893, -0.0001533487520646304, -0.0018861304270103574, 0.0017776829190552235, 0.00016214024799410254,
0.00023579505796078593, 8.009988960111514e-05, 0.0013927384279668331, 4.347561116446741e-05, 0.001186807407066226, 0.0008408004650846124, -0.0020491660106927156, -0.0001422875648131594, -0.0006434610695578158,
0.0016842157347127795, -0.001294660265557468, 0.00047094645560719073, -0.00044661093852482736, -0.0009288711589761078, 0.0001795340795069933, -0.00142458186019212, -0.000755635614041239, 0.0016061861533671618,
-0.0005091765779070556, -0.00045300094643607736, -0.0005541217979043722, 0.0013322398299351335, 0.0020650443620979786, -0.0011003280524164438, -0.0005448736483231187, 0.0023095596116036177, -0.0003353827924001962,
-0.0018162043998017907, 0.00035935279447585344, -0.0009035704424604774, -0.002102227881550789, 0.0001305204350501299, 0.0005287351086735725, -0.0010279424022883177, -0.0017553223296999931, -0.002096771728247404,
0.0013198802480474114, 0.0006331317126750946, 0.0009742425172589719, -0.0010674268705770373, 0.0007410091930069029, -0.0011616927804425359, -0.0010435463627800345, -0.00031434709671884775, -8.537543908460066e-05,
-0.0010591731406748295, 0.0004485169192776084, 3.478356302366592e-05, 4.190777690382674e-05, 0.0017519649118185043, -0.0014920301036909223, 0.0006929075461812317, 0.00014945838483981788, -0.0007377660367637873,
-0.0009233593591488898, -0.0018209881382063031, -0.0011583733139559627, -0.0020634103566408157, -0.0002967732725664973, 0.0002826419658958912, 0.0003014251124113798, -0.0006948530790396035, -0.00020492024486884475,
-0.0003761191910598427, 0.0009522800683043897, -0.00020505432621575892, -0.00018598373571876436, 0.0002603780885692686, 0.0003521517792250961, -0.0034440699964761734, -0.0018377675442025065, 2.3874636099208146e-06,

0.0006360554252751172, -0.0009710857411846519, -7.977831046446227e-06, -0.001699639018625021, -0.0024402178823947906, -0.0001274187961826101, 0.0005870650056749582, -0.0008972165524028242, -0.000437656621215865,
-0.0008047414594329894, 7.705861207796261e-05, 9.641000360716134e-05, -0.0012318945955485106, 0.002631072886288166, -0.00041180712287314236, -0.0007209548493847251, -0.0011394981993362308, 0.0005692940321750939,
-0.00045051955385133624, -0.00025276365340687335, 0.001458307495340705, -0.0005518250400200486, -0.0011509619653224945, -0.0008050539181567729, -0.001469335868023336, -0.0019164368277415633, 0.0005840056692250073,
0.0008659129962325096, 4.304258618503809e-05, 0.0016309093916788697, -0.0017815963365137577, -0.0015453101368620992, 0.0006758600939065218, 0.0017389063723385334, -8.210347004933283e-05, -6.285516428761184e-05,
0.0007429956458508968, 0.00015477144916076213, -0.0006847582990303636, -0.0008278150926344097, 0.0002104933955706656, -0.0007440023473463953, -0.0016221420373767614, -5.559242708841339e-05, 0.00027263155789114535,
0.00014730646216776222, 0.0009805591544136405, -0.0005271364934742451, 0.0003343402058817446, -0.0012365932343527675, 0.002469699364155531, 0.0002483265707269311, -0.000703160825651139, -0.0007623662822879851,
0.0002486954035703093, -0.001247091917321086, -0.00042475422378629446, -0.0008385458495467901, -0.00032578266109339893, 0.000684012658894062, -0.00036420574178919196, 0.00016933643200900406, -0.0014108269242569804,
0.0008613021345809102, -2.7615646104095504e-05, 0.0009708671132102609, -0.0006175179732963443, 0.0007720505236648023, -0.00018883791926782578, 0.0010553146712481976, 0.00023790985869709402, 0.0004205219156574458,
0.0010172834154218435, -0.0005163013120181859, 0.00017585823661647737, -0.0008456491632387042, -2.4885055609047413e-05, -0.0032960865646600723, -0.0011469046585261822, -9.369684266857803e-05, -0.0014493244234472513,

-0.09623150527477264, 0.10484742373228073, -0.06315137445926666, 0.03981892392039299, -0.0014363162918016315, -0.15151703357696533, 0.03972433879971504, 0.053064364939928055, -0.07438027858734131,
0.013472521677613258, -0.030749836936593056, 0.02667129598557949, -0.10884711146354675, 0.12398511171340942, 0.24107839167118073, -0.0677260160446167, -0.06766591221094131, 0.15236033499240875,
0.13828368484973907, -0.09877052903175354, -0.040509145706892014, 0.21814708411693573, -0.008984211832284927, -0.22859829664230347, -0.020129911601543427, 0.14800673723220825, -0.2521049976348877,
-0.005165863316506147, -0.07101031392812729, -0.06273972988128662, 0.17722730338573456, -0.06705157458782196, -0.31079158186912537, 0.10386946052312851, 0.42850062251091003, -0.00998199637979269,
-0.0881059393286705, 0.22323323786258698, 0.17002424597740173, -0.24257099628448486, -0.2324901670217514, 0.1448778212070465, -0.011191468685865402, -0.3301706314086914, -0.09063249081373215,
-0.14185571670532227, 0.041417982429265976, -0.04946373030543327, -0.36716076731681824, 0.0672827661037445, 0.6863768100738525, 0.40520086884498596, -0.2974955141544342, 0.107406385242939,
0.3318110406398773, -0.0507020577788353, -0.18288807570934296, 0.0851796492934227, 0.2671677768230438, 0.11542657762765884, -0.06862573325634003, -0.24572831392288208, 0.1606084555387497,
-0.2889135479927063, -0.054239045828580856, 0.17383809387683868, 0.36030352115631104, -0.18709352612495422, -0.32287633419036865, -0.17500734329223633, -0.19725677371025085, 0.019927935674786568,
0.1390623301267624, 0.01530418824404478, -0.0403677262365818, -0.17014822363853455, -0.12203854322433472, 0.22162851691246033, 0.0035465240944176912, -0.05675896257162094, 0.139779731631279,

-0.000999591313302517, -0.0018199908081442118, -3.204034146619961e-05, 0.0010188516462221742, 0.0022817589342594147, 0.0005225748755037785, -0.0007992828032001853, -1.511336176918121e-05, 0.0004997086944058537,
-0.0011138567933812737, 5.3657749958802015e-05, -0.0005994696402922273, -0.0003766038571484387, 9.267463610740378e-05, -0.0001617281377548352, -0.0007714454550296068, -0.0011691150721162558, -0.0006346438312903047,
-0.0009605013183318079, 0.0005671675899066031, -0.0004041976644657552, 0.0007465955568477511, 0.0007372794789262116, -0.0002457468945067376, -0.002008889801800251, 0.0007998430519364774, 0.00017297892190981656,
0.00011949692270718515, 0.002030887408182025, -0.0012711266754195094, 0.0017400160431861877, -0.0009765626164153218, -0.001242497586645186, -0.0011190898949280381, 0.0006954757263883948, -0.0008800528012216091,
0.0007153828046284616, 7.409717363771051e-05, -0.0007912390865385532, 0.0007713124505244195, 0.0010325011098757386, 0.001399247907102108, -0.0017962774727493525, -0.0007862639031372964, 7.117007044143975e-05,
-0.0012064576148986816, 0.0013150176964700222, -5.5957279982976615e-05, -0.0005160821601748466, 5.7979163102572784e-05, -0.0006840011337772012, 0.0006929343799129128, -0.0006910475203767419, -0.0003176646423526108,
0.000555074424482882, -0.000510676356498152, -0.0009097403381019831, -0.000386804313166067, -0.0005443727131932974, -0.0003146363887935877, 0.00019219621026422828, -0.0007658776012249291, 0.0007142896647565067,
0.0006583535578101873, -0.00038801910704933107, 0.00032448387355543673, -0.00019720595446415246, 0.0005076671950519085, -0.00041441080975346267, 0.0003269248700235039, 0.00016967565170489252, 0.00044187737512402236,
-0.0007283112499862909, -0.0014942106790840626, 0.00012876458640675992, 0.00020544099970720708, -0.0016892614075914025, 0.0007097275811247528, 0.0010939198546111584, -0.0006068685324862599, -0.0010073768207803369,

-0.0012665025424212217, 0.01675419881939888, 0.26304855942726135, 0.13983741402626038, -0.11388019472360611, -0.10658132284879684, -0.06519941240549088, 0.07726431638002396, 0.01794479787349701,
0.0069109126925468445, -0.07727132737636566, -0.24356147646903992, -0.3049158751964569, 0.0015241295332089067, 0.1969120055437088, -0.11370117962360382, -0.2005273997783661, 0.05501388758420944,
0.02110806480050087, 0.11378795653581619, 0.12822550535202026, -0.1203264519572258, -0.08205731958150864, 0.1863396316766739, 0.08031539618968964, 0.039802875369787216, 0.10264290124177933,
-0.0690830871462822, -0.06739896535873413, 0.015076566487550735, 0.06080116704106331, -0.025706810876727104, -0.09290605783462524, -0.17364826798439026, -0.04425707459449768, -0.13037621974945068,
0.11020895838737488, 0.020617492496967316, -0.17159339785575867, 0.13234134018421173, 0.3949457108974457, 0.226732075214386, -0.13186287879943848, 0.07432274520397186, 0.22734342515468597,
-0.043330006301403046, 0.053376249969005585, -0.10662541538476944, -0.08419434726238251, -0.013403806835412979, -0.08028654754161835, -0.2835564613342285, -0.0710369274020195, -0.023827288299798965,
-0.04627927392721176, 0.04351762682199478, 0.06323342025279999, 0.014668399468064308, -0.07495369017124176, -0.12317760288715363, -0.006352022755891085, 0.2899240553379059, -0.10756435245275497,
0.04353008046746254, -0.0598263293504715, -0.10739217698574066, 0.11630450934171677, 0.020550796762108803, -0.16120344400405884, 0.017646459862589836, 0.29593849182128906, -0.07455079257488251,
-0.06086743250489235, 0.062209602445364, -0.07078734785318375, 0.14284056425094604, 0.016841856762766838, 0.00821782648563385, 0.15606606006622314, 0.014022826217114925, -0.1754223257303238,

-0.001540240366011858, 0.0002556523832026869, -0.0006723375408910215, 0.0004470753774512559, -9.546260844217613e-05, -3.559109609341249e-05, 0.001132538658566773, -0.00026728174998424947, -0.0018261182121932507,
0.0014168687630444765, 3.492621181067079e-05, 0.00011063399870181456, 0.00025745798484422266, -0.0002557227562647313, -0.002036771969869733, -8.944633009377867e-05, -0.0012297306675463915, 0.0007957581547088921,
-0.0012314687483012676, 0.0010770674562081695, -0.0005917696980759501, -0.00212976080365479, -0.00031171709997579455, 0.0010827910155057907, 0.0002682326012291014, -0.0011721514165401459, 0.00025861989706754684,
-0.0029963550623506308, 0.002098196418955922, 0.0007173329940997064, 0.0018209400586783886, -0.0017951689660549164, 0.00018901099974755198, 0.0005738816689699888, -0.001167795155197382, -0.0008625764166936278,
-0.002416105940937996, 0.00042315051541663706, -0.0017523716669529676, 0.0010439404286444187, -5.785029134131037e-05, -0.0013305781176313758, 0.0002850339515134692, -0.00041882999357767403, 8.28917691251263e-05,
0.0006170418346300721, 0.0006563257775269449, 0.00011567169713089243, -0.00011426987475715578, 0.0010820204624906182, 0.0016165240667760372, 0.00018961820751428604, 0.0019755263347178698, -0.0015524612972512841,
-0.001710549695417285, 0.0011875538621097803, -0.0002842131070792675, -0.0014970755437389016, -0.0005015296628698707, -0.0007049585692584515, -0.0006768153398297727, 8.989968773676082e-05, -0.00017749393009580672,
-0.0013356966665014625, -0.001025702222250402, 0.00025018033920787275, 0.001610269770026207, 0.0007577651413157582, -0.0009380839765071869, -0.00034315226366743445, 0.00015070832159835845, -0.0014308240497484803,
-0.0005565301398746669, -0.0007534055621363223, 2.647791916388087e-05, -6.859315362817142e-06, 0.00040427775820717216, -0.0009358926326967776, -0.0004737813724204898, -0.000845718604978174, 5.376041735871695e-05,

-0.15451224148273468, 0.19095458090305328, 0.20473194122314453, 0.026090022176504135, 0.09018351137638092, -0.03866922855377197, -0.2947196960449219, 0.11171706020832062, 0.12668751180171967,
-0.08547264337539673, -0.11372412741184235, -0.4545639157295227, -0.1695876270532608, 0.0816875770688057, 0.38936617970466614, 0.3428002893924713, -0.3308902382850647, -0.17786070704460144,
0.06210101768374443, 0.1786593496799469, -0.10510437935590744, -0.06503064185380936, -0.246371328830719, -0.22606316208839417, 0.19956804811954498, 0.2003280371427536, 0.09104062616825104,
0.20660510659217834, 0.029972387477755547, 0.21238666772842407, 0.3268944025039673, -0.13860951364040375, -0.2788946330547333, -0.3092181384563446, -0.0003468827635515481, -0.14993233978748322,
-0.06072603166103363, -0.21059197187423706, -0.04442582651972771, 0.09012393653392792, -0.22182731330394745, -0.07031314820051193, -0.05164662376046181, 0.11668866127729416, 0.044493451714515686,
-0.022964412346482277, 0.13738542795181274, -0.1268226057291031, 0.20749592781066895, 0.5986675024032593, 0.44717782735824585, 0.12741205096244812, -0.06192497909069061, -0.0699167549610138,
-0.040256306529045105, 0.09093724191188812, -0.16429461538791656, -0.1690693348646164, 0.07666178792715073, -0.15648046135902405, -0.13331539928913116, -0.016347618773579597, 0.047096144407987595,
0.03429550677537918, -0.08356120437383652, 0.1696685552597046, -0.06695079803466797, -0.17493395507335663, -0.24848990142345428, 0.016458017751574516, 0.13108165562152863, 0.028971169143915176,
-0.04448648914694786, -0.01828574761748314, 0.11338123679161072, -0.11078592389822006, 0.09166978299617767, 0.17844493687152863, -0.03845813870429993, 0.02441604807972908, -0.0284543726593256,

0.0648932009935379, 0.03015816956758499, 0.06663703173398972, 0.015556380152702332, -0.008408942259848118, -0.01015086192637682, -0.04535888880491257, -0.07108950614929199, 0.008901793509721756,
0.0383647084236145, 0.008252307772636414, 0.057061534374952316, 0.02177751064300537, 0.021049227565526962, 0.03981384262442589, 0.019147386774420738, -0.016650844365358353, -0.00012338250235188752,
-0.05576663836836815, -0.008446862921118736, 0.008782737888395786, -0.012964257970452309, 0.0306203905493021, 0.019870450720191002, -0.014466973021626472, -0.054479945451021194, 0.0083492835983634,
-0.04714462161064148, 0.036334384232759476, 0.020698098465800285, -0.006391490343958139, 0.09398287534713745, 0.0364663265645504, -0.016738135367631912, -0.06626389920711517, -0.021750694140791893,
-0.02035997062921524, 0.0033441465348005295, 0.014848344959318638, 0.024313975125551224, 0.1340191513299942, 0.04788660630583763, 0.005272587761282921, -0.0055662221275269985, -0.011406347155570984,
0.010810546576976776, -0.008090125396847725, -0.02175883576273918, -0.052334014326334, 0.01757221855223179, -0.03152087330818176, 0.0052301958203315735, 0.0456184446811676, -0.025735914707183838,
0.09220990538597107, 0.05665971711277962, 0.03320348635315895, 0.009712934494018555, 0.034622952342033386, -0.020982015877962112, -0.002861678134649992, 0.002392107155174017, -0.050432782620191574,
0.10869601368904114, 0.029779020696878433, 0.04789482802152634, 0.07702136784791946, 0.0493718720972538, 0.004437380935996771, 0.02696411684155464, -0.02077019400894642, -0.03136833757162094,
-0.002712647430598736, -0.05146724358201027, 0.0021101508755236864, 0.048718471080064774, 0.050533365458250046, 0.056156277656555176, 0.1252497434616089, 0.08561249077320099, 0.010004137642681599,

0.04881306365132332, -0.040069226175546646, -0.02489537000656128, 0.10931528359651566, 0.026437178254127502, -0.18237268924713135, 0.06956560909748077, 0.04613293707370758, 0.0629517212510109,
-0.0011143248993903399, -0.124015212059021, -0.07959514111280441, -0.08567380160093307, 0.2911008298397064, 0.07841300964355469, -0.15799833834171295, -0.1863882839679718, 0.008791344240307808,
-0.005785984452813864, 0.31174561381340027, 0.17794767022132874, -0.19377553462982178, 0.1001155897974968, 0.09263832122087479, 0.22075343132019043, -0.13299359381198883, 0.021534152328968048,
-0.25834542512893677, 0.07808665931224823, -0.2475024163722992, -0.46278488636016846, 0.09057627618312836, 0.05654537305235863, 0.282428115606308, -0.21025048196315765, 0.09985244274139404,
0.028137871995568275, 0.1312556117773056, 0.29870033264160156, -0.17317332327365875, 0.06542570143938065, -0.02981092594563961, 0.11451898515224457, 0.12770536541938782, 0.06928875297307968,
0.08405459672212601, -0.28732311725616455, 0.13365082442760468, -0.04514949768781662, -0.16095976531505585, -0.4304209351539612, -0.08290921151638031, 0.30299392342567444, -0.23473845422267914,
0.12784703075885773, 0.040431540459394455, 0.05410665646195412, 0.23238302767276764, 0.18373283743858337, -0.25010836124420166, -0.05561486631631851, 0.11793294548988342, -0.1825789213180542,
-0.18931150436401367, -0.011875620111823082, -0.15526539087295532, -0.1144055649638176, 0.1240239068865776, 0.15735426545143127, -0.007772465702146292, 0.06703273952007294, 0.18275801837444305,
0.12089535593986511, -0.07851406186819077, 0.11984454840421677, 0.03476141020655632, -0.0482468418776989, -0.10134965181350708, -0.12304190546274185, 0.05240076035261154, -0.05573711544275284,

-0.16772988438606262, 0.11109595000743866, -0.010658840648829937, -0.19189690053462982, -0.05638456717133522, 0.05707361176609993, -0.11251163482666016, -0.05410575494170189, 0.03964550793170929,
0.2867584228515625, -0.06264916062355042, 0.189626082777977, 0.11861971765756607, 0.05483229458332062, 0.1319660246372223, 0.06443878263235092, 0.129139244556427, -0.033468782901763916,
-0.09380505979061127, -0.39508914947509766, -0.04549768567085266, -0.052516210824251175, 0.07953311502933502, -0.098055899143219, -0.14163537323474884, -0.12616392970085144, 0.03034469299018383,
0.04507668688893318, 0.3311437964439392, 0.27322667837142944, -0.20558588206768036, 0.007871289737522602, 0.02692217379808426, 0.212126687169075, 0.006659271195530891, 0.07345736026763916,
-0.22250953316688538, 0.01236119493842125, -0.2367575317621231, -0.3587864935398102, -0.051800575107336044, -0.28915828466415405, -0.11290644854307175, 0.1451025754213333, -0.22573742270469666,
0.225347101688385, 0.17198264598846436, 0.10329369455575943, 0.48186585307121277, 0.653626561164856, 0.13932093977928162, -0.12812262773513794, 0.29185861349105835, -0.011542456224560738,
-0.056727126240730286, -0.24614256620407104, -0.25707218050956726, 0.1379314363002777, -0.13671821355819702, -0.029103154316544533, -0.009799652732908726, -0.20076780021190643, -0.0156412310898304,
-0.11022096127271652, 0.156456857919693, -0.12290013581514359, -0.07961051166057587, -0.36028215289115906, 0.04407414421439171, 0.2383071482181549, -0.04626668989658356, 0.1948043704032898,
0.07021071761846542, 0.011512591503560543, -0.014199885539710522, 0.10593896359205246, -0.11554862558841705, 0.07183084636926651, -0.1556750386953354, -0.015137303620576859, -0.07752346247434616,

-0.0010569588048383594, -0.00011932790948776528, -0.0011503883870318532, 0.0010949814459308982, -0.0004188964085187763, 0.0006611710414290428, 0.0006870609358884394, -0.0004792710824403912, 0.0007725628092885017,
-0.0001330224476987496, -0.00022430284298025072, -0.0011843695538118482, -0.0016817374853417277, 0.0008879866218194366, -0.0007197565864771605, -0.002647122135385871, -0.0003594874287955463, -0.0006840709247626364,
-0.000479323003673926, -0.00033403729321435094, -0.00018967413052450866, -0.0019072171999141574, 0.002235217485576868, -0.0017468531150370836, 6.825732270954177e-05, 0.00010220736294286326, -0.0016980438958853483,
-0.0011177853448316455, -0.00035529123852029443, -0.00017950011533685029, 0.0019975679460912943, 0.000719986273907125, 0.0019489218248054385, -0.0014096435625106096, -0.00018343084957450628, -0.0011374281020835042,
-0.0001280792785109952, -0.0007536893826909363, -0.00018412877398077399, -0.0004588938900269568, 0.00011560072016436607, 0.0005447586881928146, 0.001000233693048358, -0.0003539245226420462, 0.0011272527044638991,
-0.0010926933027803898, -0.00033766948035918176, 0.00040509772952646017, 0.0014269507955759764, -0.0005572892259806395, -0.0008279934991151094, 0.0011004118714481592, 0.0006056654383428395, 0.0003419063286855817,
0.0007174558122642338, 0.001560462056659162, -0.00029264582553878427, -0.00012326946307439357, -0.000526961637660861, -1.4816179827903397e-05, -0.0006620470085181296, -0.0007735520484857261, -0.000649213616270572,
-0.0008610342629253864, 0.0018013716908171773, 0.0006441452424041927, -0.0004435580049175769, -0.0008992920047603548, -0.00024224862863775343, 0.0010501362849026918, -0.0011598471319302917, -0.0006570105324499309,
0.0011456088395789266, 0.00048621694440953434, -0.0018411156488582492, -0.0013611650792881846, -0.0002690771361812949, -0.0005640559829771519, -0.0013652503257617354, -1.7089094399125315e-05, -3.355400258442387e-05,

-0.2104903906583786, 0.12132132053375244, 0.029365696012973785, -0.11713844537734985, -0.02783479355275631, -0.054204922169446945, 0.038977138698101044, 0.1672254204750061, 0.1155354231595993,
0.1673756092786789, 0.05393429100513458, -0.014358943328261375, 0.05143103376030922, 0.08754843473434448, -0.02964305318892002, -0.008091827854514122, -0.04258943721652031, -0.2442554533481598,
-0.19025211036205292, 0.13267463445663452, 0.07090611010789871, -0.128496915102005, -0.11497974395751953, -0.1456131637096405, -0.06282735615968704, 0.037712614983320236, -0.03053300455212593,
0.0022425830829888582, 0.08074657618999481, 0.05704525113105774, -0.07564388960599899, 0.015597454272210598, 0.15354526042938232, 0.09632490575313568, 0.14457924664020538, 0.09841959178447723,
0.13968202471733093, -0.11876171082258224, -0.18226979672908783, 0.022941624745726585, 0.09503066539764404, -0.03277856856584549, -0.21077322959899902, -0.002112059388309717, -0.038146600127220154,
0.010349348187446594, -0.0073541575111448765, -0.07239490747451782, 0.10508517175912857, 0.18381674587726593, -0.04836629331111908, -0.18059268593788147, 0.12591232359409332, 0.10520373284816742,
0.034999772906303406, 0.18793611228466034, -0.04791635274887085, -0.33946871757507324, -0.2302446961402893, -0.028468219563364983, 0.05462699756026268, 0.0032924155239015818, -0.14790956676006317,
-0.04179050028324127, 0.0870656743645668, 0.020350122824311256, -0.0474969707429409, -0.073038749396801, -0.03616800159215927, 0.09759104251861572, 0.07510336488485336, 0.13184534013271332,
-0.06964278966188431, 0.08661947399377823, 0.08370254933834076, 0.16909433901309967, 0.05051512271165848, -0.12434079498052597, -0.02095050737261772, 0.049961697310209274, -0.0955386683344841,

0.09808865934610367, -0.04217420145869255, 0.11261221021413803, -0.0979318916797638, -0.009376952424645424, 0.10382681339979172, -0.3147989809513092, 0.0416661836206913, -0.007494060788303614,
0.005175380501896143, -0.44516095519065857, 0.07864353060722351, 0.35873913764953613, -0.003262945916503668, 0.14902269840240479, 0.22528132796287537, 0.06613346934318542, -0.005277388729155064,
0.08456676453351974, -0.09523081034421921, 0.02938992716372013, 0.040525492280721664, -0.23032791912555695, -0.11449328809976578, 0.1439978927373886, 0.2597081661224365, -0.06926484405994415,
0.19865450263023376, -0.20608408749103546, -0.16858400404453278, 0.08890511840581894, 0.04442805424332619, -0.3010995090007782, -0.4741572141647339, 0.1444513350725174, -0.212602898478508,
0.21730554103851318, -0.3936820328235626, 0.1668621450662613, 0.4914481043815613, 0.2517930269241333, 0.020509615540504456, -0.06409702450037003, 0.25522953271865845, 0.10250972956418991,
-0.028641317039728165, -0.5098336338996887, 0.20008642971515656, -0.014031358063220978, -0.24628593027591705, -0.0365581214427948, 0.04390503093600273, -0.24576334655284882, -0.0461585558950901,
0.018607139587402344, 0.0004107145650777966, 0.2500346601009369, -0.23970988392829895, -0.04864475503563881, 0.06339922547340393, 0.1972377449274063, 0.14954879879951477, 0.05787830427289009,
-0.09056226164102554, 0.19932805001735687, 0.16785289347171783, -0.14021965861320496, 0.18159927427768707, -0.16833806037902832, -0.18337807059288025, 0.004240002948790789, -0.1689908653497696,
0.07772572338581085, -0.3002279996871948, 0.09108152985572815, -0.05846348777413368, 0.10295788198709488, -0.023347485810518265, 0.08548326790332794, -0.06645601242780685, 0.1568939983844757,

-0.013950671069324017, 0.14006301760673523, 0.10362653434276581, 0.05748048797249794, -0.035415343940258026, -0.14677655696868896, -0.0029044041875749826, -0.038839202374219894, 0.05247412621974945,
-0.06640616804361343, -0.020092647522687912, -0.4638631343841553, -0.3031516373157501, 0.14792288839817047, 0.14735998213291168, 0.10991434752941132, 0.05494896322488785, -0.11660435795783997,
0.10017690062522888, 0.132282093167305, 0.1628856360912323, 0.27559641003608704, 0.2845847010612488, 0.25922486186027527, 0.12390350550413132, -0.22476986050605774, 0.11786532402038574,
-0.13220100104808807, 0.019541751593351364, 0.18495215475559235, -0.29292935132980347, -0.5955057740211487, -0.6024948954582214, -0.18879005312919617, -0.10200955718755722, 0.026657283306121826,
0.016031596809625626, 0.2025860697031021, 0.2550431489944458, 0.10817043483257294, 0.2741820216178894, -0.0038298428989946842, 0.10149059444665909, 0.14858447015285492, -0.09560362994670868,
-0.14666630327701569, -0.31975531578063965, -0.4732024669647217, -0.17723801732063293, 0.21804086863994598, 0.19206535816192627, 0.2133888453245163, 0.0029941254761070013, 0.12964513897895813,
0.1364160180091858, 0.023268448188900948, -0.10686001926660538, 0.21463102102279663, 0.03751311078667641, -0.14985856413841248, -0.04363644868135452, -0.14079639315605164, 0.08981011062860489,
-0.19653163850307465, 0.2189231812953949, 0.3163636326789856, 0.4429551959037781, -0.06580221652984619, -0.20929275453090668, -0.06716730445623398, -0.011130502447485924, -0.06049836799502373,
0.17359021306037903, -0.11022380739450455, -0.26505905389785767, -0.17634817957878113, -0.08740302920341492, 0.22814320027828217, 0.11242003738880157, 0.01158397737890482, -0.03695908561348915,

-0.08051258325576782, 0.03413045033812523, 0.020185938104987144, 0.0325036458671093, -0.05675344914197922, -0.227550208568573, 0.014012614265084267, 0.15816405415534973, -0.09465190023183823,
0.10396259278059006, 0.053352758288383484, -0.06670495867729187, 0.021227216348052025, 0.3165081739425659, -0.01980353146791458, -0.09758850187063217, 0.07518550008535385, -0.10593143850564957,
-0.07598112523555756, 0.17637503147125244, 0.024622337892651558, -0.06120745465159416, 0.15002694725990295, -0.16977781057357788, -0.023900222033262253, 0.10342928022146225, 0.056688107550144196,
-0.16326774656772614, 0.08476721495389938, -0.17347368597984314, -0.22374482452869415, -0.02916521020233631, -0.10966647416353226, 0.1251721978187561, -0.11273764073848724, 0.10270598530769348,
-0.08524306863546371, 0.4950140714645386, -0.03410574048757553, -0.40578487515449524, -0.09272392094135284, -0.18247631192207336, 0.17320168018341064, 0.13147477805614471, -0.0038696087431162596,
-0.03570012375712395, 0.7016220092773438, 0.20242898166179657, -0.38785088062286377, 0.11948063969612122, -0.16032521426677704, -0.1441739946603775, 0.11564136296510696, -0.26699280738830566,
-0.2192683219909668, 0.35552096366882324, 0.05954338237643242, -0.199520081281662, 0.10670266300439835, -0.023357881233096123, 0.00961100123822689, 0.04293111339211464, -0.0579170323908329,
-0.32589980959892273, 0.06420989334583282, -0.11756125092506409, 0.05695319175720215, 0.0677061676979065, -0.04878150299191475, 0.1706743985414505, -0.010371199809014797, 0.1252160221338272,
0.045665398240089417, 0.3343423902988434, -0.11480693519115448, -0.19743719696998596, 0.1504960060119629, -0.1380237489938736, -0.07210364192724228, 0.030029352754354477, -0.03706291690468788,

0.03939378634095192, -0.23628199100494385, 0.03345371037721634, -0.013991202227771282, -0.05054478347301483, -0.015119356103241444, -0.026974914595484734, 0.014346917159855366, 0.08018133044242859,
0.22023628652095795, 0.06720942258834839, 0.015866054221987724, 0.11437360942363739, 0.032059792429208755, -0.017130417749285698, -0.010584225878119469, -0.281844824552536, -0.11845685541629791,
-0.18145181238651276, 0.04549989476799965, 0.06611192971467972, 0.25537383556365967, 0.1269979029893875, 0.07849577069282532, 0.19416430592536926, -0.011851524002850056, 0.1791917234659195,
-0.16963504254817963, -0.11547959595918655, -0.1932094693183899, -0.2265874445438385, -0.14010992646217346, -0.043412987142801285, 0.0482562892138958, -0.02022138610482216, -0.025581691414117813,
0.09596209228038788, 0.07362937927246094, 0.02321452647447586, -0.11330754309892654, 0.07633958011865616, 0.09335443377494812, 0.057872358709573746, 0.11146388202905655, 0.10320734232664108,
0.09972687810659409, 0.030443429946899414, 0.10441126674413681, -0.03630651533603668, -0.024392854422330856, -0.12362377345561981, -0.18422561883926392, -0.15097342431545258, -0.20117345452308655,
0.12026863545179367, -0.025150498375296593, 0.1429918110370636, 0.05642174184322357, 0.02950388751924038, 0.14781424403190613, 0.07158076763153076, 0.056343890726566315, -0.0183302853256464,
-0.1693364679813385, -0.23443996906280518, -0.017875906080007553, -0.006481344345957041, -0.03439946472644806, 0.16573406755924225, 0.07892756164073944, 0.09992554783821106, -0.011556487530469894,
0.16742345690727234, -0.06860154867172241, -0.030658090487122536, 0.07158920913934708, -0.0056269061751663685, -0.09347712248563766, -0.06864652037620544, 0.07023963332176208, -0.0793459415435791,

-0.0006428726483136415, 0.000488331716042012, 0.00035403258516453207, 0.0008115165401250124, 0.000657112686894834, 0.0004166678700130433, -0.0008603823371231556, 0.00019007190712727606, -0.0007043906953185797,
0.0008286830852739513, -0.0013949848944321275, -0.0006009201752021909, -0.0008206788334064186, -0.0005576505209319293, -0.00040472447290085256, -0.0002731344720814377, -0.00028334444505162537, 0.0013878886820748448,
0.0002315448655281216, 0.0010704207234084606, -0.000650928181130439, 0.00012547745427582413, -0.0003032054810319096, 0.0007429635152220726, 0.0005865327548235655, 0.0005176231497898698, -0.0007537910132668912,
-0.001887444406747818, -0.0008026676950976253, 0.0008491867920383811, 0.0018599305767565966, -0.0011441382812336087, 0.0005058692768216133, 0.0018451297655701637, -0.0024096802808344364, 0.0003023534081876278,
1.643709583731834e-05, -0.001602975302375853, 0.0006561074987985194, 0.0002454979403410107, -0.0002888222225010395, -0.00041606990271247923, -0.0009814610239118338, -0.0006613695295527577, 0.0008126229513436556,
-0.00016825305647216737, -0.000440552132204175, -0.0008257260196842253, 0.00014283164637163281, 0.0013927987311035395, -0.0006570022087544203, -0.0012004850432276726, 0.0001159723469754681, -4.097333294339478e-05,
-0.0006579493056051433, -0.0017888189759105444, -0.00034246634459123015, 0.00011627476487774402, -0.00150908506475389, -6.259272777242586e-05, 0.0011954504298046231, 0.00033649426768533885, 0.0006129689863882959,
0.0008567073964513838, 0.0007649981998838484, 0.0007854680297896266, -0.001363289775326848, 0.0006838893750682473, 0.0019097343320026994, 0.0008629354415461421, -0.0006856460822746158, 0.0007754159742034972,
-0.001088864402845502, 0.001463291933760047, -0.002013310557231307, 0.00016314579988829792, -0.001032473286613822, 0.00033582706237211823, -0.00038609615876339376, -0.0004923777305521071, -0.0016131643205881119,

-0.0004456422757357359, 0.0010814889101311564, 0.0005628557992167771, -0.0004485500685404986, -0.00041329918894916773, 0.00043358109542168677, 0.0006361532723531127, 0.0007210673647932708, -0.0005090286140330136,
-0.0019742720760405064, 0.0011092027416452765, -0.0002474093053024262, 0.0007939984207041562, 0.0010134715121239424, 0.0004600287356879562, -0.0008518119575455785, -0.0008610775112174451, 0.00046291472972370684,
0.00037765264278277755, -0.0012405083980411291, -0.0013560752850025892, -0.001598319155164063, -0.0027604049537330866, -0.0008856443455442786, -0.002181252231821418, 0.0005053703207522631, -0.0006051689269952476,
-0.0004186882288195193, -0.0018904530443251133, 0.0008870303281582892, 0.001194408512674272, 0.001241408521309495, -0.001254814094863832, -0.0009206035174429417, 0.0006136148003861308, -0.0004433081194292754,
0.0006065598572604358, 0.000389905646443367, -0.0012466158950701356, 0.0008100384729914367, -6.510643288493156e-05, -0.0009399616974405944, 0.0005137275438755751, -0.001236491953022778, -4.065340544912033e-05,
-0.0009114352287724614, 0.0006394930533133447, 0.00019928911933675408, -0.00144667224958539, -0.0013846795773133636, 0.0005617966526187956, 0.002516231732442975, -3.009583906532498e-06, 0.0008146064355969429,
0.0019322566222399473, -0.0006341896951198578, -0.00018798155360855162, -0.0003901624004356563, 0.000518886256031692, 0.001849320367909968, 0.0004188966122455895, -0.0006617121398448944, -0.0004492557782214135,
0.0006135111325420439, 0.000742141215596348, -0.0005494406213983893, -0.0006980114267207682, -0.0007641997653990984, -2.5958908736356534e-05, 0.0002973320661112666, 0.0014494009083136916, -0.0003449160431046039,
-0.00037503743078559637, 0.0016391781391575933, -0.0014316720189526677, -0.0002957980032078922, -0.001616672845557332, -0.0008017887594178319, -0.0015348978340625763, 0.0005996475811116397, -0.0016865015495568514,

-0.0003782430721912533, -0.0009570475667715073, -0.0011277267476543784, 0.00180433364585042, -0.0012193359434604645, -0.00025961469509638846, -0.0005134602542966604, 0.0004996838979423046, -0.001138967229053378,
-0.0002948046021629125, 0.0015175279695540667, -0.0007555886986665428, 0.0009787778835743666, -0.00032182762515731156, 0.0003316574729979038, 0.0004339139850344509, -0.0019948366098105907, 0.0001716409606160596,
-0.0001913684536702931, -0.001357423490844667, 0.0003162807261105627, 0.0010474604787304997, -0.0010326545452699065, 0.0010362850734964013, -0.000715647533070296, -0.0012617540778592229, 0.0007311622612178326,
0.000554826867301017, 0.0010243835859000683, -0.00015997685841284692, -0.00037371201324276626, 0.0010334982071071863, -0.0011573940282687545, -0.0009114354616031051, -0.00015830635675229132, -0.00037357458495534956,
-7.87905155448243e-05, -0.0011626767227426171, -3.205699977115728e-05, 0.0011860980885103345, -0.0009154521394520998, -0.0015579010359942913, -0.0006612959550693631, 5.901557597098872e-05, 8.923883433453739e-05,
0.0009732882608659565, 0.0003239764482714236, 0.00041627956670708954, 0.0009620821219868958, -5.0443610234651715e-05, -0.0008907017763704062, -0.0007431871490553021, 9.633138688514009e-05, 0.00024185508664231747,
0.0005224959459155798, -0.0006632294389419258, -0.0008217195281758904, -0.0005752366851083934, 0.00031895251595415175, 0.0002101064019370824, 0.0008412789320573211, -0.0006362818530760705, -0.0014072611229494214,
0.00012794735084753484, -0.0010524755343794823, 0.00041546058491803706, 0.0004859249747823924, -0.0008785720565356314, -0.00011088411702075973, -1.293869354412891e-05, -0.0005055746296420693, 0.0002222969924332574,
-4.7033518058015034e-05, -0.00023998097458388656, 0.0007468517287634313, -0.0005776738980785012, 0.0007398471352644265, -0.00020299215975683182, 3.6905283195665106e-05, 1.2206623978272546e-05, 0.0002736823516897857,

-0.03736849129199982, 0.04365527629852295, 0.06155460327863693, -0.1716172844171524, -0.0010409214301034808, -0.04572901129722595, 0.04417017474770546, 0.07768265157938004, -0.020297184586524963,
-0.03644590452313423, 0.056331146508455276, -0.05258964002132416, -0.06396597623825073, 0.19313600659370422, -0.03913743793964386, -0.021271653473377228, -0.07504606246948242, -0.055963337421417236,
0.06264857202768326, 0.016320379450917244, 0.13311290740966797, -0.023342447355389595, 0.26079943776130676, 0.13220031559467316, -0.012500042095780373, 0.04158882424235344, 0.16334477066993713,
-0.13021895289421082, -0.0784955620765686, -0.022617965936660767, -0.3279626667499542, -0.2588888108730316, -0.20799389481544495, -0.1206822469830513, -0.11035464704036713, -0.12220873683691025,
-0.03091897815465927, 0.33149954676628113, 0.19554510712623596, 0.046737976372241974, 0.1616290956735611, 0.03888147696852684, 0.2579796016216278, 0.14620491862297058, 0.007622802630066872,
-0.10936261713504791, -0.1670931726694107, -0.2986741364002228, -0.3148256242275238, -0.17730216681957245, -0.27363529801368713, -0.09459452331066132, 0.004572989419102669, -0.09038140624761581,
0.24828805029392242, 0.00444217212498188, 0.2955993413925171, 0.26263442635536194, -0.021756025031208992, -0.10917024314403534, -0.01959892362356186, 0.2114255428314209, -0.016222991049289703,
-0.04402846843004227, -0.31911346316337585, 0.05083457753062248, 0.4427645802497864, 0.34853658080101013, 0.03003772161900997, -0.12291555106639862, -0.06384014338254929, 0.04527098685503006,
0.08414127677679062, 0.1413649320602417, -0.2351425439119339, -0.1072976142168045, 0.08654502034187317, -0.11958473920822144, 0.09183238446712494, 0.012878400273621082, -0.01705048605799675,

-0.006039154715836048, 0.03949546068906784, -0.011575731448829174, 0.006279857363551855, -0.1589278131723404, -0.13559673726558685, -0.03175828605890274, 0.23796051740646362, -0.10436321049928665,
-0.052519164979457855, 0.06477516144514084, -0.12236672639846802, 0.1001957505941391, 0.2222730964422226, 0.1282365322113037, -0.17412245273590088, -0.11293517053127289, 0.12766453623771667,
0.037720873951911926, 0.10460034012794495, -0.010523390024900436, -0.08484049886465073, -0.08106663078069687, 0.016814621165394783, 0.14951832592487335, 0.21620815992355347, -0.1444082260131836,
0.008106019347906113, -0.05704783648252487, 0.08020181953907013, 0.027755845338106155, -0.16613860428333282, -0.31643152236938477, -0.09622111916542053, 0.19705040752887726, -0.09236286580562592,
0.028923651203513145, 0.12215514481067657, -0.17038926482200623, -0.06258074194192886, 0.2327783703804016, -0.03029259480535984, -0.1037127748131752, 0.1127760037779808, 0.055294569581747055,
-0.25348609685897827, 0.3195784389972687, -0.22876809537410736, -0.2852574586868286, 0.19749993085861206, 0.12394383549690247, 0.02494964562356472, 0.059626124799251556, -0.1868988573551178,
-0.1002478376030922, 0.28243741393089294, 0.05382262542843819, -0.0476568378508091, -0.07640890032052994, -0.02594071812927723, 0.051651544868946075, 0.2132013738155365, 0.09989402443170547,
0.04011467844247818, -0.1656808704137802, -0.02633637748658657, 0.2999736964702606, 0.01089830044656992, -0.01921241544187069, -0.220767542719841, -0.18564729392528534, -0.06696341931819916,
-0.008030825294554234, 0.14637136459350586, -0.12054266780614853, -0.03475150465965271, -0.12024424225091934, -0.006053747609257698, 0.07263869792222977, 0.22074611485004425, -0.04448912665247917,

0.0006250826991163194, 0.00025321784778498113, -0.0006213007727637887, -0.0015586045337840915, 0.00019673650967888534, 4.0992490539792925e-05, 0.0005109728081151843, -0.000818026892375201, 0.0006000426365062594,
0.0013118486385792494, 0.00022630002058576792, 0.001409410615451634, 0.00019255076767876744, 0.0014892208855599165, -0.001496430137194693, 0.0002712619607336819, -0.00038198454421944916, 0.00041936407797038555,
-0.0012490005465224385, -0.001264261780306697, -0.0004584481939673424, -0.0011733782012015581, -4.561951573123224e-05, -0.0005391144659370184, 0.0002757500915322453, -0.0006565628573298454, -0.0008967100875452161,
-0.00032052514143288136, 0.00022494931181427091, 0.0011180717265233397, -0.00020910664170514792, -0.0004391624534036964, 0.00027699192287400365, -0.0003378525725565851, -0.0014030055608600378, -0.0006759516545571387,
0.0006139400647953153, -0.0022016470320522785, 0.00012558326125144958, 0.0009765625, 0.0007221876294352114, 0.00037710374454036355, 0.0006737160147167742, -0.0005643939366564155, -0.00027717393822968006,
0.00023619906278327107, -0.00045731684076599777, 0.0010594852501526475, -0.0005888597806915641, -0.0002965823805425316, 0.0008524410077370703, 0.0013599888188764453, -0.00015138449089135975, 0.0011892274487763643,
-0.0009940434247255325, -0.0003757642989512533, -0.00010083214874612167, -0.00023670538212172687, -0.0008980531129054725, -0.0014064302667975426, -0.00029100850224494934, 0.0014966630842536688, 0.0010810298845171928,
0.00021364731946960092, 0.0009359430987387896, -0.00016503942606505007, 0.000262673303950578, -0.00010171475150855258, 0.00024299902725033462, -0.0008212047978304327, 0.0006338569219224155, -0.0016348923090845346,
-0.0010945484973490238, 0.0005988877383060753, -1.602505835762713e-05, -5.4157433623913676e-05, -0.001482457504607737, -0.0008715541334822774, 0.0011129374615848064, -0.0001318278955295682, -0.002296140417456627,

0.17284061014652252, -0.14111408591270447, 0.10063678026199341, 0.005746697075664997, 0.050703804939985275, 0.22103580832481384, -0.1472020298242569, -0.04842706397175789, 0.02013232372701168,
-0.12004679441452026, -0.0742301270365715, -0.05826102942228317, 0.0992998331785202, -0.17802651226520538, -0.11883419007062912, -0.028431612998247147, 0.21510490775108337, 0.027911612764000893,
-0.14689165353775024, -0.020232772454619408, 0.094025157392025, -0.0012694153701886535, -0.18498755991458893, -0.0609661266207695, -0.058673154562711716, 0.016928398981690407, -0.1290483921766281,
0.35038602352142334, -0.28308266401290894, 0.2224612981081009, 0.13651202619075775, 0.11935136467218399, 0.3060019314289093, 0.06760019063949585, 0.03333614766597748, -0.00952786672860384,
0.1332116425037384, -0.726008415222168, 0.08535729348659515, 0.4763098955154419, -0.19916561245918274, -0.2749485969543457, -0.132002055644989, 0.10678057372570038, -0.07221490144729614,
0.00609905319288373, -0.4555383026599884, 0.15451014041900635, 0.7070696353912354, -0.13663916289806366, -0.26515766978263855, 0.06781400740146637, 0.2422860562801361, -0.11982966959476471,
0.09466011077165604, -0.3005658686161041, -0.08268623799085617, 0.19890904426574707, -0.0784890428185463, 0.07587721198797226, -0.01952339895069599, 0.0505908727645874, 0.09709587693214417,
0.43917468190193176, -0.21970848739147186, -0.11905573308467865, -0.08539357036352158, -0.05298444628715515, 0.2720917761325836, -0.12296230345964432, -0.0797475278377533, -0.11200760304927826,
-0.21936149895191193, -0.043866679072380066, 0.13711780309677124, 0.21605870127677917, -0.05168034881353378, -0.11497469991445541, -0.08998537808656693, 0.14204952120780945, 0.04491521790623665,

0.08475593477487564, -0.12500524520874023, 0.0818956270813942, 0.06346095353364944, -0.08375908434391022, 0.02340308576822281, 0.3324766755104065, -0.2539294958114624, -0.10861039906740189,
-0.07820148020982742, 0.09686487168073654, 0.04988621175289154, -0.16384856402873993, -0.021932026371359825, -0.20120397210121155, -0.2186552733182907, 0.46495747566223145, 0.06402875483036041,
-0.10432115197181702, -0.13829052448272705, 0.10032239556312561, 0.0857432633638382, 0.35272789001464844, 0.1566157042980194, -0.40212327241897583, -0.04044492170214653, 0.06077650934457779,
0.1759919822216034, 0.10821150243282318, -0.05979682877659798, -0.21598543226718903, -0.020273715257644653, 0.24804268777370453, 0.25499242544174194, -0.4772827923297882, 0.0259281974285841,
-0.15391652286052704, 0.10168275982141495, 0.02931969240307808, -0.41325128078460693, -0.22017991542816162, 0.10987938940525055, 0.5936839580535889, -0.28483670949935913, -0.0488273911178112,
-0.04071445018053055, -0.01655392162501812, 0.4505804479122162, -0.07227533310651779, -0.21291671693325043, -0.3825633227825165, 0.20127400755882263, 0.20242591202259064, -0.009533259086310863,
-0.044821105897426605, -0.3547975718975067, 0.15691491961479187, 0.2215028554201126, 0.14318227767944336, -0.2578320801258087, -0.06082449108362198, 0.11715211719274521, 0.0364273265004158,
0.3480159342288971, -0.0069186207838356495, -0.2593964636325836, -0.22054295241832733, 0.09065118432044983, 0.2732687294483185, 0.029627498239278793, -0.28665095567703247, -0.010202422738075256,
-0.2108430564403534, 0.09641014784574509, 0.18107344210147858, 0.02776975929737091, -0.12536992132663727, -0.09545121341943741, 0.1293669193983078, -0.012780215591192245, 0.06353791058063507,

0.05025120824575424, -0.09270341694355011, 0.11697094887495041, -0.013291548006236553, -0.05260244384407997, 0.1347111016511917, 0.13054533302783966, 0.018617941066622734, 0.024347543716430664,
0.03725617378950119, -0.16716597974300385, 0.1298164427280426, 0.01851983554661274, 0.02865925058722496, 0.005449098069220781, -0.1963779181241989, -0.1690814346075058, -0.03218362107872963,
0.02701590210199356, -0.08872615545988083, 0.15607257187366486, -0.14616113901138306, -0.16309647262096405, -0.06884926557540894, -0.07366567850112915, 0.20055846869945526, -0.01212327741086483,
-0.1651327759027481, 0.03811539709568024, 0.23738747835159302, -0.07941732555627823, -0.022930026054382324, 0.10594610869884491, 0.023792311549186707, 0.19175145030021667, -0.005928630009293556,
0.05853213742375374, 0.04073227196931839, 0.07557129114866257, -0.12856370210647583, 0.09656723588705063, 0.1839374452829361, -0.15239326655864716, -0.13476403057575226, 0.00944619718939066,
0.15141914784908295, -0.031781505793333054, -0.021443869918584824, -0.11567530781030655, 0.09248095005750656, 0.09602309763431549, -0.31865689158439636, -0.15197482705116272, 0.06484188139438629,
-0.12134963274002075, -0.0435468889772892, -0.09549347311258316, -0.14034700393676758, -0.03895963728427887, 0.03225155174732208, -0.10894597321748734, 0.21686305105686188, 0.02231641672551632,
-0.1602472960948944, 0.2123928815126419, 0.04229843243956566, -0.026489026844501495, -0.007051259744912386, 0.10272929072380066, 0.050375036895275116, 0.1877114325761795, -0.21782025694847107,
-0.01221636962145567, 0.1566271185874939, -0.053639501333236694, -0.0013596039498224854, -0.0109223248437047, 0.0381101556122303, -0.07428624480962753, -0.03700941056013107, 0.020875973626971245,

-1.3220475921116304e-05, -0.0002351427247049287, -0.0003017344861291349, 0.0011701176408678293, 0.0005219589802436531, -0.00017714938439894468, -0.0008295010193251073, 0.0026146171148866415, -0.000917407451197505,
0.0005582848098129034, 0.0002470496401656419, -0.0002831489546224475, 0.0004936241894029081, -0.0015356694348156452, -0.00012244866229593754, -0.00040164185338653624, 0.00031529582338407636, 0.0011554387165233493,
0.0010136263445019722, -0.0006100599421188235, 0.0010524714598432183, -0.001444124965928495, -0.00040138920303434134, 0.00031088918331079185, -0.0016401804750785232, -0.0019646992441266775, -0.0018860558047890663,
-0.0013858844758942723, -0.0004839716129936278, 0.0017164674354717135, 0.0001480509527027607, -0.0008143277373164892, 0.0006042238674126565, 0.0002973862283397466, 0.0011475378414615989, -0.0008238251903094351,
-0.001087642041966319, 0.0007561984821222723, -0.002661481499671936, 0.00013971570297144353, -0.0014026494463905692, -0.001581064541824162, 0.001193301286548376, 0.0009497179416939616, -0.001035139779560268,
-0.0015486932825297117, -0.001599774113856256, 0.0005479166866280138, -0.0018494618125259876, -0.0014196261763572693, 0.0003441201406531036, -0.00011232276301598176, 0.0006711058085784316, -0.0007719260174781084,
0.000127462248201482, -9.49866880546324e-05, 0.001740365056321025, -0.0004452465509530157, -0.0008572018123231828, 0.00015534927661065012, -7.274309609783813e-05, -0.0012182462960481644, -0.00019183973199687898,
5.020199296268402e-06, 0.0013708925107493997, -0.0012655328027904034, -0.0012379607651382685, -0.0020387996919453144, 0.000924676307477057, 0.000656351272482425, -0.0014400534564629197, -0.0009926535421982408,
-0.0005899652605876327, -0.0006870461511425674, 0.0004465800302568823, 0.00010915540769929066, 8.505984442308545e-05, 0.0009823464788496494, -0.0011803755769506097, 0.000518362270668149, 0.0018982960609719157,

0.06675630807876587, 0.10011044889688492, -0.13682027161121368, -0.20919878780841827, 0.07835565507411957, 0.26173344254493713, 0.14700977504253387, -0.10170216113328934, -0.015684163197875023,
-0.1015508845448494, 0.20361636579036713, 0.07913091778755188, -0.18289819359779358, -0.06950816512107849, -0.2127251923084259, -0.212612122297287, 0.006008985918015242, 0.09304043650627136,
-0.2301769107580185, 0.09825221449136734, 0.09731166064739227, -0.26144886016845703, -0.05017643794417381, 0.014347923919558525, 0.08888933062553406, 0.14839166402816772, -0.04708436131477356,
0.04767187684774399, 0.2252310812473297, 0.15061306953430176, -0.05101091414690018, 0.00885249674320221, 0.028482967987656593, 0.05058392509818077, -0.2315424531698227, -0.01981641910970211,
-0.11485124379396439, 0.040154892951250076, 0.16232730448246002, 0.08625652641057968, 0.15995582938194275, -0.03382885083556175, 0.07821764796972275, 0.021595515310764313, -0.0025906157679855824,
-0.04775497689843178, -0.23395177721977234, 0.07294104993343353, -0.1123623251914978, -0.048968635499477386, -0.30034151673316956, -0.04912468045949936, 0.3725926876068115, -0.17659033834934235,
0.011824085377156734, -0.021366603672504425, 0.07659834623336792, 0.09914397448301315, 0.045059047639369965, -0.15567144751548767, -0.057691991329193115, 0.1250881850719452, -0.006354268174618483,
0.08547789603471756, 0.09305590391159058, -0.221578910946846, 0.06795856356620789, 0.032484132796525955, 0.14592225849628448, 0.11007429659366608, -0.17674657702445984, 0.017361314967274666,
-0.1605878621339798, 0.08126337826251984, 0.17253640294075012, -0.048549190163612366, -0.11558538675308228, -0.010670696385204792, -0.11523112654685974, 0.1372087001800537, -0.0009926814818754792,

-0.09413260221481323, 0.10116744041442871, 0.07690484821796417, 0.029048291966319084, -0.04245157539844513, -0.05786983668804169, -0.01547294296324253, 0.013779924251139164, 0.0616614893078804,
-0.047353655099868774, 0.046854954212903976, -0.036578219383955, -0.04329188913106918, -0.050822511315345764, -0.012540447525680065, 0.0035728050861507654, -0.027613501995801926, -0.04868010804057121,
-0.006213999819010496, 0.06741014122962952, -0.02601684257388115, -0.040222957730293274, -0.0857955738902092, -0.038291215896606445, 0.01885293610394001, 0.024483531713485718, -0.04164252057671547,
-0.08545178920030594, 0.05634567141532898, 0.01995071955025196, 0.032319460064172745, -0.03407850116491318, -0.03887287527322769, 0.015596751123666763, 0.06087765842676163, -0.05568878352642059,
-0.10009366273880005, -0.007524869870394468, -0.05845760554075241, 0.040348220616579056, 0.070225790143013, 0.03150505945086479, 0.009345185942947865, 0.04165501520037651, -0.03276044875383377,
-0.01210689265280962, -0.012162122875452042, -0.08978217840194702, 0.0596056692302227, 0.132981538772583, 0.08955609798431396, 7.772523531457409e-05, -0.019989119842648506, 0.005661839619278908,
-0.0031503867357969284, 0.017818868160247803, 0.02696438506245613, 0.158264622092247, 0.11290949583053589, 0.01896071247756481, -0.037726029753685, -0.025289025157690048, 0.03947709500789642,
-0.013129609636962414, -0.043903741985559464, -0.005181447137147188, 0.10662806779146194, -0.05138043314218521, -0.1440013349056244, -0.07620743662118912, -0.0017911434406414628, 0.0463654100894928,
0.09102503210306168, -0.08506592363119125, -0.10052367299795151, 0.08344101160764694, 0.005159033462405205, -0.029293766245245934, 0.03669429570436478, -0.018124781548976898, -0.0538988821208477,

0.04917022958397865, -0.03377075493335724, 0.029063474386930466, -0.028347650542855263, 0.1519852876663208, -0.06072525307536125, -0.15768304467201233, -0.0811757892370224, 0.20282413065433502,
0.1640767902135849, -0.10849152505397797, -0.020853949710726738, 0.021501943469047546, 0.05948794633150101, 0.0715864971280098, 0.13787654042243958, 0.067623570561409, -0.17588138580322266,
-0.13236074149608612, -0.06981933861970901, -0.15008942782878876, -0.05620679631829262, 0.1363605260848999, 0.033482443541288376, 0.01452409103512764, -0.0830564945936203, -0.05323179066181183,
-0.08940479159355164, -0.03083725832402706, -0.17281045019626617, -0.1394493132829666, 0.3879155218601227, 0.0497780404984951, -0.0697089359164238, -0.16060182452201843, 0.052770957350730896,
0.2116864174604416, -0.002660884289070964, 0.05467509850859642, 0.3558388948440552, 0.9080133438110352, 0.30998682975769043, 0.09166785329580307, 0.007900921627879143, 0.16260871291160583,
-0.05938250944018364, -0.062445562332868576, -0.0721784234046936, 0.011742359958589077, 0.3000011742115021, -0.22053758800029755, -0.07178082317113876, 0.0781649723649025, -0.1341457962989807,
-0.15025712549686432, 0.039412666112184525, 0.049940239638090134, 0.11276823282241821, 0.26087385416030884, -0.17119522392749786, -0.04244593158364296, 0.08794930577278137, -0.07500926405191422,
0.07495568692684174, -0.05116410180926323, 0.06247921660542488, 0.15666399896144867, 0.09825385361909866, -0.1090649738907814, -0.002613720018416643, -0.07971512526273727, 0.119465172290802,
0.03241422772407532, -0.1202617809176445, -0.1062789037823677, -0.17203739285469055, 0.026307545602321625, 0.019237080588936806, 0.09277630597352982, -0.09537709504365921, -0.029367761686444283,

-0.04339740425348282, -0.12510566413402557, 0.15651321411132812, -0.1196160614490509, -0.0378347709774971, -0.11157974600791931, 0.10787242650985718, 0.16347242891788483, 0.028084397315979004,
0.13742677867412567, -0.03305390104651451, -0.010310225188732147, -0.07586779445409775, 0.21541397273540497, 0.014253620989620686, -0.28478729724884033, -0.11460007727146149, -0.06586463004350662,
0.11692309379577637, 0.0028135753236711025, 0.1513238102197647, -0.08193404972553253, 0.08263155817985535, -0.1510469764471054, -0.08710040152072906, 0.325381338596344, 0.07270590215921402,
-0.11571937054395676, -0.3155165910720825, 0.19886457920074463, -0.09982964396476746, 0.1113453209400177, -0.42221325635910034, 0.05658431723713875, 0.44419950246810913, -0.3280166685581207,
0.029110971838235855, 0.015313864685595036, 0.2397228628396988, -0.2372417002916336, 0.3109285831451416, -0.23003371059894562, 0.08986680209636688, 0.4076293706893921, 0.07154352217912674,
-0.0030942123848944902, 0.16851001977920532, 0.039231281727552414, -0.5238041281700134, 0.052800748497247696, -0.07276545464992523, -0.013563654385507107, -0.16536971926689148, -0.13748593628406525,
-0.0029227472841739655, 0.08835767209529877, 0.10154743492603302, -0.14176765084266663, 0.15699006617069244, 0.07332859933376312, 0.10024779289960861, 0.12034513801336288, 0.18203359842300415,
-0.1910303682088852, -0.11690597981214523, 0.014915727078914642, -0.05264352634549141, 0.09419392049312592, -0.12761491537094116, -0.1488305628299713, 0.14345036447048187, -0.130315363407135,
0.05057041719555855, 0.13296523690223694, 0.010911411605775356, -0.11275137960910797, 0.06476783752441406, -0.040463536977767944, -0.020888565108180046, 0.1671391725540161, -0.07143936306238174,

-0.0749134048819542, -0.060479842126369476, 0.07323461025953293, 0.128266841173172, -0.043285220861434937, -0.03357171639800072, -0.09970749169588089, -0.05523056909441948, 0.06289239227771759,
0.21901138126850128, -0.035849299281835556, -0.08650030195713043, -0.018982043489813805, 0.0695781335234642, 0.4145001173019409, -0.027209550142288208, -0.004038578364998102, 0.06541971862316132,
